svm_type c_svc
kernel_type rbf
gamma 0.14285714285714285
nr_class 2
total_sv 4247
rho 0.6699635291040299
label -1 1
nr_sv 2042 2205
SV
1.0 1:7.0 2:0.0 3:2.0 4:0.0 5:7.0 6:2.0 7:0.0 
1.0 1:76.0 2:0.0 3:0.0 4:0.0 5:76.0 6:0.0 7:0.0 
1.0 1:135.0 2:0.0 3:0.0 4:0.0 5:135.0 6:0.0 7:0.0 
0.7407460124237223 1:21.0 2:0.0 3:0.0 4:0.0 5:21.0 6:0.0 7:0.0 
1.0 1:132.0 2:0.0 3:0.0 4:0.0 5:132.0 6:0.0 7:0.0 
0.8153520695493445 1:10.0 2:0.0 3:0.0 4:2.0 5:10.0 6:0.0 7:2.0 
1.0 1:28.0 2:0.0 3:0.0 4:0.0 5:28.0 6:0.0 7:0.0 
0.3351846592592234 1:29.0 2:0.0 3:1.0 4:0.0 5:29.0 6:1.0 7:0.0 
1.0 1:46.0 2:0.0 3:0.0 4:0.0 5:46.0 6:0.0 7:0.0 
1.0 1:32.0 2:0.0 3:2.0 4:0.0 5:32.0 6:2.0 7:0.0 
0.24553946628081988 1:10.0 2:0.0 3:2.0 4:0.0 5:10.0 6:2.0 7:0.0 
1.0 1:15.0 2:0.0 3:6.0 4:0.0 5:15.0 6:6.0 7:0.0 
1.0 1:70.0 2:0.0 3:2.0 4:0.0 5:70.0 6:2.0 7:0.0 
1.0 1:21.0 2:0.0 3:0.0 4:0.0 5:21.0 6:0.0 7:0.0 
1.0 1:36.0 2:0.0 3:0.0 4:0.0 5:36.0 6:0.0 7:0.0 
1.0 1:32.0 2:0.0 3:0.0 4:0.0 5:32.0 6:0.0 7:0.0 
1.0 1:60.0 2:0.0 3:0.0 4:0.0 5:60.0 6:0.0 7:0.0 
0.5301285334439558 1:13.0 2:0.0 3:5.0 4:0.0 5:13.0 6:5.0 7:0.0 
1.0 1:159.0 2:0.0 3:0.0 4:0.0 5:159.0 6:0.0 7:0.0 
1.0 1:21.0 2:0.0 3:0.0 4:0.0 5:21.0 6:0.0 7:0.0 
1.0 1:25.0 2:0.0 3:0.0 4:0.0 5:25.0 6:0.0 7:0.0 
1.0 1:49.0 2:0.0 3:0.0 4:0.0 5:49.0 6:0.0 7:0.0 
1.0 1:37.0 2:0.0 3:0.0 4:0.0 5:37.0 6:0.0 7:0.0 
1.0 1:21.0 2:0.0 3:0.0 4:0.0 5:21.0 6:0.0 7:0.0 
1.0 1:38.0 2:0.0 3:0.0 4:0.0 5:38.0 6:0.0 7:0.0 
1.0 1:25.0 2:0.0 3:0.0 4:0.0 5:25.0 6:0.0 7:0.0 
1.0 1:28.0 2:0.0 3:0.0 4:0.0 5:28.0 6:0.0 7:0.0 
1.0 1:8.0 2:0.0 3:2.0 4:0.0 5:8.0 6:2.0 7:0.0 
0.15767744383552618 1:28.0 2:0.0 3:1.0 4:0.0 5:28.0 6:1.0 7:0.0 
0.9129639044139992 1:16.0 2:0.0 3:0.0 4:1.0 5:16.0 6:0.0 7:1.0 
0.7264050795086783 1:1.0 2:0.0 3:3.0 4:0.0 5:1.0 6:3.0 7:0.0 
1.0 1:59.0 2:0.0 3:0.0 4:0.0 5:59.0 6:0.0 7:0.0 
1.0 1:32.0 2:0.0 3:0.0 4:0.0 5:32.0 6:0.0 7:0.0 
0.37351990297170207 1:0.0 2:0.0 3:0.0 4:1.0 5:0.0 6:0.0 7:1.0 
1.0 1:21.0 2:0.0 3:0.0 4:0.0 5:21.0 6:0.0 7:0.0 
1.0 1:0.0 2:0.0 3:0.0 4:1.0 5:0.0 6:0.0 7:1.0 
1.0 1:81.0 2:0.0 3:0.0 4:0.0 5:81.0 6:0.0 7:0.0 
1.0 1:21.0 2:0.0 3:0.0 4:0.0 5:21.0 6:0.0 7:0.0 
1.0 1:78.0 2:0.0 3:2.0 4:0.0 5:78.0 6:2.0 7:0.0 
1.0 1:44.0 2:0.0 3:0.0 4:0.0 5:44.0 6:0.0 7:0.0 
1.0 1:20.0 2:0.0 3:1.0 4:0.0 5:20.0 6:1.0 7:0.0 
1.0 1:31.0 2:0.0 3:1.0 4:0.0 5:31.0 6:1.0 7:0.0 
1.0 1:61.0 2:0.0 3:0.0 4:0.0 5:61.0 6:0.0 7:0.0 
1.0 1:70.0 2:0.0 3:0.0 4:0.0 5:70.0 6:0.0 7:0.0 
1.0 1:0.0 2:0.0 3:0.0 4:1.0 5:0.0 6:0.0 7:1.0 
1.0 1:21.0 2:0.0 3:0.0 4:0.0 5:21.0 6:0.0 7:0.0 
1.0 1:34.0 2:0.0 3:1.0 4:0.0 5:34.0 6:1.0 7:0.0 
1.0 1:9.0 2:0.0 3:0.0 4:4.0 5:9.0 6:0.0 7:4.0 
1.0 1:32.0 2:0.0 3:0.0 4:0.0 5:32.0 6:0.0 7:0.0 
1.0 1:21.0 2:0.0 3:0.0 4:0.0 5:21.0 6:0.0 7:0.0 
1.0 1:37.0 2:0.0 3:0.0 4:0.0 5:37.0 6:0.0 7:0.0 
1.0 1:21.0 2:0.0 3:0.0 4:0.0 5:21.0 6:0.0 7:0.0 
1.0 1:25.0 2:0.0 3:0.0 4:0.0 5:25.0 6:0.0 7:0.0 
1.0 1:43.0 2:0.0 3:0.0 4:0.0 5:43.0 6:0.0 7:0.0 
0.8137374097555313 1:8.0 2:0.0 3:2.0 4:0.0 5:8.0 6:2.0 7:0.0 
0.878635798395456 1:83.0 2:0.0 3:0.0 4:0.0 5:83.0 6:0.0 7:0.0 
1.0 1:12.0 2:0.0 3:1.0 4:0.0 5:12.0 6:1.0 7:0.0 
1.0 1:54.0 2:0.0 3:0.0 4:0.0 5:54.0 6:0.0 7:0.0 
1.0 1:12.0 2:0.0 3:1.0 4:0.0 5:12.0 6:1.0 7:0.0 
1.0 1:30.0 2:0.0 3:1.0 4:0.0 5:30.0 6:1.0 7:0.0 
1.0 1:12.0 2:0.0 3:0.0 4:4.0 5:12.0 6:0.0 7:4.0 
1.0 1:12.0 2:0.0 3:4.0 4:0.0 5:12.0 6:4.0 7:0.0 
1.0 1:114.0 2:0.0 3:0.0 4:0.0 5:114.0 6:0.0 7:0.0 
0.792903396911549 1:23.0 2:0.0 3:1.0 4:0.0 5:23.0 6:1.0 7:0.0 
1.0 1:0.0 2:0.0 3:0.0 4:1.0 5:0.0 6:0.0 7:1.0 
1.0 1:25.0 2:0.0 3:0.0 4:0.0 5:25.0 6:0.0 7:0.0 
1.0 1:60.0 2:0.0 3:0.0 4:0.0 5:60.0 6:0.0 7:0.0 
0.2133194145842162 1:20.0 2:0.0 3:0.0 4:0.0 5:20.0 6:0.0 7:0.0 
1.0 1:32.0 2:0.0 3:0.0 4:0.0 5:32.0 6:0.0 7:0.0 
1.0 1:54.0 2:0.0 3:0.0 4:0.0 5:54.0 6:0.0 7:0.0 
1.0 1:50.0 2:0.0 3:0.0 4:0.0 5:50.0 6:0.0 7:0.0 
0.676529703270858 1:14.0 2:0.0 3:3.0 4:0.0 5:14.0 6:3.0 7:0.0 
1.0 1:44.0 2:0.0 3:0.0 4:0.0 5:44.0 6:0.0 7:0.0 
1.0 1:21.0 2:0.0 3:0.0 4:0.0 5:21.0 6:0.0 7:0.0 
1.0 1:91.0 2:0.0 3:0.0 4:0.0 5:91.0 6:0.0 7:0.0 
1.0 1:25.0 2:0.0 3:0.0 4:0.0 5:25.0 6:0.0 7:0.0 
1.0 1:45.0 2:0.0 3:4.0 4:0.0 5:45.0 6:4.0 7:0.0 
1.0 1:20.0 2:0.0 3:0.0 4:0.0 5:20.0 6:0.0 7:0.0 
1.0 1:28.0 2:0.0 3:0.0 4:0.0 5:28.0 6:0.0 7:0.0 
1.0 1:21.0 2:0.0 3:0.0 4:0.0 5:21.0 6:0.0 7:0.0 
1.0 1:101.0 2:0.0 3:0.0 4:0.0 5:101.0 6:0.0 7:0.0 
1.0 1:68.0 2:0.0 3:0.0 4:0.0 5:68.0 6:0.0 7:0.0 
1.0 1:21.0 2:0.0 3:0.0 4:0.0 5:21.0 6:0.0 7:0.0 
1.0 1:39.0 2:0.0 3:0.0 4:0.0 5:39.0 6:0.0 7:0.0 
1.0 1:20.0 2:0.0 3:0.0 4:0.0 5:20.0 6:0.0 7:0.0 
1.0 1:49.0 2:0.0 3:0.0 4:0.0 5:49.0 6:0.0 7:0.0 
1.0 1:20.0 2:0.0 3:0.0 4:0.0 5:20.0 6:0.0 7:0.0 
1.0 1:38.0 2:0.0 3:0.0 4:0.0 5:38.0 6:0.0 7:0.0 
1.0 1:20.0 2:0.0 3:0.0 4:0.0 5:20.0 6:0.0 7:0.0 
0.8289767300383442 1:24.0 2:0.0 3:0.0 4:0.0 5:24.0 6:0.0 7:0.0 
1.0 1:68.0 2:0.0 3:1.0 4:0.0 5:68.0 6:1.0 7:0.0 
1.0 1:20.0 2:0.0 3:0.0 4:0.0 5:20.0 6:0.0 7:0.0 
1.0 1:69.0 2:0.0 3:0.0 4:0.0 5:69.0 6:0.0 7:0.0 
1.0 1:25.0 2:0.0 3:0.0 4:0.0 5:25.0 6:0.0 7:0.0 
1.0 1:249.0 2:0.0 3:0.0 4:0.0 5:249.0 6:0.0 7:0.0 
1.0 1:24.0 2:0.0 3:0.0 4:0.0 5:24.0 6:0.0 7:0.0 
1.0 1:35.0 2:0.0 3:0.0 4:0.0 5:35.0 6:0.0 7:0.0 
1.0 1:36.0 2:0.0 3:0.0 4:0.0 5:36.0 6:0.0 7:0.0 
0.6650068741984915 1:4.0 2:0.0 3:0.0 4:2.0 5:4.0 6:0.0 7:2.0 
0.9047574346454906 1:41.0 2:0.0 3:0.0 4:0.0 5:41.0 6:0.0 7:0.0 
1.0 1:11.0 2:0.0 3:2.0 4:0.0 5:11.0 6:2.0 7:0.0 
1.0 1:21.0 2:0.0 3:0.0 4:0.0 5:21.0 6:0.0 7:0.0 
1.0 1:47.0 2:0.0 3:0.0 4:0.0 5:47.0 6:0.0 7:0.0 
1.0 1:24.0 2:0.0 3:0.0 4:0.0 5:24.0 6:0.0 7:0.0 
1.0 1:64.0 2:0.0 3:0.0 4:0.0 5:64.0 6:0.0 7:0.0 
0.8018975217007084 1:20.0 2:0.0 3:1.0 4:0.0 5:20.0 6:1.0 7:0.0 
1.0 1:24.0 2:0.0 3:0.0 4:0.0 5:24.0 6:0.0 7:0.0 
1.0 1:20.0 2:0.0 3:0.0 4:0.0 5:20.0 6:0.0 7:0.0 
0.6798162444805658 1:97.0 2:0.0 3:0.0 4:0.0 5:97.0 6:0.0 7:0.0 
0.4436555916400566 1:19.0 2:0.0 3:2.0 4:0.0 5:19.0 6:2.0 7:0.0 
1.0 1:46.0 2:0.0 3:0.0 4:0.0 5:46.0 6:0.0 7:0.0 
1.0 1:20.0 2:0.0 3:0.0 4:0.0 5:20.0 6:0.0 7:0.0 
0.08534743969368105 1:29.0 2:0.0 3:0.0 4:0.0 5:29.0 6:0.0 7:0.0 
1.0 1:27.0 2:0.0 3:0.0 4:0.0 5:27.0 6:0.0 7:0.0 
0.22149508438596344 1:31.0 2:0.0 3:0.0 4:0.0 5:31.0 6:0.0 7:0.0 
0.9123861634171585 1:6.0 2:0.0 3:2.0 4:0.0 5:6.0 6:2.0 7:0.0 
1.0 1:20.0 2:0.0 3:0.0 4:0.0 5:20.0 6:0.0 7:0.0 
1.0 1:19.0 2:0.0 3:0.0 4:0.0 5:19.0 6:0.0 7:0.0 
1.0 1:21.0 2:0.0 3:0.0 4:0.0 5:21.0 6:0.0 7:0.0 
1.0 1:31.0 2:0.0 3:0.0 4:0.0 5:31.0 6:0.0 7:0.0 
1.0 1:50.0 2:0.0 3:2.0 4:0.0 5:50.0 6:2.0 7:0.0 
1.0 1:20.0 2:0.0 3:0.0 4:0.0 5:20.0 6:0.0 7:0.0 
1.0 1:39.0 2:0.0 3:0.0 4:0.0 5:39.0 6:0.0 7:0.0 
1.0 1:43.0 2:0.0 3:0.0 4:0.0 5:43.0 6:0.0 7:0.0 
1.0 1:10.0 2:0.0 3:3.0 4:0.0 5:10.0 6:3.0 7:0.0 
1.0 1:36.0 2:0.0 3:0.0 4:0.0 5:36.0 6:0.0 7:0.0 
1.0 1:29.0 2:0.0 3:0.0 4:0.0 5:29.0 6:0.0 7:0.0 
1.0 1:70.0 2:0.0 3:0.0 4:0.0 5:70.0 6:0.0 7:0.0 
1.0 1:3.0 2:0.0 3:3.0 4:0.0 5:3.0 6:3.0 7:0.0 
1.0 1:6.0 2:0.0 3:2.0 4:0.0 5:6.0 6:2.0 7:0.0 
1.0 1:38.0 2:0.0 3:0.0 4:0.0 5:38.0 6:0.0 7:0.0 
1.0 1:25.0 2:0.0 3:0.0 4:0.0 5:25.0 6:0.0 7:0.0 
0.8344450053857122 1:19.0 2:0.0 3:0.0 4:1.0 5:19.0 6:0.0 7:1.0 
1.0 1:61.0 2:0.0 3:3.0 4:0.0 5:61.0 6:3.0 7:0.0 
0.03367607095249482 1:26.0 2:0.0 3:0.0 4:0.0 5:26.0 6:0.0 7:0.0 
1.0 1:20.0 2:0.0 3:0.0 4:0.0 5:20.0 6:0.0 7:0.0 
1.0 1:47.0 2:0.0 3:0.0 4:0.0 5:47.0 6:0.0 7:0.0 
1.0 1:43.0 2:0.0 3:0.0 4:0.0 5:43.0 6:0.0 7:0.0 
1.0 1:20.0 2:0.0 3:0.0 4:0.0 5:20.0 6:0.0 7:0.0 
1.0 1:28.0 2:0.0 3:0.0 4:0.0 5:28.0 6:0.0 7:0.0 
1.0 1:21.0 2:0.0 3:0.0 4:0.0 5:21.0 6:0.0 7:0.0 
1.0 1:19.0 2:0.0 3:0.0 4:0.0 5:19.0 6:0.0 7:0.0 
1.0 1:31.0 2:0.0 3:0.0 4:0.0 5:31.0 6:0.0 7:0.0 
1.0 1:29.0 2:0.0 3:0.0 4:0.0 5:29.0 6:0.0 7:0.0 
1.0 1:31.0 2:0.0 3:0.0 4:0.0 5:31.0 6:0.0 7:0.0 
1.0 1:39.0 2:0.0 3:0.0 4:0.0 5:39.0 6:0.0 7:0.0 
0.7445485668264865 1:17.0 2:0.0 3:2.0 4:0.0 5:17.0 6:2.0 7:0.0 
0.10249420082036673 1:6.0 2:0.0 3:3.0 4:0.0 5:6.0 6:3.0 7:0.0 
1.0 1:51.0 2:0.0 3:0.0 4:0.0 5:51.0 6:0.0 7:0.0 
0.9119599741126102 1:6.0 2:0.0 3:0.0 4:1.0 5:6.0 6:0.0 7:1.0 
1.0 1:19.0 2:0.0 3:0.0 4:0.0 5:19.0 6:0.0 7:0.0 
0.9588898119971151 1:10.0 2:0.0 3:5.0 4:0.0 5:10.0 6:5.0 7:0.0 
1.0 1:20.0 2:0.0 3:0.0 4:0.0 5:20.0 6:0.0 7:0.0 
1.0 1:28.0 2:0.0 3:0.0 4:0.0 5:28.0 6:0.0 7:0.0 
1.0 1:19.0 2:0.0 3:0.0 4:0.0 5:19.0 6:0.0 7:0.0 
1.0 1:40.0 2:0.0 3:0.0 4:0.0 5:40.0 6:0.0 7:0.0 
1.0 1:19.0 2:0.0 3:0.0 4:0.0 5:19.0 6:0.0 7:0.0 
1.0 1:20.0 2:0.0 3:0.0 4:0.0 5:20.0 6:0.0 7:0.0 
1.0 1:24.0 2:0.0 3:0.0 4:0.0 5:24.0 6:0.0 7:0.0 
0.8266533727036902 1:7.0 2:0.0 3:3.0 4:0.0 5:7.0 6:3.0 7:0.0 
1.0 1:25.0 2:0.0 3:0.0 4:0.0 5:25.0 6:0.0 7:0.0 
1.0 1:28.0 2:0.0 3:0.0 4:0.0 5:28.0 6:0.0 7:0.0 
0.9339771577732231 1:15.0 2:0.0 3:0.0 4:0.0 5:15.0 6:0.0 7:0.0 
1.0 1:32.0 2:0.0 3:0.0 4:0.0 5:32.0 6:0.0 7:0.0 
1.0 1:15.0 2:0.0 3:0.0 4:0.0 5:15.0 6:0.0 7:0.0 
0.8661498555776084 1:22.0 2:0.0 3:0.0 4:0.0 5:22.0 6:0.0 7:0.0 
1.0 1:24.0 2:0.0 3:0.0 4:0.0 5:24.0 6:0.0 7:0.0 
1.0 1:26.0 2:0.0 3:0.0 4:0.0 5:26.0 6:0.0 7:0.0 
1.0 1:59.0 2:0.0 3:2.0 4:1.0 5:59.0 6:2.0 7:1.0 
1.0 1:22.0 2:0.0 3:0.0 4:0.0 5:22.0 6:0.0 7:0.0 
1.0 1:29.0 2:0.0 3:0.0 4:0.0 5:29.0 6:0.0 7:0.0 
1.0 1:21.0 2:0.0 3:0.0 4:0.0 5:21.0 6:0.0 7:0.0 
1.0 1:38.0 2:0.0 3:0.0 4:0.0 5:38.0 6:0.0 7:0.0 
1.0 1:24.0 2:0.0 3:0.0 4:0.0 5:24.0 6:0.0 7:0.0 
1.0 1:15.0 2:0.0 3:0.0 4:0.0 5:15.0 6:0.0 7:0.0 
0.6760249818215067 1:22.0 2:0.0 3:0.0 4:1.0 5:22.0 6:0.0 7:1.0 
1.0 1:31.0 2:0.0 3:0.0 4:0.0 5:31.0 6:0.0 7:0.0 
1.0 1:19.0 2:0.0 3:0.0 4:0.0 5:19.0 6:0.0 7:0.0 
0.3926589502122327 1:18.0 2:0.0 3:0.0 4:0.0 5:18.0 6:0.0 7:0.0 
1.0 1:18.0 2:0.0 3:0.0 4:0.0 5:18.0 6:0.0 7:0.0 
0.9785391976277247 1:41.0 2:0.0 3:0.0 4:0.0 5:41.0 6:0.0 7:0.0 
1.0 1:15.0 2:0.0 3:0.0 4:0.0 5:15.0 6:0.0 7:0.0 
1.0 1:20.0 2:0.0 3:0.0 4:0.0 5:20.0 6:0.0 7:0.0 
1.0 1:76.0 2:0.0 3:0.0 4:0.0 5:76.0 6:0.0 7:0.0 
1.0 1:67.0 2:0.0 3:0.0 4:0.0 5:67.0 6:0.0 7:0.0 
1.0 1:138.0 2:0.0 3:0.0 4:0.0 5:138.0 6:0.0 7:0.0 
1.0 1:15.0 2:0.0 3:0.0 4:0.0 5:15.0 6:0.0 7:0.0 
1.0 1:31.0 2:0.0 3:0.0 4:0.0 5:31.0 6:0.0 7:0.0 
1.0 1:25.0 2:0.0 3:0.0 4:0.0 5:25.0 6:0.0 7:0.0 
1.0 1:21.0 2:0.0 3:0.0 4:0.0 5:21.0 6:0.0 7:0.0 
1.0 1:18.0 2:0.0 3:0.0 4:0.0 5:18.0 6:0.0 7:0.0 
1.0 1:47.0 2:0.0 3:2.0 4:0.0 5:47.0 6:2.0 7:0.0 
1.0 1:21.0 2:0.0 3:0.0 4:0.0 5:21.0 6:0.0 7:0.0 
0.7930275374240335 1:14.0 2:0.0 3:3.0 4:0.0 5:14.0 6:3.0 7:0.0 
1.0 1:15.0 2:0.0 3:0.0 4:0.0 5:15.0 6:0.0 7:0.0 
1.0 1:29.0 2:0.0 3:0.0 4:0.0 5:29.0 6:0.0 7:0.0 
1.0 1:39.0 2:0.0 3:0.0 4:0.0 5:39.0 6:0.0 7:0.0 
1.0 1:26.0 2:0.0 3:0.0 4:0.0 5:26.0 6:0.0 7:0.0 
1.0 1:18.0 2:0.0 3:0.0 4:0.0 5:18.0 6:0.0 7:0.0 
1.0 1:26.0 2:0.0 3:0.0 4:0.0 5:26.0 6:0.0 7:0.0 
1.0 1:21.0 2:0.0 3:0.0 4:0.0 5:21.0 6:0.0 7:0.0 
1.0 1:27.0 2:0.0 3:0.0 4:0.0 5:27.0 6:0.0 7:0.0 
1.0 1:16.0 2:0.0 3:1.0 4:0.0 5:16.0 6:1.0 7:0.0 
1.0 1:25.0 2:0.0 3:0.0 4:0.0 5:25.0 6:0.0 7:0.0 
1.0 1:18.0 2:0.0 3:0.0 4:0.0 5:18.0 6:0.0 7:0.0 
1.0 1:15.0 2:0.0 3:0.0 4:0.0 5:15.0 6:0.0 7:0.0 
1.0 1:60.0 2:0.0 3:0.0 4:0.0 5:60.0 6:0.0 7:0.0 
1.0 1:19.0 2:0.0 3:0.0 4:2.0 5:19.0 6:0.0 7:2.0 
1.0 1:20.0 2:0.0 3:0.0 4:0.0 5:20.0 6:0.0 7:0.0 
1.0 1:22.0 2:0.0 3:0.0 4:0.0 5:22.0 6:0.0 7:0.0 
1.0 1:62.0 2:0.0 3:1.0 4:0.0 5:62.0 6:1.0 7:0.0 
1.0 1:15.0 2:0.0 3:0.0 4:0.0 5:15.0 6:0.0 7:0.0 
0.9729525046046 1:115.0 2:0.0 3:0.0 4:0.0 5:115.0 6:0.0 7:0.0 
1.0 1:40.0 2:0.0 3:0.0 4:0.0 5:40.0 6:0.0 7:0.0 
0.6669102463056961 1:24.0 2:0.0 3:0.0 4:1.0 5:24.0 6:0.0 7:1.0 
1.0 1:29.0 2:0.0 3:0.0 4:0.0 5:29.0 6:0.0 7:0.0 
1.0 1:24.0 2:0.0 3:0.0 4:0.0 5:24.0 6:0.0 7:0.0 
1.0 1:91.0 2:0.0 3:1.0 4:0.0 5:91.0 6:1.0 7:0.0 
1.0 1:20.0 2:0.0 3:0.0 4:0.0 5:20.0 6:0.0 7:0.0 
0.5141964134866385 1:13.0 2:0.0 3:0.0 4:0.0 5:13.0 6:0.0 7:0.0 
1.0 1:18.0 2:0.0 3:0.0 4:0.0 5:18.0 6:0.0 7:0.0 
1.0 1:32.0 2:0.0 3:0.0 4:0.0 5:32.0 6:0.0 7:0.0 
0.9562234571988051 1:27.0 2:0.0 3:2.0 4:0.0 5:27.0 6:2.0 7:0.0 
1.0 1:21.0 2:0.0 3:0.0 4:0.0 5:21.0 6:0.0 7:0.0 
1.0 1:13.0 2:0.0 3:0.0 4:0.0 5:13.0 6:0.0 7:0.0 
1.0 1:13.0 2:0.0 3:0.0 4:0.0 5:13.0 6:0.0 7:0.0 
1.0 1:13.0 2:0.0 3:0.0 4:0.0 5:13.0 6:0.0 7:0.0 
1.0 1:27.0 2:0.0 3:0.0 4:0.0 5:27.0 6:0.0 7:0.0 
1.0 1:21.0 2:0.0 3:0.0 4:0.0 5:21.0 6:0.0 7:0.0 
1.0 1:18.0 2:0.0 3:0.0 4:0.0 5:18.0 6:0.0 7:0.0 
1.0 1:25.0 2:0.0 3:0.0 4:0.0 5:25.0 6:0.0 7:0.0 
1.0 1:21.0 2:0.0 3:0.0 4:0.0 5:21.0 6:0.0 7:0.0 
1.0 1:18.0 2:0.0 3:0.0 4:0.0 5:18.0 6:0.0 7:0.0 
1.0 1:15.0 2:0.0 3:0.0 4:0.0 5:15.0 6:0.0 7:0.0 
1.0 1:15.0 2:0.0 3:0.0 4:0.0 5:15.0 6:0.0 7:0.0 
1.0 1:20.0 2:0.0 3:0.0 4:0.0 5:20.0 6:0.0 7:0.0 
1.0 1:21.0 2:0.0 3:0.0 4:0.0 5:21.0 6:0.0 7:0.0 
1.0 1:6.0 2:0.0 3:2.0 4:0.0 5:6.0 6:2.0 7:0.0 
0.14290816702291695 1:7.0 2:0.0 3:0.0 4:1.0 5:7.0 6:0.0 7:1.0 
1.0 1:15.0 2:0.0 3:0.0 4:0.0 5:15.0 6:0.0 7:0.0 
1.0 1:19.0 2:0.0 3:0.0 4:0.0 5:19.0 6:0.0 7:0.0 
1.0 1:36.0 2:0.0 3:0.0 4:0.0 5:36.0 6:0.0 7:0.0 
1.0 1:19.0 2:0.0 3:0.0 4:0.0 5:19.0 6:0.0 7:0.0 
1.0 1:13.0 2:0.0 3:0.0 4:0.0 5:13.0 6:0.0 7:0.0 
1.0 1:13.0 2:0.0 3:0.0 4:0.0 5:13.0 6:0.0 7:0.0 
1.0 1:25.0 2:0.0 3:0.0 4:0.0 5:25.0 6:0.0 7:0.0 
1.0 1:20.0 2:0.0 3:0.0 4:0.0 5:20.0 6:0.0 7:0.0 
0.16243778452670932 1:8.0 2:0.0 3:0.0 4:1.0 5:8.0 6:0.0 7:1.0 
1.0 1:13.0 2:0.0 3:0.0 4:0.0 5:13.0 6:0.0 7:0.0 
1.0 1:47.0 2:0.0 3:0.0 4:1.0 5:47.0 6:0.0 7:1.0 
1.0 1:6.0 2:0.0 3:2.0 4:0.0 5:6.0 6:2.0 7:0.0 
1.0 1:5.0 2:0.0 3:0.0 4:2.0 5:5.0 6:0.0 7:2.0 
1.0 1:13.0 2:0.0 3:0.0 4:0.0 5:13.0 6:0.0 7:0.0 
1.0 1:21.0 2:0.0 3:0.0 4:0.0 5:21.0 6:0.0 7:0.0 
1.0 1:15.0 2:0.0 3:0.0 4:0.0 5:15.0 6:0.0 7:0.0 
1.0 1:29.0 2:0.0 3:0.0 4:0.0 5:29.0 6:0.0 7:0.0 
1.0 1:32.0 2:0.0 3:0.0 4:0.0 5:32.0 6:0.0 7:0.0 
1.0 1:13.0 2:0.0 3:0.0 4:0.0 5:13.0 6:0.0 7:0.0 
1.0 1:15.0 2:0.0 3:0.0 4:0.0 5:15.0 6:0.0 7:0.0 
0.8053977515519357 1:82.0 2:0.0 3:0.0 4:0.0 5:82.0 6:0.0 7:0.0 
1.0 1:13.0 2:0.0 3:0.0 4:0.0 5:13.0 6:0.0 7:0.0 
1.0 1:46.0 2:0.0 3:0.0 4:0.0 5:46.0 6:0.0 7:0.0 
1.0 1:21.0 2:0.0 3:0.0 4:0.0 5:21.0 6:0.0 7:0.0 
0.9833447450403848 1:97.0 2:0.0 3:0.0 4:0.0 5:97.0 6:0.0 7:0.0 
1.0 1:18.0 2:0.0 3:0.0 4:0.0 5:18.0 6:0.0 7:0.0 
1.0 1:18.0 2:0.0 3:0.0 4:0.0 5:18.0 6:0.0 7:0.0 
1.0 1:19.0 2:0.0 3:0.0 4:0.0 5:19.0 6:0.0 7:0.0 
1.0 1:22.0 2:0.0 3:0.0 4:0.0 5:22.0 6:0.0 7:0.0 
1.0 1:19.0 2:0.0 3:0.0 4:0.0 5:19.0 6:0.0 7:0.0 
0.14848046588930375 1:4.0 2:0.0 3:2.0 4:0.0 5:4.0 6:2.0 7:0.0 
1.0 1:37.0 2:0.0 3:0.0 4:0.0 5:37.0 6:0.0 7:0.0 
1.0 1:12.0 2:0.0 3:2.0 4:0.0 5:12.0 6:2.0 7:0.0 
1.0 1:13.0 2:0.0 3:0.0 4:0.0 5:13.0 6:0.0 7:0.0 
0.5410696297003965 1:15.0 2:0.0 3:4.0 4:0.0 5:15.0 6:4.0 7:0.0 
1.0 1:25.0 2:0.0 3:0.0 4:0.0 5:25.0 6:0.0 7:0.0 
1.0 1:35.0 2:0.0 3:0.0 4:0.0 5:35.0 6:0.0 7:0.0 
1.0 1:25.0 2:0.0 3:0.0 4:0.0 5:25.0 6:0.0 7:0.0 
1.0 1:43.0 2:0.0 3:0.0 4:0.0 5:43.0 6:0.0 7:0.0 
1.0 1:13.0 2:0.0 3:0.0 4:0.0 5:13.0 6:0.0 7:0.0 
1.0 1:39.0 2:0.0 3:0.0 4:0.0 5:39.0 6:0.0 7:0.0 
1.0 1:19.0 2:0.0 3:0.0 4:0.0 5:19.0 6:0.0 7:0.0 
0.7763018117631849 1:5.0 2:0.0 3:1.0 4:0.0 5:5.0 6:1.0 7:0.0 
1.0 1:19.0 2:0.0 3:0.0 4:0.0 5:19.0 6:0.0 7:0.0 
1.0 1:44.0 2:0.0 3:0.0 4:0.0 5:44.0 6:0.0 7:0.0 
1.0 1:13.0 2:0.0 3:0.0 4:0.0 5:13.0 6:0.0 7:0.0 
1.0 1:5.0 2:0.0 3:1.0 4:0.0 5:5.0 6:1.0 7:0.0 
1.0 1:45.0 2:0.0 3:0.0 4:0.0 5:45.0 6:0.0 7:0.0 
1.0 1:15.0 2:0.0 3:0.0 4:0.0 5:15.0 6:0.0 7:0.0 
1.0 1:24.0 2:0.0 3:0.0 4:0.0 5:24.0 6:0.0 7:0.0 
1.0 1:21.0 2:0.0 3:0.0 4:0.0 5:21.0 6:0.0 7:0.0 
0.9350713757966526 1:17.0 2:0.0 3:0.0 4:0.0 5:17.0 6:0.0 7:0.0 
1.0 1:21.0 2:0.0 3:0.0 4:0.0 5:21.0 6:0.0 7:0.0 
1.0 1:13.0 2:0.0 3:0.0 4:0.0 5:13.0 6:0.0 7:0.0 
1.0 1:31.0 2:0.0 3:0.0 4:0.0 5:31.0 6:0.0 7:0.0 
1.0 1:20.0 2:0.0 3:0.0 4:0.0 5:20.0 6:0.0 7:0.0 
1.0 1:13.0 2:0.0 3:0.0 4:0.0 5:13.0 6:0.0 7:0.0 
1.0 1:39.0 2:0.0 3:0.0 4:0.0 5:39.0 6:0.0 7:0.0 
1.0 1:14.0 2:0.0 3:0.0 4:0.0 5:14.0 6:0.0 7:0.0 
1.0 1:14.0 2:0.0 3:0.0 4:0.0 5:14.0 6:0.0 7:0.0 
0.9122112948623808 1:25.0 2:0.0 3:1.0 4:0.0 5:25.0 6:1.0 7:0.0 
1.0 1:58.0 2:0.0 3:0.0 4:0.0 5:58.0 6:0.0 7:0.0 
1.0 1:13.0 2:0.0 3:0.0 4:0.0 5:13.0 6:0.0 7:0.0 
1.0 1:21.0 2:0.0 3:0.0 4:0.0 5:21.0 6:0.0 7:0.0 
1.0 1:19.0 2:0.0 3:0.0 4:0.0 5:19.0 6:0.0 7:0.0 
1.0 1:5.0 2:0.0 3:1.0 4:0.0 5:5.0 6:1.0 7:0.0 
0.23333451111186634 1:10.0 2:0.0 3:0.0 4:0.0 5:10.0 6:0.0 7:0.0 
1.0 1:10.0 2:0.0 3:0.0 4:0.0 5:10.0 6:0.0 7:0.0 
1.0 1:18.0 2:0.0 3:0.0 4:0.0 5:18.0 6:0.0 7:0.0 
1.0 1:15.0 2:0.0 3:0.0 4:0.0 5:15.0 6:0.0 7:0.0 
1.0 1:21.0 2:0.0 3:0.0 4:0.0 5:21.0 6:0.0 7:0.0 
0.8345501714753355 1:19.0 2:0.0 3:1.0 4:0.0 5:19.0 6:1.0 7:0.0 
1.0 1:78.0 2:0.0 3:1.0 4:0.0 5:78.0 6:1.0 7:0.0 
1.0 1:39.0 2:0.0 3:0.0 4:0.0 5:39.0 6:0.0 7:0.0 
1.0 1:10.0 2:0.0 3:0.0 4:0.0 5:10.0 6:0.0 7:0.0 
1.0 1:10.0 2:0.0 3:0.0 4:0.0 5:10.0 6:0.0 7:0.0 
1.0 1:17.0 2:0.0 3:0.0 4:0.0 5:17.0 6:0.0 7:0.0 
1.0 1:14.0 2:0.0 3:0.0 4:0.0 5:14.0 6:0.0 7:0.0 
1.0 1:13.0 2:0.0 3:0.0 4:0.0 5:13.0 6:0.0 7:0.0 
1.0 1:17.0 2:0.0 3:0.0 4:0.0 5:17.0 6:0.0 7:0.0 
1.0 1:17.0 2:0.0 3:0.0 4:0.0 5:17.0 6:0.0 7:0.0 
1.0 1:20.0 2:0.0 3:0.0 4:0.0 5:20.0 6:0.0 7:0.0 
1.0 1:10.0 2:0.0 3:0.0 4:0.0 5:10.0 6:0.0 7:0.0 
0.056817709677576524 1:25.0 2:0.0 3:1.0 4:0.0 5:25.0 6:1.0 7:0.0 
1.0 1:19.0 2:0.0 3:0.0 4:0.0 5:19.0 6:0.0 7:0.0 
1.0 1:17.0 2:0.0 3:0.0 4:0.0 5:17.0 6:0.0 7:0.0 
1.0 1:26.0 2:0.0 3:0.0 4:0.0 5:26.0 6:0.0 7:0.0 
0.3739069214287385 1:16.0 2:0.0 3:1.0 4:0.0 5:16.0 6:1.0 7:0.0 
1.0 1:10.0 2:0.0 3:0.0 4:0.0 5:10.0 6:0.0 7:0.0 
1.0 1:38.0 2:0.0 3:0.0 4:0.0 5:38.0 6:0.0 7:0.0 
1.0 1:14.0 2:0.0 3:0.0 4:0.0 5:14.0 6:0.0 7:0.0 
1.0 1:14.0 2:0.0 3:0.0 4:0.0 5:14.0 6:0.0 7:0.0 
1.0 1:10.0 2:0.0 3:0.0 4:0.0 5:10.0 6:0.0 7:0.0 
1.0 1:10.0 2:0.0 3:0.0 4:0.0 5:10.0 6:0.0 7:0.0 
1.0 1:14.0 2:0.0 3:0.0 4:0.0 5:14.0 6:0.0 7:0.0 
1.0 1:10.0 2:0.0 3:0.0 4:0.0 5:10.0 6:0.0 7:0.0 
1.0 1:17.0 2:0.0 3:0.0 4:0.0 5:17.0 6:0.0 7:0.0 
1.0 1:14.0 2:0.0 3:0.0 4:0.0 5:14.0 6:0.0 7:0.0 
1.0 1:10.0 2:0.0 3:0.0 4:0.0 5:10.0 6:0.0 7:0.0 
1.0 1:25.0 2:0.0 3:0.0 4:0.0 5:25.0 6:0.0 7:0.0 
1.0 1:17.0 2:0.0 3:0.0 4:0.0 5:17.0 6:0.0 7:0.0 
1.0 1:52.0 2:0.0 3:0.0 4:0.0 5:52.0 6:0.0 7:0.0 
1.0 1:13.0 2:0.0 3:0.0 4:0.0 5:13.0 6:0.0 7:0.0 
1.0 1:10.0 2:0.0 3:0.0 4:0.0 5:10.0 6:0.0 7:0.0 
1.0 1:15.0 2:0.0 3:0.0 4:0.0 5:15.0 6:0.0 7:0.0 
1.0 1:17.0 2:0.0 3:0.0 4:0.0 5:17.0 6:0.0 7:0.0 
1.0 1:10.0 2:0.0 3:0.0 4:0.0 5:10.0 6:0.0 7:0.0 
1.0 1:13.0 2:0.0 3:0.0 4:0.0 5:13.0 6:0.0 7:0.0 
1.0 1:14.0 2:0.0 3:0.0 4:0.0 5:14.0 6:0.0 7:0.0 
0.10725856905673632 1:5.0 2:0.0 3:0.0 4:1.0 5:5.0 6:0.0 7:1.0 
1.0 1:31.0 2:0.0 3:0.0 4:0.0 5:31.0 6:0.0 7:0.0 
0.9547535332469392 1:11.0 2:0.0 3:0.0 4:0.0 5:11.0 6:0.0 7:0.0 
1.0 1:17.0 2:0.0 3:0.0 4:0.0 5:17.0 6:0.0 7:0.0 
1.0 1:12.0 2:0.0 3:2.0 4:0.0 5:12.0 6:2.0 7:0.0 
1.0 1:0.0 2:0.0 3:0.0 4:1.0 5:0.0 6:0.0 7:1.0 
1.0 1:10.0 2:0.0 3:0.0 4:0.0 5:10.0 6:0.0 7:0.0 
1.0 1:32.0 2:0.0 3:0.0 4:0.0 5:32.0 6:0.0 7:0.0 
1.0 1:13.0 2:0.0 3:0.0 4:0.0 5:13.0 6:0.0 7:0.0 
1.0 1:43.0 2:0.0 3:0.0 4:0.0 5:43.0 6:0.0 7:0.0 
1.0 1:10.0 2:0.0 3:0.0 4:0.0 5:10.0 6:0.0 7:0.0 
1.0 1:36.0 2:0.0 3:1.0 4:0.0 5:36.0 6:1.0 7:0.0 
1.0 1:10.0 2:0.0 3:0.0 4:0.0 5:10.0 6:0.0 7:0.0 
1.0 1:15.0 2:0.0 3:0.0 4:0.0 5:15.0 6:0.0 7:0.0 
1.0 1:14.0 2:0.0 3:0.0 4:0.0 5:14.0 6:0.0 7:0.0 
1.0 1:13.0 2:0.0 3:0.0 4:0.0 5:13.0 6:0.0 7:0.0 
1.0 1:11.0 2:0.0 3:0.0 4:0.0 5:11.0 6:0.0 7:0.0 
1.0 1:18.0 2:0.0 3:0.0 4:0.0 5:18.0 6:0.0 7:0.0 
1.0 1:14.0 2:0.0 3:0.0 4:0.0 5:14.0 6:0.0 7:0.0 
1.0 1:11.0 2:0.0 3:0.0 4:0.0 5:11.0 6:0.0 7:0.0 
1.0 1:13.0 2:0.0 3:0.0 4:0.0 5:13.0 6:0.0 7:0.0 
1.0 1:38.0 2:0.0 3:0.0 4:0.0 5:38.0 6:0.0 7:0.0 
1.0 1:63.0 2:0.0 3:0.0 4:0.0 5:63.0 6:0.0 7:0.0 
1.0 1:11.0 2:0.0 3:0.0 4:0.0 5:11.0 6:0.0 7:0.0 
1.0 1:18.0 2:0.0 3:0.0 4:0.0 5:18.0 6:0.0 7:0.0 
1.0 1:10.0 2:0.0 3:0.0 4:0.0 5:10.0 6:0.0 7:0.0 
1.0 1:14.0 2:0.0 3:0.0 4:0.0 5:14.0 6:0.0 7:0.0 
1.0 1:10.0 2:0.0 3:0.0 4:0.0 5:10.0 6:0.0 7:0.0 
1.0 1:10.0 2:0.0 3:0.0 4:0.0 5:10.0 6:0.0 7:0.0 
0.7743192119248886 1:14.0 2:0.0 3:1.0 4:0.0 5:14.0 6:1.0 7:0.0 
1.0 1:18.0 2:0.0 3:0.0 4:0.0 5:18.0 6:0.0 7:0.0 
1.0 1:12.0 2:0.0 3:1.0 4:0.0 5:12.0 6:1.0 7:0.0 
1.0 1:13.0 2:0.0 3:0.0 4:0.0 5:13.0 6:0.0 7:0.0 
1.0 1:5.0 2:0.0 3:1.0 4:0.0 5:5.0 6:1.0 7:0.0 
0.6094771450292671 1:16.0 2:0.0 3:0.0 4:0.0 5:16.0 6:0.0 7:0.0 
1.0 1:11.0 2:0.0 3:0.0 4:0.0 5:11.0 6:0.0 7:0.0 
1.0 1:11.0 2:0.0 3:0.0 4:0.0 5:11.0 6:0.0 7:0.0 
1.0 1:13.0 2:0.0 3:0.0 4:0.0 5:13.0 6:0.0 7:0.0 
1.0 1:22.0 2:0.0 3:0.0 4:0.0 5:22.0 6:0.0 7:0.0 
0.903098279585807 1:27.0 2:0.0 3:0.0 4:1.0 5:27.0 6:0.0 7:1.0 
1.0 1:15.0 2:0.0 3:0.0 4:0.0 5:15.0 6:0.0 7:0.0 
1.0 1:13.0 2:0.0 3:0.0 4:0.0 5:13.0 6:0.0 7:0.0 
1.0 1:124.0 2:0.0 3:3.0 4:0.0 5:124.0 6:3.0 7:0.0 
1.0 1:51.0 2:0.0 3:0.0 4:0.0 5:51.0 6:0.0 7:0.0 
1.0 1:16.0 2:0.0 3:0.0 4:0.0 5:16.0 6:0.0 7:0.0 
1.0 1:14.0 2:0.0 3:0.0 4:0.0 5:14.0 6:0.0 7:0.0 
1.0 1:10.0 2:0.0 3:0.0 4:0.0 5:10.0 6:0.0 7:0.0 
1.0 1:13.0 2:0.0 3:0.0 4:0.0 5:13.0 6:0.0 7:0.0 
1.0 1:10.0 2:0.0 3:0.0 4:0.0 5:10.0 6:0.0 7:0.0 
0.011288283497794881 1:9.0 2:0.0 3:0.0 4:0.0 5:9.0 6:0.0 7:0.0 
0.171927837288571 1:8.0 2:0.0 3:0.0 4:0.0 5:8.0 6:0.0 7:0.0 
1.0 1:10.0 2:0.0 3:0.0 4:0.0 5:10.0 6:0.0 7:0.0 
1.0 1:10.0 2:0.0 3:0.0 4:0.0 5:10.0 6:0.0 7:0.0 
1.0 1:33.0 2:0.0 3:0.0 4:0.0 5:33.0 6:0.0 7:0.0 
1.0 1:15.0 2:0.0 3:0.0 4:0.0 5:15.0 6:0.0 7:0.0 
1.0 1:33.0 2:0.0 3:0.0 4:0.0 5:33.0 6:0.0 7:0.0 
1.0 1:22.0 2:0.0 3:0.0 4:0.0 5:22.0 6:0.0 7:0.0 
1.0 1:13.0 2:0.0 3:0.0 4:0.0 5:13.0 6:0.0 7:0.0 
1.0 1:9.0 2:0.0 3:0.0 4:0.0 5:9.0 6:0.0 7:0.0 
1.0 1:10.0 2:0.0 3:0.0 4:0.0 5:10.0 6:0.0 7:0.0 
1.0 1:9.0 2:0.0 3:0.0 4:0.0 5:9.0 6:0.0 7:0.0 
1.0 1:11.0 2:0.0 3:0.0 4:0.0 5:11.0 6:0.0 7:0.0 
1.0 1:8.0 2:0.0 3:0.0 4:0.0 5:8.0 6:0.0 7:0.0 
1.0 1:19.0 2:0.0 3:0.0 4:0.0 5:19.0 6:0.0 7:0.0 
1.0 1:15.0 2:0.0 3:0.0 4:0.0 5:15.0 6:0.0 7:0.0 
1.0 1:11.0 2:0.0 3:0.0 4:0.0 5:11.0 6:0.0 7:0.0 
1.0 1:10.0 2:0.0 3:0.0 4:0.0 5:10.0 6:0.0 7:0.0 
1.0 1:15.0 2:0.0 3:0.0 4:0.0 5:15.0 6:0.0 7:0.0 
1.0 1:11.0 2:0.0 3:0.0 4:0.0 5:11.0 6:0.0 7:0.0 
1.0 1:12.0 2:0.0 3:0.0 4:0.0 5:12.0 6:0.0 7:0.0 
1.0 1:9.0 2:0.0 3:0.0 4:0.0 5:9.0 6:0.0 7:0.0 
1.0 1:9.0 2:0.0 3:0.0 4:0.0 5:9.0 6:0.0 7:0.0 
1.0 1:27.0 2:0.0 3:0.0 4:0.0 5:27.0 6:0.0 7:0.0 
1.0 1:13.0 2:0.0 3:0.0 4:0.0 5:13.0 6:0.0 7:0.0 
1.0 1:8.0 2:0.0 3:0.0 4:0.0 5:8.0 6:0.0 7:0.0 
1.0 1:11.0 2:0.0 3:4.0 4:0.0 5:11.0 6:4.0 7:0.0 
1.0 1:9.0 2:0.0 3:0.0 4:0.0 5:9.0 6:0.0 7:0.0 
1.0 1:10.0 2:0.0 3:0.0 4:0.0 5:10.0 6:0.0 7:0.0 
1.0 1:8.0 2:0.0 3:0.0 4:0.0 5:8.0 6:0.0 7:0.0 
1.0 1:8.0 2:0.0 3:0.0 4:0.0 5:8.0 6:0.0 7:0.0 
1.0 1:8.0 2:0.0 3:0.0 4:0.0 5:8.0 6:0.0 7:0.0 
0.3465314109588923 1:15.0 2:0.0 3:1.0 4:1.0 5:15.0 6:1.0 7:1.0 
1.0 1:9.0 2:0.0 3:0.0 4:0.0 5:9.0 6:0.0 7:0.0 
1.0 1:20.0 2:0.0 3:0.0 4:0.0 5:20.0 6:0.0 7:0.0 
1.0 1:8.0 2:0.0 3:0.0 4:0.0 5:8.0 6:0.0 7:0.0 
1.0 1:12.0 2:0.0 3:0.0 4:0.0 5:12.0 6:0.0 7:0.0 
1.0 1:34.0 2:0.0 3:0.0 4:0.0 5:34.0 6:0.0 7:0.0 
1.0 1:14.0 2:0.0 3:0.0 4:0.0 5:14.0 6:0.0 7:0.0 
1.0 1:8.0 2:0.0 3:0.0 4:0.0 5:8.0 6:0.0 7:0.0 
1.0 1:13.0 2:0.0 3:0.0 4:0.0 5:13.0 6:0.0 7:0.0 
1.0 1:10.0 2:0.0 3:0.0 4:0.0 5:10.0 6:0.0 7:0.0 
1.0 1:26.0 2:0.0 3:0.0 4:0.0 5:26.0 6:0.0 7:0.0 
1.0 1:17.0 2:0.0 3:0.0 4:0.0 5:17.0 6:0.0 7:0.0 
1.0 1:12.0 2:0.0 3:0.0 4:0.0 5:12.0 6:0.0 7:0.0 
1.0 1:11.0 2:0.0 3:0.0 4:0.0 5:11.0 6:0.0 7:0.0 
1.0 1:26.0 2:0.0 3:0.0 4:0.0 5:26.0 6:0.0 7:0.0 
1.0 1:26.0 2:0.0 3:0.0 4:0.0 5:26.0 6:0.0 7:0.0 
1.0 1:16.0 2:0.0 3:2.0 4:0.0 5:16.0 6:2.0 7:0.0 
1.0 1:149.0 2:0.0 3:0.0 4:0.0 5:149.0 6:0.0 7:0.0 
1.0 1:8.0 2:0.0 3:0.0 4:0.0 5:8.0 6:0.0 7:0.0 
1.0 1:8.0 2:0.0 3:0.0 4:0.0 5:8.0 6:0.0 7:0.0 
1.0 1:11.0 2:0.0 3:0.0 4:0.0 5:11.0 6:0.0 7:0.0 
1.0 1:16.0 2:0.0 3:0.0 4:0.0 5:16.0 6:0.0 7:0.0 
1.0 1:13.0 2:0.0 3:0.0 4:0.0 5:13.0 6:0.0 7:0.0 
1.0 1:13.0 2:0.0 3:0.0 4:0.0 5:13.0 6:0.0 7:0.0 
1.0 1:15.0 2:0.0 3:0.0 4:0.0 5:15.0 6:0.0 7:0.0 
0.938421867366236 1:6.0 2:0.0 3:2.0 4:0.0 5:6.0 6:2.0 7:0.0 
1.0 1:8.0 2:0.0 3:0.0 4:0.0 5:8.0 6:0.0 7:0.0 
0.9036827267636165 1:7.0 2:0.0 3:3.0 4:0.0 5:7.0 6:3.0 7:0.0 
1.0 1:8.0 2:0.0 3:0.0 4:0.0 5:8.0 6:0.0 7:0.0 
1.0 1:14.0 2:0.0 3:0.0 4:0.0 5:14.0 6:0.0 7:0.0 
1.0 1:11.0 2:0.0 3:0.0 4:0.0 5:11.0 6:0.0 7:0.0 
1.0 1:66.0 2:0.0 3:2.0 4:0.0 5:66.0 6:2.0 7:0.0 
1.0 1:8.0 2:0.0 3:0.0 4:0.0 5:8.0 6:0.0 7:0.0 
1.0 1:9.0 2:0.0 3:0.0 4:0.0 5:9.0 6:0.0 7:0.0 
1.0 1:9.0 2:0.0 3:0.0 4:0.0 5:9.0 6:0.0 7:0.0 
1.0 1:10.0 2:0.0 3:3.0 4:0.0 5:10.0 6:3.0 7:0.0 
1.0 1:14.0 2:0.0 3:0.0 4:0.0 5:14.0 6:0.0 7:0.0 
1.0 1:13.0 2:0.0 3:0.0 4:0.0 5:13.0 6:0.0 7:0.0 
1.0 1:5.0 2:0.0 3:1.0 4:0.0 5:5.0 6:1.0 7:0.0 
1.0 1:10.0 2:0.0 3:0.0 4:0.0 5:10.0 6:0.0 7:0.0 
1.0 1:43.0 2:0.0 3:0.0 4:0.0 5:43.0 6:0.0 7:0.0 
1.0 1:9.0 2:0.0 3:0.0 4:0.0 5:9.0 6:0.0 7:0.0 
1.0 1:10.0 2:0.0 3:0.0 4:0.0 5:10.0 6:0.0 7:0.0 
1.0 1:12.0 2:0.0 3:0.0 4:0.0 5:12.0 6:0.0 7:0.0 
1.0 1:12.0 2:0.0 3:0.0 4:0.0 5:12.0 6:0.0 7:0.0 
1.0 1:9.0 2:0.0 3:0.0 4:0.0 5:9.0 6:0.0 7:0.0 
1.0 1:11.0 2:0.0 3:0.0 4:0.0 5:11.0 6:0.0 7:0.0 
1.0 1:5.0 2:0.0 3:1.0 4:0.0 5:5.0 6:1.0 7:0.0 
1.0 1:9.0 2:0.0 3:0.0 4:0.0 5:9.0 6:0.0 7:0.0 
1.0 1:14.0 2:0.0 3:0.0 4:0.0 5:14.0 6:0.0 7:0.0 
1.0 1:9.0 2:0.0 3:0.0 4:0.0 5:9.0 6:0.0 7:0.0 
1.0 1:9.0 2:0.0 3:0.0 4:0.0 5:9.0 6:0.0 7:0.0 
1.0 1:31.0 2:0.0 3:0.0 4:0.0 5:31.0 6:0.0 7:0.0 
1.0 1:11.0 2:0.0 3:0.0 4:0.0 5:11.0 6:0.0 7:0.0 
1.0 1:10.0 2:0.0 3:0.0 4:0.0 5:10.0 6:0.0 7:0.0 
1.0 1:12.0 2:0.0 3:0.0 4:0.0 5:12.0 6:0.0 7:0.0 
1.0 1:28.0 2:0.0 3:0.0 4:0.0 5:28.0 6:0.0 7:0.0 
1.0 1:10.0 2:0.0 3:0.0 4:0.0 5:10.0 6:0.0 7:0.0 
1.0 1:52.0 2:0.0 3:0.0 4:0.0 5:52.0 6:0.0 7:0.0 
1.0 1:32.0 2:0.0 3:0.0 4:0.0 5:32.0 6:0.0 7:0.0 
1.0 1:14.0 2:0.0 3:1.0 4:0.0 5:14.0 6:1.0 7:0.0 
1.0 1:13.0 2:0.0 3:0.0 4:0.0 5:13.0 6:0.0 7:0.0 
1.0 1:10.0 2:0.0 3:0.0 4:0.0 5:10.0 6:0.0 7:0.0 
1.0 1:20.0 2:0.0 3:0.0 4:0.0 5:20.0 6:0.0 7:0.0 
1.0 1:5.0 2:0.0 3:1.0 4:0.0 5:5.0 6:1.0 7:0.0 
1.0 1:8.0 2:0.0 3:0.0 4:0.0 5:8.0 6:0.0 7:0.0 
1.0 1:9.0 2:0.0 3:0.0 4:0.0 5:9.0 6:0.0 7:0.0 
1.0 1:20.0 2:0.0 3:0.0 4:0.0 5:20.0 6:0.0 7:0.0 
1.0 1:11.0 2:0.0 3:0.0 4:0.0 5:11.0 6:0.0 7:0.0 
0.037131004326942836 1:42.0 2:0.0 3:0.0 4:0.0 5:42.0 6:0.0 7:0.0 
1.0 1:10.0 2:0.0 3:0.0 4:0.0 5:10.0 6:0.0 7:0.0 
1.0 1:18.0 2:0.0 3:0.0 4:0.0 5:18.0 6:0.0 7:0.0 
1.0 1:10.0 2:0.0 3:0.0 4:0.0 5:10.0 6:0.0 7:0.0 
1.0 1:8.0 2:0.0 3:0.0 4:0.0 5:8.0 6:0.0 7:0.0 
1.0 1:75.0 2:0.0 3:0.0 4:0.0 5:75.0 6:0.0 7:0.0 
1.0 1:14.0 2:0.0 3:0.0 4:0.0 5:14.0 6:0.0 7:0.0 
0.08744593351481918 1:19.0 2:0.0 3:0.0 4:0.0 5:19.0 6:0.0 7:0.0 
1.0 1:16.0 2:0.0 3:0.0 4:0.0 5:16.0 6:0.0 7:0.0 
1.0 1:11.0 2:0.0 3:0.0 4:0.0 5:11.0 6:0.0 7:0.0 
0.7153265425852644 1:6.0 2:0.0 3:0.0 4:0.0 5:6.0 6:0.0 7:0.0 
1.0 1:20.0 2:0.0 3:0.0 4:0.0 5:20.0 6:0.0 7:0.0 
1.0 1:16.0 2:0.0 3:0.0 4:0.0 5:16.0 6:0.0 7:0.0 
1.0 1:6.0 2:0.0 3:0.0 4:1.0 5:6.0 6:0.0 7:1.0 
1.0 1:18.0 2:0.0 3:0.0 4:0.0 5:18.0 6:0.0 7:0.0 
1.0 1:11.0 2:0.0 3:0.0 4:0.0 5:11.0 6:0.0 7:0.0 
1.0 1:11.0 2:0.0 3:0.0 4:0.0 5:11.0 6:0.0 7:0.0 
1.0 1:11.0 2:0.0 3:0.0 4:0.0 5:11.0 6:0.0 7:0.0 
1.0 1:20.0 2:0.0 3:0.0 4:0.0 5:20.0 6:0.0 7:0.0 
1.0 1:16.0 2:0.0 3:0.0 4:0.0 5:16.0 6:0.0 7:0.0 
1.0 1:12.0 2:0.0 3:0.0 4:0.0 5:12.0 6:0.0 7:0.0 
1.0 1:9.0 2:0.0 3:0.0 4:0.0 5:9.0 6:0.0 7:0.0 
1.0 1:18.0 2:0.0 3:4.0 4:0.0 5:18.0 6:4.0 7:0.0 
1.0 1:10.0 2:0.0 3:0.0 4:0.0 5:10.0 6:0.0 7:0.0 
1.0 1:38.0 2:0.0 3:0.0 4:0.0 5:38.0 6:0.0 7:0.0 
1.0 1:9.0 2:0.0 3:0.0 4:0.0 5:9.0 6:0.0 7:0.0 
1.0 1:6.0 2:0.0 3:0.0 4:0.0 5:6.0 6:0.0 7:0.0 
1.0 1:8.0 2:0.0 3:0.0 4:0.0 5:8.0 6:0.0 7:0.0 
1.0 1:20.0 2:0.0 3:0.0 4:0.0 5:20.0 6:0.0 7:0.0 
1.0 1:14.0 2:0.0 3:0.0 4:0.0 5:14.0 6:0.0 7:0.0 
1.0 1:6.0 2:0.0 3:0.0 4:0.0 5:6.0 6:0.0 7:0.0 
1.0 1:6.0 2:0.0 3:0.0 4:0.0 5:6.0 6:0.0 7:0.0 
1.0 1:120.0 2:0.0 3:0.0 4:0.0 5:120.0 6:0.0 7:0.0 
1.0 1:5.0 2:0.0 3:1.0 4:0.0 5:5.0 6:1.0 7:0.0 
1.0 1:20.0 2:0.0 3:0.0 4:0.0 5:20.0 6:0.0 7:0.0 
1.0 1:8.0 2:0.0 3:0.0 4:0.0 5:8.0 6:0.0 7:0.0 
1.0 1:9.0 2:0.0 3:0.0 4:0.0 5:9.0 6:0.0 7:0.0 
1.0 1:8.0 2:0.0 3:0.0 4:0.0 5:8.0 6:0.0 7:0.0 
1.0 1:26.0 2:0.0 3:0.0 4:0.0 5:26.0 6:0.0 7:0.0 
1.0 1:6.0 2:0.0 3:0.0 4:0.0 5:6.0 6:0.0 7:0.0 
1.0 1:14.0 2:0.0 3:0.0 4:0.0 5:14.0 6:0.0 7:0.0 
1.0 1:8.0 2:0.0 3:0.0 4:0.0 5:8.0 6:0.0 7:0.0 
1.0 1:27.0 2:0.0 3:0.0 4:0.0 5:27.0 6:0.0 7:0.0 
1.0 1:8.0 2:0.0 3:0.0 4:0.0 5:8.0 6:0.0 7:0.0 
1.0 1:6.0 2:0.0 3:0.0 4:0.0 5:6.0 6:0.0 7:0.0 
1.0 1:20.0 2:0.0 3:0.0 4:0.0 5:20.0 6:0.0 7:0.0 
1.0 1:10.0 2:0.0 3:0.0 4:0.0 5:10.0 6:0.0 7:0.0 
1.0 1:6.0 2:0.0 3:0.0 4:0.0 5:6.0 6:0.0 7:0.0 
1.0 1:12.0 2:0.0 3:0.0 4:0.0 5:12.0 6:0.0 7:0.0 
1.0 1:6.0 2:0.0 3:0.0 4:0.0 5:6.0 6:0.0 7:0.0 
1.0 1:12.0 2:0.0 3:0.0 4:0.0 5:12.0 6:0.0 7:0.0 
1.0 1:9.0 2:0.0 3:0.0 4:0.0 5:9.0 6:0.0 7:0.0 
1.0 1:29.0 2:0.0 3:0.0 4:0.0 5:29.0 6:0.0 7:0.0 
1.0 1:21.0 2:0.0 3:0.0 4:0.0 5:21.0 6:0.0 7:0.0 
1.0 1:16.0 2:0.0 3:0.0 4:0.0 5:16.0 6:0.0 7:0.0 
1.0 1:6.0 2:0.0 3:0.0 4:0.0 5:6.0 6:0.0 7:0.0 
1.0 1:8.0 2:0.0 3:0.0 4:0.0 5:8.0 6:0.0 7:0.0 
1.0 1:9.0 2:0.0 3:0.0 4:0.0 5:9.0 6:0.0 7:0.0 
1.0 1:10.0 2:0.0 3:0.0 4:0.0 5:10.0 6:0.0 7:0.0 
1.0 1:25.0 2:0.0 3:0.0 4:0.0 5:25.0 6:0.0 7:0.0 
1.0 1:6.0 2:0.0 3:0.0 4:0.0 5:6.0 6:0.0 7:0.0 
1.0 1:11.0 2:0.0 3:0.0 4:0.0 5:11.0 6:0.0 7:0.0 
1.0 1:6.0 2:0.0 3:0.0 4:0.0 5:6.0 6:0.0 7:0.0 
0.5376908566117119 1:3.0 2:0.0 3:0.0 4:2.0 5:3.0 6:0.0 7:2.0 
1.0 1:6.0 2:0.0 3:0.0 4:0.0 5:6.0 6:0.0 7:0.0 
1.0 1:9.0 2:0.0 3:0.0 4:0.0 5:9.0 6:0.0 7:0.0 
1.0 1:9.0 2:0.0 3:0.0 4:0.0 5:9.0 6:0.0 7:0.0 
1.0 1:6.0 2:0.0 3:0.0 4:0.0 5:6.0 6:0.0 7:0.0 
1.0 1:13.0 2:0.0 3:0.0 4:0.0 5:13.0 6:0.0 7:0.0 
1.0 1:12.0 2:0.0 3:0.0 4:0.0 5:12.0 6:0.0 7:0.0 
1.0 1:22.0 2:0.0 3:1.0 4:0.0 5:22.0 6:1.0 7:0.0 
1.0 1:37.0 2:0.0 3:0.0 4:0.0 5:37.0 6:0.0 7:0.0 
1.0 1:9.0 2:0.0 3:0.0 4:0.0 5:9.0 6:0.0 7:0.0 
1.0 1:14.0 2:0.0 3:0.0 4:0.0 5:14.0 6:0.0 7:0.0 
1.0 1:11.0 2:0.0 3:0.0 4:0.0 5:11.0 6:0.0 7:0.0 
1.0 1:7.0 2:0.0 3:2.0 4:0.0 5:7.0 6:2.0 7:0.0 
1.0 1:5.0 2:0.0 3:1.0 4:0.0 5:5.0 6:1.0 7:0.0 
1.0 1:11.0 2:0.0 3:0.0 4:0.0 5:11.0 6:0.0 7:0.0 
1.0 1:13.0 2:0.0 3:0.0 4:0.0 5:13.0 6:0.0 7:0.0 
1.0 1:6.0 2:0.0 3:0.0 4:0.0 5:6.0 6:0.0 7:0.0 
1.0 1:6.0 2:0.0 3:0.0 4:0.0 5:6.0 6:0.0 7:0.0 
1.0 1:22.0 2:0.0 3:0.0 4:0.0 5:22.0 6:0.0 7:0.0 
1.0 1:88.0 2:0.0 3:0.0 4:1.0 5:88.0 6:0.0 7:1.0 
1.0 1:6.0 2:0.0 3:0.0 4:0.0 5:6.0 6:0.0 7:0.0 
1.0 1:52.0 2:0.0 3:0.0 4:0.0 5:52.0 6:0.0 7:0.0 
1.0 1:31.0 2:0.0 3:0.0 4:0.0 5:31.0 6:0.0 7:0.0 
1.0 1:11.0 2:0.0 3:0.0 4:0.0 5:11.0 6:0.0 7:0.0 
1.0 1:22.0 2:0.0 3:0.0 4:0.0 5:22.0 6:0.0 7:0.0 
1.0 1:8.0 2:0.0 3:0.0 4:0.0 5:8.0 6:0.0 7:0.0 
1.0 1:17.0 2:0.0 3:0.0 4:0.0 5:17.0 6:0.0 7:0.0 
1.0 1:21.0 2:0.0 3:2.0 4:0.0 5:21.0 6:2.0 7:0.0 
1.0 1:6.0 2:0.0 3:0.0 4:0.0 5:6.0 6:0.0 7:0.0 
1.0 1:9.0 2:0.0 3:0.0 4:0.0 5:9.0 6:0.0 7:0.0 
1.0 1:13.0 2:0.0 3:0.0 4:0.0 5:13.0 6:0.0 7:0.0 
1.0 1:11.0 2:0.0 3:0.0 4:0.0 5:11.0 6:0.0 7:0.0 
1.0 1:0.0 2:0.0 3:1.0 4:0.0 5:0.0 6:1.0 7:0.0 
1.0 1:6.0 2:0.0 3:0.0 4:0.0 5:6.0 6:0.0 7:0.0 
1.0 1:10.0 2:0.0 3:0.0 4:0.0 5:10.0 6:0.0 7:0.0 
1.0 1:40.0 2:0.0 3:0.0 4:0.0 5:40.0 6:0.0 7:0.0 
1.0 1:9.0 2:0.0 3:0.0 4:0.0 5:9.0 6:0.0 7:0.0 
1.0 1:8.0 2:0.0 3:0.0 4:0.0 5:8.0 6:0.0 7:0.0 
1.0 1:10.0 2:0.0 3:0.0 4:0.0 5:10.0 6:0.0 7:0.0 
1.0 1:13.0 2:0.0 3:0.0 4:0.0 5:13.0 6:0.0 7:0.0 
1.0 1:6.0 2:0.0 3:0.0 4:0.0 5:6.0 6:0.0 7:0.0 
1.0 1:14.0 2:0.0 3:0.0 4:0.0 5:14.0 6:0.0 7:0.0 
0.16618142395614072 1:21.0 2:0.0 3:0.0 4:0.0 5:21.0 6:0.0 7:0.0 
1.0 1:10.0 2:0.0 3:0.0 4:0.0 5:10.0 6:0.0 7:0.0 
1.0 1:6.0 2:0.0 3:0.0 4:0.0 5:6.0 6:0.0 7:0.0 
1.0 1:6.0 2:0.0 3:0.0 4:0.0 5:6.0 6:0.0 7:0.0 
1.0 1:7.0 2:0.0 3:2.0 4:0.0 5:7.0 6:2.0 7:0.0 
1.0 1:10.0 2:0.0 3:0.0 4:0.0 5:10.0 6:0.0 7:0.0 
1.0 1:11.0 2:0.0 3:0.0 4:0.0 5:11.0 6:0.0 7:0.0 
1.0 1:12.0 2:0.0 3:1.0 4:0.0 5:12.0 6:1.0 7:0.0 
0.9770505805579839 1:0.0 2:0.0 3:0.0 4:1.0 5:0.0 6:0.0 7:1.0 
1.0 1:6.0 2:0.0 3:0.0 4:0.0 5:6.0 6:0.0 7:0.0 
1.0 1:16.0 2:0.0 3:0.0 4:0.0 5:16.0 6:0.0 7:0.0 
1.0 1:11.0 2:0.0 3:0.0 4:0.0 5:11.0 6:0.0 7:0.0 
1.0 1:6.0 2:0.0 3:0.0 4:0.0 5:6.0 6:0.0 7:0.0 
1.0 1:11.0 2:0.0 3:0.0 4:0.0 5:11.0 6:0.0 7:0.0 
1.0 1:6.0 2:0.0 3:0.0 4:0.0 5:6.0 6:0.0 7:0.0 
1.0 1:12.0 2:0.0 3:0.0 4:0.0 5:12.0 6:0.0 7:0.0 
1.0 1:26.0 2:0.0 3:0.0 4:0.0 5:26.0 6:0.0 7:0.0 
1.0 1:6.0 2:0.0 3:0.0 4:0.0 5:6.0 6:0.0 7:0.0 
1.0 1:6.0 2:0.0 3:0.0 4:0.0 5:6.0 6:0.0 7:0.0 
1.0 1:30.0 2:0.0 3:1.0 4:0.0 5:30.0 6:1.0 7:0.0 
1.0 1:6.0 2:0.0 3:0.0 4:0.0 5:6.0 6:0.0 7:0.0 
1.0 1:16.0 2:0.0 3:0.0 4:0.0 5:16.0 6:0.0 7:0.0 
1.0 1:6.0 2:0.0 3:0.0 4:0.0 5:6.0 6:0.0 7:0.0 
1.0 1:12.0 2:0.0 3:0.0 4:0.0 5:12.0 6:0.0 7:0.0 
1.0 1:13.0 2:0.0 3:0.0 4:0.0 5:13.0 6:0.0 7:0.0 
1.0 1:6.0 2:0.0 3:0.0 4:0.0 5:6.0 6:0.0 7:0.0 
1.0 1:6.0 2:0.0 3:0.0 4:0.0 5:6.0 6:0.0 7:0.0 
1.0 1:12.0 2:0.0 3:0.0 4:0.0 5:12.0 6:0.0 7:0.0 
1.0 1:13.0 2:0.0 3:0.0 4:0.0 5:13.0 6:0.0 7:0.0 
1.0 1:6.0 2:0.0 3:0.0 4:0.0 5:6.0 6:0.0 7:0.0 
1.0 1:6.0 2:0.0 3:0.0 4:0.0 5:6.0 6:0.0 7:0.0 
1.0 1:21.0 2:0.0 3:3.0 4:0.0 5:21.0 6:3.0 7:0.0 
1.0 1:6.0 2:0.0 3:0.0 4:0.0 5:6.0 6:0.0 7:0.0 
1.0 1:8.0 2:0.0 3:0.0 4:0.0 5:8.0 6:0.0 7:0.0 
1.0 1:14.0 2:0.0 3:0.0 4:0.0 5:14.0 6:0.0 7:0.0 
1.0 1:8.0 2:0.0 3:0.0 4:0.0 5:8.0 6:0.0 7:0.0 
1.0 1:17.0 2:0.0 3:0.0 4:0.0 5:17.0 6:0.0 7:0.0 
0.5231217300184084 1:7.0 2:0.0 3:0.0 4:0.0 5:7.0 6:0.0 7:0.0 
1.0 1:6.0 2:0.0 3:0.0 4:0.0 5:6.0 6:0.0 7:0.0 
1.0 1:11.0 2:0.0 3:0.0 4:0.0 5:11.0 6:0.0 7:0.0 
1.0 1:11.0 2:0.0 3:0.0 4:0.0 5:11.0 6:0.0 7:0.0 
1.0 1:6.0 2:0.0 3:0.0 4:0.0 5:6.0 6:0.0 7:0.0 
1.0 1:9.0 2:0.0 3:0.0 4:0.0 5:9.0 6:0.0 7:0.0 
1.0 1:11.0 2:0.0 3:0.0 4:0.0 5:11.0 6:0.0 7:0.0 
1.0 1:22.0 2:0.0 3:0.0 4:0.0 5:22.0 6:0.0 7:0.0 
1.0 1:9.0 2:0.0 3:0.0 4:0.0 5:9.0 6:0.0 7:0.0 
1.0 1:7.0 2:0.0 3:0.0 4:0.0 5:7.0 6:0.0 7:0.0 
1.0 1:10.0 2:0.0 3:0.0 4:0.0 5:10.0 6:0.0 7:0.0 
1.0 1:7.0 2:0.0 3:0.0 4:0.0 5:7.0 6:0.0 7:0.0 
1.0 1:6.0 2:0.0 3:0.0 4:0.0 5:6.0 6:0.0 7:0.0 
1.0 1:6.0 2:0.0 3:0.0 4:0.0 5:6.0 6:0.0 7:0.0 
1.0 1:7.0 2:0.0 3:0.0 4:0.0 5:7.0 6:0.0 7:0.0 
1.0 1:6.0 2:0.0 3:0.0 4:0.0 5:6.0 6:0.0 7:0.0 
1.0 1:9.0 2:0.0 3:0.0 4:0.0 5:9.0 6:0.0 7:0.0 
1.0 1:8.0 2:0.0 3:0.0 4:0.0 5:8.0 6:0.0 7:0.0 
1.0 1:12.0 2:0.0 3:0.0 4:0.0 5:12.0 6:0.0 7:0.0 
1.0 1:6.0 2:0.0 3:0.0 4:0.0 5:6.0 6:0.0 7:0.0 
1.0 1:9.0 2:0.0 3:0.0 4:0.0 5:9.0 6:0.0 7:0.0 
1.0 1:10.0 2:0.0 3:0.0 4:0.0 5:10.0 6:0.0 7:0.0 
1.0 1:13.0 2:0.0 3:0.0 4:0.0 5:13.0 6:0.0 7:0.0 
1.0 1:13.0 2:0.0 3:0.0 4:0.0 5:13.0 6:0.0 7:0.0 
1.0 1:10.0 2:0.0 3:0.0 4:0.0 5:10.0 6:0.0 7:0.0 
1.0 1:35.0 2:0.0 3:0.0 4:0.0 5:35.0 6:0.0 7:0.0 
1.0 1:7.0 2:0.0 3:0.0 4:0.0 5:7.0 6:0.0 7:0.0 
1.0 1:13.0 2:0.0 3:0.0 4:0.0 5:13.0 6:0.0 7:0.0 
1.0 1:7.0 2:0.0 3:0.0 4:0.0 5:7.0 6:0.0 7:0.0 
1.0 1:8.0 2:0.0 3:0.0 4:0.0 5:8.0 6:0.0 7:0.0 
1.0 1:12.0 2:0.0 3:0.0 4:0.0 5:12.0 6:0.0 7:0.0 
1.0 1:6.0 2:0.0 3:0.0 4:0.0 5:6.0 6:0.0 7:0.0 
1.0 1:8.0 2:0.0 3:0.0 4:0.0 5:8.0 6:0.0 7:0.0 
1.0 1:7.0 2:0.0 3:0.0 4:0.0 5:7.0 6:0.0 7:0.0 
1.0 1:6.0 2:0.0 3:0.0 4:0.0 5:6.0 6:0.0 7:0.0 
1.0 1:8.0 2:0.0 3:0.0 4:0.0 5:8.0 6:0.0 7:0.0 
1.0 1:7.0 2:0.0 3:0.0 4:0.0 5:7.0 6:0.0 7:0.0 
1.0 1:6.0 2:0.0 3:0.0 4:0.0 5:6.0 6:0.0 7:0.0 
1.0 1:8.0 2:0.0 3:0.0 4:0.0 5:8.0 6:0.0 7:0.0 
1.0 1:6.0 2:0.0 3:0.0 4:0.0 5:6.0 6:0.0 7:0.0 
1.0 1:32.0 2:0.0 3:0.0 4:0.0 5:32.0 6:0.0 7:0.0 
1.0 1:6.0 2:0.0 3:0.0 4:0.0 5:6.0 6:0.0 7:0.0 
0.9488204027063926 1:34.0 2:0.0 3:0.0 4:0.0 5:34.0 6:0.0 7:0.0 
1.0 1:12.0 2:0.0 3:0.0 4:0.0 5:12.0 6:0.0 7:0.0 
1.0 1:8.0 2:0.0 3:0.0 4:0.0 5:8.0 6:0.0 7:0.0 
1.0 1:12.0 2:0.0 3:0.0 4:0.0 5:12.0 6:0.0 7:0.0 
1.0 1:17.0 2:0.0 3:0.0 4:0.0 5:17.0 6:0.0 7:0.0 
1.0 1:8.0 2:0.0 3:0.0 4:0.0 5:8.0 6:0.0 7:0.0 
1.0 1:6.0 2:0.0 3:0.0 4:0.0 5:6.0 6:0.0 7:0.0 
1.0 1:10.0 2:0.0 3:0.0 4:0.0 5:10.0 6:0.0 7:0.0 
0.9831906923828051 1:21.0 2:0.0 3:1.0 4:0.0 5:21.0 6:1.0 7:0.0 
1.0 1:8.0 2:0.0 3:0.0 4:0.0 5:8.0 6:0.0 7:0.0 
1.0 1:25.0 2:0.0 3:0.0 4:0.0 5:25.0 6:0.0 7:0.0 
1.0 1:9.0 2:0.0 3:0.0 4:0.0 5:9.0 6:0.0 7:0.0 
1.0 1:6.0 2:0.0 3:0.0 4:0.0 5:6.0 6:0.0 7:0.0 
1.0 1:6.0 2:0.0 3:0.0 4:0.0 5:6.0 6:0.0 7:0.0 
1.0 1:10.0 2:0.0 3:0.0 4:0.0 5:10.0 6:0.0 7:0.0 
1.0 1:16.0 2:0.0 3:0.0 4:0.0 5:16.0 6:0.0 7:0.0 
1.0 1:15.0 2:0.0 3:0.0 4:0.0 5:15.0 6:0.0 7:0.0 
1.0 1:7.0 2:0.0 3:0.0 4:0.0 5:7.0 6:0.0 7:0.0 
1.0 1:11.0 2:0.0 3:0.0 4:0.0 5:11.0 6:0.0 7:0.0 
1.0 1:12.0 2:0.0 3:0.0 4:0.0 5:12.0 6:0.0 7:0.0 
1.0 1:20.0 2:0.0 3:0.0 4:0.0 5:20.0 6:0.0 7:0.0 
1.0 1:29.0 2:0.0 3:0.0 4:0.0 5:29.0 6:0.0 7:0.0 
1.0 1:6.0 2:0.0 3:0.0 4:0.0 5:6.0 6:0.0 7:0.0 
1.0 1:22.0 2:0.0 3:0.0 4:0.0 5:22.0 6:0.0 7:0.0 
0.9930843775415245 1:5.0 2:0.0 3:0.0 4:0.0 5:5.0 6:0.0 7:0.0 
1.0 1:6.0 2:0.0 3:0.0 4:0.0 5:6.0 6:0.0 7:0.0 
1.0 1:5.0 2:0.0 3:0.0 4:0.0 5:5.0 6:0.0 7:0.0 
1.0 1:5.0 2:0.0 3:0.0 4:0.0 5:5.0 6:0.0 7:0.0 
1.0 1:5.0 2:0.0 3:0.0 4:0.0 5:5.0 6:0.0 7:0.0 
1.0 1:11.0 2:0.0 3:0.0 4:0.0 5:11.0 6:0.0 7:0.0 
1.0 1:5.0 2:0.0 3:0.0 4:0.0 5:5.0 6:0.0 7:0.0 
1.0 1:18.0 2:0.0 3:0.0 4:0.0 5:18.0 6:0.0 7:0.0 
1.0 1:0.0 2:0.0 3:1.0 4:0.0 5:0.0 6:1.0 7:0.0 
1.0 1:7.0 2:0.0 3:0.0 4:0.0 5:7.0 6:0.0 7:0.0 
1.0 1:6.0 2:0.0 3:0.0 4:0.0 5:6.0 6:0.0 7:0.0 
1.0 1:5.0 2:0.0 3:0.0 4:0.0 5:5.0 6:0.0 7:0.0 
1.0 1:9.0 2:0.0 3:0.0 4:0.0 5:9.0 6:0.0 7:0.0 
1.0 1:6.0 2:0.0 3:0.0 4:0.0 5:6.0 6:0.0 7:0.0 
1.0 1:5.0 2:0.0 3:0.0 4:0.0 5:5.0 6:0.0 7:0.0 
1.0 1:10.0 2:0.0 3:0.0 4:0.0 5:10.0 6:0.0 7:0.0 
1.0 1:7.0 2:0.0 3:0.0 4:0.0 5:7.0 6:0.0 7:0.0 
0.37806827502196955 1:3.0 2:0.0 3:1.0 4:0.0 5:3.0 6:1.0 7:0.0 
1.0 1:11.0 2:0.0 3:0.0 4:0.0 5:11.0 6:0.0 7:0.0 
1.0 1:5.0 2:0.0 3:0.0 4:0.0 5:5.0 6:0.0 7:0.0 
1.0 1:14.0 2:0.0 3:0.0 4:0.0 5:14.0 6:0.0 7:0.0 
1.0 1:7.0 2:0.0 3:0.0 4:0.0 5:7.0 6:0.0 7:0.0 
1.0 1:5.0 2:0.0 3:1.0 4:0.0 5:5.0 6:1.0 7:0.0 
1.0 1:6.0 2:0.0 3:0.0 4:0.0 5:6.0 6:0.0 7:0.0 
1.0 1:9.0 2:0.0 3:0.0 4:0.0 5:9.0 6:0.0 7:0.0 
1.0 1:25.0 2:0.0 3:0.0 4:0.0 5:25.0 6:0.0 7:0.0 
1.0 1:5.0 2:0.0 3:0.0 4:0.0 5:5.0 6:0.0 7:0.0 
1.0 1:6.0 2:0.0 3:0.0 4:0.0 5:6.0 6:0.0 7:0.0 
1.0 1:9.0 2:0.0 3:0.0 4:0.0 5:9.0 6:0.0 7:0.0 
1.0 1:9.0 2:0.0 3:0.0 4:0.0 5:9.0 6:0.0 7:0.0 
1.0 1:8.0 2:0.0 3:0.0 4:0.0 5:8.0 6:0.0 7:0.0 
1.0 1:6.0 2:0.0 3:0.0 4:0.0 5:6.0 6:0.0 7:0.0 
1.0 1:9.0 2:0.0 3:0.0 4:0.0 5:9.0 6:0.0 7:0.0 
1.0 1:5.0 2:0.0 3:0.0 4:0.0 5:5.0 6:0.0 7:0.0 
1.0 1:8.0 2:0.0 3:0.0 4:0.0 5:8.0 6:0.0 7:0.0 
1.0 1:7.0 2:0.0 3:0.0 4:0.0 5:7.0 6:0.0 7:0.0 
1.0 1:15.0 2:0.0 3:0.0 4:0.0 5:15.0 6:0.0 7:0.0 
1.0 1:5.0 2:0.0 3:0.0 4:0.0 5:5.0 6:0.0 7:0.0 
1.0 1:13.0 2:0.0 3:0.0 4:0.0 5:13.0 6:0.0 7:0.0 
1.0 1:5.0 2:0.0 3:0.0 4:0.0 5:5.0 6:0.0 7:0.0 
1.0 1:0.0 2:0.0 3:1.0 4:0.0 5:0.0 6:1.0 7:0.0 
1.0 1:12.0 2:0.0 3:0.0 4:0.0 5:12.0 6:0.0 7:0.0 
1.0 1:14.0 2:0.0 3:0.0 4:0.0 5:14.0 6:0.0 7:0.0 
1.0 1:5.0 2:0.0 3:0.0 4:0.0 5:5.0 6:0.0 7:0.0 
1.0 1:5.0 2:0.0 3:0.0 4:0.0 5:5.0 6:0.0 7:0.0 
1.0 1:26.0 2:0.0 3:0.0 4:0.0 5:26.0 6:0.0 7:0.0 
1.0 1:11.0 2:0.0 3:0.0 4:0.0 5:11.0 6:0.0 7:0.0 
1.0 1:9.0 2:0.0 3:0.0 4:0.0 5:9.0 6:0.0 7:0.0 
1.0 1:7.0 2:0.0 3:0.0 4:0.0 5:7.0 6:0.0 7:0.0 
1.0 1:9.0 2:0.0 3:0.0 4:0.0 5:9.0 6:0.0 7:0.0 
0.6581109355407777 1:33.0 2:0.0 3:0.0 4:0.0 5:33.0 6:0.0 7:0.0 
1.0 1:7.0 2:0.0 3:0.0 4:0.0 5:7.0 6:0.0 7:0.0 
1.0 1:7.0 2:0.0 3:0.0 4:0.0 5:7.0 6:0.0 7:0.0 
1.0 1:7.0 2:0.0 3:0.0 4:0.0 5:7.0 6:0.0 7:0.0 
1.0 1:11.0 2:0.0 3:0.0 4:0.0 5:11.0 6:0.0 7:0.0 
1.0 1:5.0 2:0.0 3:0.0 4:0.0 5:5.0 6:0.0 7:0.0 
1.0 1:8.0 2:0.0 3:0.0 4:0.0 5:8.0 6:0.0 7:0.0 
1.0 1:12.0 2:0.0 3:0.0 4:0.0 5:12.0 6:0.0 7:0.0 
1.0 1:5.0 2:0.0 3:0.0 4:0.0 5:5.0 6:0.0 7:0.0 
1.0 1:24.0 2:0.0 3:0.0 4:0.0 5:24.0 6:0.0 7:0.0 
1.0 1:15.0 2:0.0 3:0.0 4:0.0 5:15.0 6:0.0 7:0.0 
1.0 1:5.0 2:0.0 3:0.0 4:0.0 5:5.0 6:0.0 7:0.0 
1.0 1:7.0 2:0.0 3:0.0 4:0.0 5:7.0 6:0.0 7:0.0 
1.0 1:13.0 2:0.0 3:0.0 4:0.0 5:13.0 6:0.0 7:0.0 
1.0 1:8.0 2:0.0 3:0.0 4:0.0 5:8.0 6:0.0 7:0.0 
1.0 1:5.0 2:0.0 3:0.0 4:0.0 5:5.0 6:0.0 7:0.0 
1.0 1:11.0 2:0.0 3:0.0 4:0.0 5:11.0 6:0.0 7:0.0 
1.0 1:9.0 2:0.0 3:0.0 4:0.0 5:9.0 6:0.0 7:0.0 
1.0 1:22.0 2:0.0 3:0.0 4:0.0 5:22.0 6:0.0 7:0.0 
1.0 1:6.0 2:0.0 3:0.0 4:0.0 5:6.0 6:0.0 7:0.0 
1.0 1:11.0 2:0.0 3:0.0 4:0.0 5:11.0 6:0.0 7:0.0 
1.0 1:6.0 2:0.0 3:0.0 4:0.0 5:6.0 6:0.0 7:0.0 
1.0 1:15.0 2:0.0 3:0.0 4:0.0 5:15.0 6:0.0 7:0.0 
1.0 1:5.0 2:0.0 3:0.0 4:0.0 5:5.0 6:0.0 7:0.0 
1.0 1:7.0 2:0.0 3:0.0 4:0.0 5:7.0 6:0.0 7:0.0 
1.0 1:5.0 2:0.0 3:0.0 4:0.0 5:5.0 6:0.0 7:0.0 
1.0 1:5.0 2:0.0 3:0.0 4:0.0 5:5.0 6:0.0 7:0.0 
1.0 1:20.0 2:0.0 3:0.0 4:0.0 5:20.0 6:0.0 7:0.0 
1.0 1:7.0 2:0.0 3:0.0 4:0.0 5:7.0 6:0.0 7:0.0 
1.0 1:6.0 2:0.0 3:0.0 4:0.0 5:6.0 6:0.0 7:0.0 
0.6180568682773102 1:2.0 2:0.0 3:1.0 4:0.0 5:2.0 6:1.0 7:0.0 
1.0 1:7.0 2:0.0 3:0.0 4:0.0 5:7.0 6:0.0 7:0.0 
1.0 1:5.0 2:0.0 3:0.0 4:0.0 5:5.0 6:0.0 7:0.0 
1.0 1:7.0 2:0.0 3:0.0 4:0.0 5:7.0 6:0.0 7:0.0 
1.0 1:5.0 2:0.0 3:0.0 4:0.0 5:5.0 6:0.0 7:0.0 
1.0 1:9.0 2:0.0 3:0.0 4:0.0 5:9.0 6:0.0 7:0.0 
1.0 1:5.0 2:0.0 3:0.0 4:0.0 5:5.0 6:0.0 7:0.0 
1.0 1:9.0 2:0.0 3:0.0 4:0.0 5:9.0 6:0.0 7:0.0 
1.0 1:6.0 2:0.0 3:0.0 4:0.0 5:6.0 6:0.0 7:0.0 
1.0 1:7.0 2:0.0 3:0.0 4:0.0 5:7.0 6:0.0 7:0.0 
1.0 1:9.0 2:0.0 3:0.0 4:0.0 5:9.0 6:0.0 7:0.0 
1.0 1:5.0 2:0.0 3:0.0 4:0.0 5:5.0 6:0.0 7:0.0 
1.0 1:3.0 2:0.0 3:1.0 4:0.0 5:3.0 6:1.0 7:0.0 
1.0 1:7.0 2:0.0 3:0.0 4:0.0 5:7.0 6:0.0 7:0.0 
1.0 1:2.0 2:0.0 3:1.0 4:0.0 5:2.0 6:1.0 7:0.0 
1.0 1:7.0 2:0.0 3:0.0 4:0.0 5:7.0 6:0.0 7:0.0 
1.0 1:5.0 2:0.0 3:0.0 4:0.0 5:5.0 6:0.0 7:0.0 
0.9213171235101899 1:3.0 2:0.0 3:1.0 4:0.0 5:3.0 6:1.0 7:0.0 
1.0 1:6.0 2:0.0 3:0.0 4:0.0 5:6.0 6:0.0 7:0.0 
1.0 1:5.0 2:0.0 3:0.0 4:0.0 5:5.0 6:0.0 7:0.0 
1.0 1:0.0 2:0.0 3:1.0 4:0.0 5:0.0 6:1.0 7:0.0 
1.0 1:12.0 2:0.0 3:0.0 4:0.0 5:12.0 6:0.0 7:0.0 
1.0 1:18.0 2:0.0 3:0.0 4:0.0 5:18.0 6:0.0 7:0.0 
1.0 1:0.0 2:0.0 3:1.0 4:0.0 5:0.0 6:1.0 7:0.0 
0.8712991625674643 1:27.0 2:0.0 3:0.0 4:0.0 5:27.0 6:0.0 7:0.0 
1.0 1:13.0 2:0.0 3:0.0 4:0.0 5:13.0 6:0.0 7:0.0 
1.0 1:5.0 2:0.0 3:0.0 4:0.0 5:5.0 6:0.0 7:0.0 
1.0 1:6.0 2:0.0 3:0.0 4:0.0 5:6.0 6:0.0 7:0.0 
1.0 1:10.0 2:0.0 3:0.0 4:0.0 5:10.0 6:0.0 7:0.0 
1.0 1:5.0 2:0.0 3:0.0 4:0.0 5:5.0 6:0.0 7:0.0 
0.5508350422478385 1:4.0 2:0.0 3:1.0 4:0.0 5:4.0 6:1.0 7:0.0 
1.0 1:5.0 2:0.0 3:0.0 4:0.0 5:5.0 6:0.0 7:0.0 
1.0 1:7.0 2:0.0 3:0.0 4:0.0 5:7.0 6:0.0 7:0.0 
1.0 1:2.0 2:0.0 3:1.0 4:0.0 5:2.0 6:1.0 7:0.0 
1.0 1:9.0 2:0.0 3:0.0 4:0.0 5:9.0 6:0.0 7:0.0 
1.0 1:7.0 2:0.0 3:0.0 4:0.0 5:7.0 6:0.0 7:0.0 
1.0 1:10.0 2:0.0 3:0.0 4:0.0 5:10.0 6:0.0 7:0.0 
1.0 1:7.0 2:0.0 3:0.0 4:0.0 5:7.0 6:0.0 7:0.0 
1.0 1:5.0 2:0.0 3:0.0 4:0.0 5:5.0 6:0.0 7:0.0 
0.8442057426654922 1:4.0 2:0.0 3:2.0 4:0.0 5:4.0 6:2.0 7:0.0 
1.0 1:6.0 2:0.0 3:0.0 4:0.0 5:6.0 6:0.0 7:0.0 
1.0 1:5.0 2:0.0 3:0.0 4:0.0 5:5.0 6:0.0 7:0.0 
1.0 1:12.0 2:0.0 3:0.0 4:0.0 5:12.0 6:0.0 7:0.0 
1.0 1:2.0 2:0.0 3:1.0 4:0.0 5:2.0 6:1.0 7:0.0 
1.0 1:5.0 2:0.0 3:0.0 4:0.0 5:5.0 6:0.0 7:0.0 
1.0 1:9.0 2:0.0 3:0.0 4:0.0 5:9.0 6:0.0 7:0.0 
1.0 1:7.0 2:0.0 3:0.0 4:0.0 5:7.0 6:0.0 7:0.0 
1.0 1:5.0 2:0.0 3:0.0 4:0.0 5:5.0 6:0.0 7:0.0 
1.0 1:7.0 2:0.0 3:0.0 4:0.0 5:7.0 6:0.0 7:0.0 
0.9871609542996487 1:19.0 2:0.0 3:2.0 4:0.0 5:19.0 6:2.0 7:0.0 
1.0 1:8.0 2:0.0 3:0.0 4:0.0 5:8.0 6:0.0 7:0.0 
0.13100410594573714 1:12.0 2:0.0 3:0.0 4:1.0 5:12.0 6:0.0 7:1.0 
1.0 1:14.0 2:0.0 3:0.0 4:2.0 5:14.0 6:0.0 7:2.0 
1.0 1:5.0 2:0.0 3:1.0 4:0.0 5:5.0 6:1.0 7:0.0 
1.0 1:5.0 2:0.0 3:0.0 4:0.0 5:5.0 6:0.0 7:0.0 
1.0 1:5.0 2:0.0 3:0.0 4:0.0 5:5.0 6:0.0 7:0.0 
1.0 1:12.0 2:0.0 3:0.0 4:0.0 5:12.0 6:0.0 7:0.0 
1.0 1:6.0 2:0.0 3:0.0 4:0.0 5:6.0 6:0.0 7:0.0 
1.0 1:5.0 2:0.0 3:0.0 4:0.0 5:5.0 6:0.0 7:0.0 
1.0 1:5.0 2:0.0 3:0.0 4:0.0 5:5.0 6:0.0 7:0.0 
1.0 1:29.0 2:0.0 3:0.0 4:0.0 5:29.0 6:0.0 7:0.0 
1.0 1:13.0 2:0.0 3:0.0 4:0.0 5:13.0 6:0.0 7:0.0 
1.0 1:18.0 2:0.0 3:0.0 4:0.0 5:18.0 6:0.0 7:0.0 
1.0 1:15.0 2:0.0 3:0.0 4:0.0 5:15.0 6:0.0 7:0.0 
1.0 1:24.0 2:0.0 3:0.0 4:0.0 5:24.0 6:0.0 7:0.0 
1.0 1:35.0 2:0.0 3:0.0 4:0.0 5:35.0 6:0.0 7:0.0 
1.0 1:9.0 2:0.0 3:0.0 4:0.0 5:9.0 6:0.0 7:0.0 
1.0 1:15.0 2:0.0 3:0.0 4:0.0 5:15.0 6:0.0 7:0.0 
1.0 1:5.0 2:0.0 3:0.0 4:0.0 5:5.0 6:0.0 7:0.0 
1.0 1:15.0 2:0.0 3:0.0 4:0.0 5:15.0 6:0.0 7:0.0 
1.0 1:5.0 2:0.0 3:0.0 4:0.0 5:5.0 6:0.0 7:0.0 
0.6797987279722201 1:15.0 2:0.0 3:1.0 4:0.0 5:15.0 6:1.0 7:0.0 
1.0 1:6.0 2:0.0 3:0.0 4:0.0 5:6.0 6:0.0 7:0.0 
1.0 1:5.0 2:0.0 3:0.0 4:0.0 5:5.0 6:0.0 7:0.0 
1.0 1:5.0 2:0.0 3:0.0 4:0.0 5:5.0 6:0.0 7:0.0 
1.0 1:5.0 2:0.0 3:0.0 4:0.0 5:5.0 6:0.0 7:0.0 
1.0 1:5.0 2:0.0 3:0.0 4:0.0 5:5.0 6:0.0 7:0.0 
1.0 1:5.0 2:0.0 3:0.0 4:0.0 5:5.0 6:0.0 7:0.0 
1.0 1:5.0 2:0.0 3:0.0 4:0.0 5:5.0 6:0.0 7:0.0 
1.0 1:2.0 2:0.0 3:1.0 4:0.0 5:2.0 6:1.0 7:0.0 
1.0 1:0.0 2:0.0 3:1.0 4:0.0 5:0.0 6:1.0 7:0.0 
1.0 1:5.0 2:0.0 3:0.0 4:0.0 5:5.0 6:0.0 7:0.0 
1.0 1:7.0 2:0.0 3:0.0 4:0.0 5:7.0 6:0.0 7:0.0 
1.0 1:5.0 2:0.0 3:0.0 4:0.0 5:5.0 6:0.0 7:0.0 
1.0 1:4.0 2:0.0 3:0.0 4:0.0 5:4.0 6:0.0 7:0.0 
1.0 1:12.0 2:0.0 3:0.0 4:0.0 5:12.0 6:0.0 7:0.0 
1.0 1:4.0 2:0.0 3:0.0 4:0.0 5:4.0 6:0.0 7:0.0 
1.0 1:6.0 2:0.0 3:0.0 4:0.0 5:6.0 6:0.0 7:0.0 
1.0 1:4.0 2:0.0 3:0.0 4:0.0 5:4.0 6:0.0 7:0.0 
1.0 1:0.0 2:0.0 3:1.0 4:0.0 5:0.0 6:1.0 7:0.0 
1.0 1:47.0 2:0.0 3:0.0 4:0.0 5:47.0 6:0.0 7:0.0 
1.0 1:0.0 2:0.0 3:1.0 4:0.0 5:0.0 6:1.0 7:0.0 
1.0 1:7.0 2:0.0 3:0.0 4:0.0 5:7.0 6:0.0 7:0.0 
1.0 1:5.0 2:0.0 3:0.0 4:0.0 5:5.0 6:0.0 7:0.0 
1.0 1:4.0 2:0.0 3:0.0 4:0.0 5:4.0 6:0.0 7:0.0 
1.0 1:4.0 2:0.0 3:0.0 4:0.0 5:4.0 6:0.0 7:0.0 
1.0 1:16.0 2:0.0 3:0.0 4:0.0 5:16.0 6:0.0 7:0.0 
1.0 1:9.0 2:0.0 3:0.0 4:0.0 5:9.0 6:0.0 7:0.0 
1.0 1:11.0 2:0.0 3:0.0 4:0.0 5:11.0 6:0.0 7:0.0 
1.0 1:22.0 2:0.0 3:0.0 4:0.0 5:22.0 6:0.0 7:0.0 
1.0 1:4.0 2:0.0 3:0.0 4:0.0 5:4.0 6:0.0 7:0.0 
1.0 1:9.0 2:0.0 3:0.0 4:0.0 5:9.0 6:0.0 7:0.0 
1.0 1:5.0 2:0.0 3:0.0 4:0.0 5:5.0 6:0.0 7:0.0 
1.0 1:7.0 2:0.0 3:0.0 4:0.0 5:7.0 6:0.0 7:0.0 
1.0 1:7.0 2:0.0 3:0.0 4:0.0 5:7.0 6:0.0 7:0.0 
1.0 1:5.0 2:0.0 3:0.0 4:0.0 5:5.0 6:0.0 7:0.0 
1.0 1:4.0 2:0.0 3:0.0 4:0.0 5:4.0 6:0.0 7:0.0 
1.0 1:75.0 2:0.0 3:0.0 4:0.0 5:75.0 6:0.0 7:0.0 
1.0 1:8.0 2:0.0 3:0.0 4:0.0 5:8.0 6:0.0 7:0.0 
1.0 1:10.0 2:0.0 3:0.0 4:0.0 5:10.0 6:0.0 7:0.0 
1.0 1:26.0 2:0.0 3:0.0 4:0.0 5:26.0 6:0.0 7:0.0 
1.0 1:5.0 2:0.0 3:0.0 4:0.0 5:5.0 6:0.0 7:0.0 
1.0 1:4.0 2:0.0 3:0.0 4:0.0 5:4.0 6:0.0 7:0.0 
1.0 1:5.0 2:0.0 3:0.0 4:0.0 5:5.0 6:0.0 7:0.0 
1.0 1:6.0 2:0.0 3:0.0 4:0.0 5:6.0 6:0.0 7:0.0 
1.0 1:4.0 2:0.0 3:0.0 4:0.0 5:4.0 6:0.0 7:0.0 
1.0 1:7.0 2:0.0 3:0.0 4:0.0 5:7.0 6:0.0 7:0.0 
1.0 1:5.0 2:0.0 3:0.0 4:0.0 5:5.0 6:0.0 7:0.0 
1.0 1:7.0 2:0.0 3:0.0 4:0.0 5:7.0 6:0.0 7:0.0 
1.0 1:4.0 2:0.0 3:0.0 4:0.0 5:4.0 6:0.0 7:0.0 
1.0 1:8.0 2:0.0 3:0.0 4:0.0 5:8.0 6:0.0 7:0.0 
1.0 1:5.0 2:0.0 3:0.0 4:0.0 5:5.0 6:0.0 7:0.0 
1.0 1:5.0 2:0.0 3:0.0 4:0.0 5:5.0 6:0.0 7:0.0 
1.0 1:8.0 2:0.0 3:0.0 4:0.0 5:8.0 6:0.0 7:0.0 
1.0 1:5.0 2:0.0 3:0.0 4:0.0 5:5.0 6:0.0 7:0.0 
1.0 1:14.0 2:0.0 3:0.0 4:0.0 5:14.0 6:0.0 7:0.0 
0.9824059433989751 1:3.0 2:0.0 3:0.0 4:0.0 5:3.0 6:0.0 7:0.0 
1.0 1:7.0 2:0.0 3:0.0 4:0.0 5:7.0 6:0.0 7:0.0 
1.0 1:8.0 2:0.0 3:0.0 4:0.0 5:8.0 6:0.0 7:0.0 
1.0 1:4.0 2:0.0 3:1.0 4:0.0 5:4.0 6:1.0 7:0.0 
1.0 1:7.0 2:0.0 3:0.0 4:0.0 5:7.0 6:0.0 7:0.0 
1.0 1:5.0 2:0.0 3:0.0 4:0.0 5:5.0 6:0.0 7:0.0 
1.0 1:5.0 2:0.0 3:0.0 4:0.0 5:5.0 6:0.0 7:0.0 
1.0 1:3.0 2:0.0 3:0.0 4:0.0 5:3.0 6:0.0 7:0.0 
1.0 1:10.0 2:0.0 3:0.0 4:0.0 5:10.0 6:0.0 7:0.0 
1.0 1:3.0 2:0.0 3:0.0 4:0.0 5:3.0 6:0.0 7:0.0 
1.0 1:11.0 2:0.0 3:0.0 4:0.0 5:11.0 6:0.0 7:0.0 
1.0 1:3.0 2:0.0 3:0.0 4:0.0 5:3.0 6:0.0 7:0.0 
1.0 1:5.0 2:0.0 3:0.0 4:0.0 5:5.0 6:0.0 7:0.0 
1.0 1:9.0 2:0.0 3:0.0 4:0.0 5:9.0 6:0.0 7:0.0 
1.0 1:3.0 2:0.0 3:0.0 4:0.0 5:3.0 6:0.0 7:0.0 
1.0 1:3.0 2:0.0 3:0.0 4:0.0 5:3.0 6:0.0 7:0.0 
1.0 1:4.0 2:0.0 3:0.0 4:0.0 5:4.0 6:0.0 7:0.0 
1.0 1:4.0 2:0.0 3:0.0 4:0.0 5:4.0 6:0.0 7:0.0 
1.0 1:3.0 2:0.0 3:0.0 4:0.0 5:3.0 6:0.0 7:0.0 
1.0 1:4.0 2:0.0 3:0.0 4:0.0 5:4.0 6:0.0 7:0.0 
1.0 1:6.0 2:0.0 3:0.0 4:0.0 5:6.0 6:0.0 7:0.0 
1.0 1:5.0 2:0.0 3:0.0 4:0.0 5:5.0 6:0.0 7:0.0 
1.0 1:5.0 2:0.0 3:0.0 4:0.0 5:5.0 6:0.0 7:0.0 
1.0 1:4.0 2:0.0 3:0.0 4:0.0 5:4.0 6:0.0 7:0.0 
1.0 1:14.0 2:0.0 3:0.0 4:0.0 5:14.0 6:0.0 7:0.0 
1.0 1:11.0 2:0.0 3:0.0 4:0.0 5:11.0 6:0.0 7:0.0 
1.0 1:3.0 2:0.0 3:0.0 4:0.0 5:3.0 6:0.0 7:0.0 
1.0 1:3.0 2:0.0 3:0.0 4:0.0 5:3.0 6:0.0 7:0.0 
1.0 1:3.0 2:0.0 3:0.0 4:0.0 5:3.0 6:0.0 7:0.0 
1.0 1:3.0 2:0.0 3:0.0 4:0.0 5:3.0 6:0.0 7:0.0 
1.0 1:3.0 2:0.0 3:0.0 4:0.0 5:3.0 6:0.0 7:0.0 
1.0 1:8.0 2:0.0 3:0.0 4:0.0 5:8.0 6:0.0 7:0.0 
1.0 1:3.0 2:0.0 3:0.0 4:0.0 5:3.0 6:0.0 7:0.0 
1.0 1:3.0 2:0.0 3:0.0 4:0.0 5:3.0 6:0.0 7:0.0 
1.0 1:3.0 2:0.0 3:0.0 4:0.0 5:3.0 6:0.0 7:0.0 
1.0 1:3.0 2:0.0 3:0.0 4:0.0 5:3.0 6:0.0 7:0.0 
1.0 1:3.0 2:0.0 3:0.0 4:0.0 5:3.0 6:0.0 7:0.0 
1.0 1:3.0 2:0.0 3:0.0 4:0.0 5:3.0 6:0.0 7:0.0 
1.0 1:17.0 2:0.0 3:0.0 4:0.0 5:17.0 6:0.0 7:0.0 
1.0 1:8.0 2:0.0 3:0.0 4:0.0 5:8.0 6:0.0 7:0.0 
1.0 1:5.0 2:0.0 3:0.0 4:0.0 5:5.0 6:0.0 7:0.0 
1.0 1:7.0 2:0.0 3:0.0 4:0.0 5:7.0 6:0.0 7:0.0 
1.0 1:3.0 2:0.0 3:0.0 4:0.0 5:3.0 6:0.0 7:0.0 
1.0 1:3.0 2:0.0 3:0.0 4:0.0 5:3.0 6:0.0 7:0.0 
1.0 1:3.0 2:0.0 3:0.0 4:0.0 5:3.0 6:0.0 7:0.0 
1.0 1:10.0 2:0.0 3:0.0 4:0.0 5:10.0 6:0.0 7:0.0 
1.0 1:4.0 2:0.0 3:0.0 4:0.0 5:4.0 6:0.0 7:0.0 
1.0 1:3.0 2:0.0 3:0.0 4:0.0 5:3.0 6:0.0 7:0.0 
1.0 1:5.0 2:0.0 3:0.0 4:0.0 5:5.0 6:0.0 7:0.0 
1.0 1:4.0 2:0.0 3:1.0 4:0.0 5:4.0 6:1.0 7:0.0 
1.0 1:3.0 2:0.0 3:0.0 4:0.0 5:3.0 6:0.0 7:0.0 
1.0 1:3.0 2:0.0 3:0.0 4:0.0 5:3.0 6:0.0 7:0.0 
1.0 1:7.0 2:0.0 3:0.0 4:0.0 5:7.0 6:0.0 7:0.0 
1.0 1:3.0 2:0.0 3:0.0 4:0.0 5:3.0 6:0.0 7:0.0 
1.0 1:3.0 2:0.0 3:0.0 4:0.0 5:3.0 6:0.0 7:0.0 
1.0 1:12.0 2:0.0 3:0.0 4:1.0 5:12.0 6:0.0 7:1.0 
1.0 1:7.0 2:0.0 3:0.0 4:0.0 5:7.0 6:0.0 7:0.0 
1.0 1:6.0 2:0.0 3:0.0 4:0.0 5:6.0 6:0.0 7:0.0 
1.0 1:5.0 2:0.0 3:0.0 4:0.0 5:5.0 6:0.0 7:0.0 
1.0 1:3.0 2:0.0 3:0.0 4:0.0 5:3.0 6:0.0 7:0.0 
1.0 1:6.0 2:0.0 3:0.0 4:0.0 5:6.0 6:0.0 7:0.0 
1.0 1:4.0 2:0.0 3:0.0 4:0.0 5:4.0 6:0.0 7:0.0 
1.0 1:11.0 2:0.0 3:0.0 4:0.0 5:11.0 6:0.0 7:0.0 
1.0 1:67.0 2:0.0 3:0.0 4:0.0 5:67.0 6:0.0 7:0.0 
1.0 1:3.0 2:0.0 3:0.0 4:0.0 5:3.0 6:0.0 7:0.0 
1.0 1:15.0 2:0.0 3:0.0 4:0.0 5:15.0 6:0.0 7:0.0 
1.0 1:3.0 2:0.0 3:0.0 4:0.0 5:3.0 6:0.0 7:0.0 
1.0 1:11.0 2:0.0 3:0.0 4:0.0 5:11.0 6:0.0 7:0.0 
1.0 1:3.0 2:0.0 3:0.0 4:0.0 5:3.0 6:0.0 7:0.0 
1.0 1:4.0 2:0.0 3:0.0 4:0.0 5:4.0 6:0.0 7:0.0 
1.0 1:4.0 2:0.0 3:0.0 4:0.0 5:4.0 6:0.0 7:0.0 
1.0 1:5.0 2:0.0 3:0.0 4:0.0 5:5.0 6:0.0 7:0.0 
1.0 1:4.0 2:0.0 3:0.0 4:0.0 5:4.0 6:0.0 7:0.0 
1.0 1:4.0 2:0.0 3:0.0 4:0.0 5:4.0 6:0.0 7:0.0 
1.0 1:3.0 2:0.0 3:0.0 4:0.0 5:3.0 6:0.0 7:0.0 
1.0 1:3.0 2:0.0 3:0.0 4:0.0 5:3.0 6:0.0 7:0.0 
1.0 1:7.0 2:0.0 3:0.0 4:0.0 5:7.0 6:0.0 7:0.0 
1.0 1:3.0 2:0.0 3:0.0 4:0.0 5:3.0 6:0.0 7:0.0 
1.0 1:3.0 2:0.0 3:0.0 4:0.0 5:3.0 6:0.0 7:0.0 
1.0 1:3.0 2:0.0 3:0.0 4:0.0 5:3.0 6:0.0 7:0.0 
1.0 1:6.0 2:0.0 3:0.0 4:0.0 5:6.0 6:0.0 7:0.0 
1.0 1:3.0 2:0.0 3:0.0 4:0.0 5:3.0 6:0.0 7:0.0 
1.0 1:5.0 2:0.0 3:0.0 4:0.0 5:5.0 6:0.0 7:0.0 
1.0 1:13.0 2:0.0 3:0.0 4:0.0 5:13.0 6:0.0 7:0.0 
1.0 1:13.0 2:0.0 3:0.0 4:0.0 5:13.0 6:0.0 7:0.0 
1.0 1:3.0 2:0.0 3:0.0 4:0.0 5:3.0 6:0.0 7:0.0 
1.0 1:4.0 2:0.0 3:0.0 4:0.0 5:4.0 6:0.0 7:0.0 
1.0 1:3.0 2:0.0 3:0.0 4:0.0 5:3.0 6:0.0 7:0.0 
1.0 1:11.0 2:0.0 3:0.0 4:0.0 5:11.0 6:0.0 7:0.0 
1.0 1:4.0 2:0.0 3:0.0 4:0.0 5:4.0 6:0.0 7:0.0 
1.0 1:20.0 2:0.0 3:0.0 4:0.0 5:20.0 6:0.0 7:0.0 
1.0 1:3.0 2:0.0 3:0.0 4:0.0 5:3.0 6:0.0 7:0.0 
1.0 1:4.0 2:0.0 3:0.0 4:0.0 5:4.0 6:0.0 7:0.0 
1.0 1:11.0 2:0.0 3:0.0 4:0.0 5:11.0 6:0.0 7:0.0 
1.0 1:4.0 2:0.0 3:0.0 4:0.0 5:4.0 6:0.0 7:0.0 
1.0 1:4.0 2:0.0 3:0.0 4:0.0 5:4.0 6:0.0 7:0.0 
1.0 1:3.0 2:0.0 3:0.0 4:0.0 5:3.0 6:0.0 7:0.0 
1.0 1:4.0 2:0.0 3:0.0 4:0.0 5:4.0 6:0.0 7:0.0 
1.0 1:25.0 2:0.0 3:0.0 4:0.0 5:25.0 6:0.0 7:0.0 
1.0 1:3.0 2:0.0 3:0.0 4:0.0 5:3.0 6:0.0 7:0.0 
1.0 1:3.0 2:0.0 3:0.0 4:0.0 5:3.0 6:0.0 7:0.0 
1.0 1:4.0 2:0.0 3:0.0 4:0.0 5:4.0 6:0.0 7:0.0 
1.0 1:4.0 2:0.0 3:0.0 4:0.0 5:4.0 6:0.0 7:0.0 
1.0 1:7.0 2:0.0 3:0.0 4:0.0 5:7.0 6:0.0 7:0.0 
1.0 1:7.0 2:0.0 3:0.0 4:0.0 5:7.0 6:0.0 7:0.0 
1.0 1:6.0 2:0.0 3:0.0 4:0.0 5:6.0 6:0.0 7:0.0 
1.0 1:10.0 2:0.0 3:0.0 4:0.0 5:10.0 6:0.0 7:0.0 
1.0 1:5.0 2:0.0 3:0.0 4:0.0 5:5.0 6:0.0 7:0.0 
1.0 1:3.0 2:0.0 3:0.0 4:0.0 5:3.0 6:0.0 7:0.0 
1.0 1:3.0 2:0.0 3:0.0 4:0.0 5:3.0 6:0.0 7:0.0 
1.0 1:15.0 2:0.0 3:0.0 4:0.0 5:15.0 6:0.0 7:0.0 
1.0 1:15.0 2:0.0 3:0.0 4:0.0 5:15.0 6:0.0 7:0.0 
1.0 1:26.0 2:0.0 3:0.0 4:0.0 5:26.0 6:0.0 7:0.0 
1.0 1:3.0 2:0.0 3:0.0 4:0.0 5:3.0 6:0.0 7:0.0 
1.0 1:3.0 2:0.0 3:0.0 4:0.0 5:3.0 6:0.0 7:0.0 
1.0 1:4.0 2:0.0 3:0.0 4:0.0 5:4.0 6:0.0 7:0.0 
1.0 1:7.0 2:0.0 3:0.0 4:0.0 5:7.0 6:0.0 7:0.0 
1.0 1:4.0 2:0.0 3:0.0 4:0.0 5:4.0 6:0.0 7:0.0 
1.0 1:3.0 2:0.0 3:0.0 4:0.0 5:3.0 6:0.0 7:0.0 
1.0 1:9.0 2:0.0 3:0.0 4:0.0 5:9.0 6:0.0 7:0.0 
1.0 1:4.0 2:0.0 3:0.0 4:0.0 5:4.0 6:0.0 7:0.0 
1.0 1:6.0 2:0.0 3:0.0 4:0.0 5:6.0 6:0.0 7:0.0 
1.0 1:10.0 2:0.0 3:0.0 4:0.0 5:10.0 6:0.0 7:0.0 
1.0 1:8.0 2:0.0 3:0.0 4:0.0 5:8.0 6:0.0 7:0.0 
1.0 1:3.0 2:0.0 3:0.0 4:0.0 5:3.0 6:0.0 7:0.0 
1.0 1:4.0 2:0.0 3:0.0 4:0.0 5:4.0 6:0.0 7:0.0 
1.0 1:9.0 2:0.0 3:0.0 4:0.0 5:9.0 6:0.0 7:0.0 
1.0 1:5.0 2:0.0 3:0.0 4:0.0 5:5.0 6:0.0 7:0.0 
1.0 1:4.0 2:0.0 3:1.0 4:0.0 5:4.0 6:1.0 7:0.0 
1.0 1:22.0 2:0.0 3:0.0 4:0.0 5:22.0 6:0.0 7:0.0 
1.0 1:3.0 2:0.0 3:0.0 4:0.0 5:3.0 6:0.0 7:0.0 
1.0 1:5.0 2:0.0 3:0.0 4:0.0 5:5.0 6:0.0 7:0.0 
1.0 1:4.0 2:0.0 3:0.0 4:0.0 5:4.0 6:0.0 7:0.0 
1.0 1:6.0 2:0.0 3:0.0 4:0.0 5:6.0 6:0.0 7:0.0 
1.0 1:0.0 2:0.0 3:1.0 4:0.0 5:0.0 6:1.0 7:0.0 
1.0 1:8.0 2:0.0 3:0.0 4:0.0 5:8.0 6:0.0 7:0.0 
1.0 1:3.0 2:0.0 3:0.0 4:0.0 5:3.0 6:0.0 7:0.0 
1.0 1:4.0 2:0.0 3:0.0 4:0.0 5:4.0 6:0.0 7:0.0 
1.0 1:7.0 2:0.0 3:0.0 4:0.0 5:7.0 6:0.0 7:0.0 
1.0 1:15.0 2:0.0 3:0.0 4:0.0 5:15.0 6:0.0 7:0.0 
1.0 1:3.0 2:0.0 3:0.0 4:0.0 5:3.0 6:0.0 7:0.0 
1.0 1:16.0 2:0.0 3:0.0 4:0.0 5:16.0 6:0.0 7:0.0 
1.0 1:4.0 2:0.0 3:0.0 4:0.0 5:4.0 6:0.0 7:0.0 
1.0 1:5.0 2:0.0 3:0.0 4:0.0 5:5.0 6:0.0 7:0.0 
1.0 1:5.0 2:0.0 3:0.0 4:0.0 5:5.0 6:0.0 7:0.0 
1.0 1:7.0 2:0.0 3:0.0 4:0.0 5:7.0 6:0.0 7:0.0 
1.0 1:8.0 2:0.0 3:0.0 4:0.0 5:8.0 6:0.0 7:0.0 
1.0 1:3.0 2:0.0 3:0.0 4:0.0 5:3.0 6:0.0 7:0.0 
1.0 1:13.0 2:0.0 3:0.0 4:0.0 5:13.0 6:0.0 7:0.0 
1.0 1:8.0 2:0.0 3:0.0 4:0.0 5:8.0 6:0.0 7:0.0 
1.0 1:5.0 2:0.0 3:0.0 4:0.0 5:5.0 6:0.0 7:0.0 
1.0 1:4.0 2:0.0 3:0.0 4:0.0 5:4.0 6:0.0 7:0.0 
1.0 1:14.0 2:0.0 3:0.0 4:0.0 5:14.0 6:0.0 7:0.0 
1.0 1:4.0 2:0.0 3:0.0 4:0.0 5:4.0 6:0.0 7:0.0 
1.0 1:5.0 2:0.0 3:0.0 4:0.0 5:5.0 6:0.0 7:0.0 
1.0 1:29.0 2:0.0 3:0.0 4:0.0 5:29.0 6:0.0 7:0.0 
1.0 1:12.0 2:0.0 3:0.0 4:0.0 5:12.0 6:0.0 7:0.0 
1.0 1:3.0 2:0.0 3:0.0 4:0.0 5:3.0 6:0.0 7:0.0 
1.0 1:3.0 2:0.0 3:0.0 4:0.0 5:3.0 6:0.0 7:0.0 
1.0 1:5.0 2:0.0 3:0.0 4:0.0 5:5.0 6:0.0 7:0.0 
1.0 1:5.0 2:0.0 3:0.0 4:0.0 5:5.0 6:0.0 7:0.0 
1.0 1:4.0 2:0.0 3:0.0 4:0.0 5:4.0 6:0.0 7:0.0 
1.0 1:4.0 2:0.0 3:0.0 4:0.0 5:4.0 6:0.0 7:0.0 
1.0 1:9.0 2:0.0 3:0.0 4:0.0 5:9.0 6:0.0 7:0.0 
1.0 1:3.0 2:0.0 3:0.0 4:0.0 5:3.0 6:0.0 7:0.0 
1.0 1:3.0 2:0.0 3:0.0 4:0.0 5:3.0 6:0.0 7:0.0 
1.0 1:4.0 2:0.0 3:0.0 4:0.0 5:4.0 6:0.0 7:0.0 
1.0 1:7.0 2:0.0 3:0.0 4:0.0 5:7.0 6:0.0 7:0.0 
1.0 1:4.0 2:0.0 3:0.0 4:0.0 5:4.0 6:0.0 7:0.0 
1.0 1:6.0 2:0.0 3:0.0 4:0.0 5:6.0 6:0.0 7:0.0 
1.0 1:11.0 2:0.0 3:0.0 4:0.0 5:11.0 6:0.0 7:0.0 
1.0 1:5.0 2:0.0 3:1.0 4:0.0 5:5.0 6:1.0 7:0.0 
1.0 1:9.0 2:0.0 3:0.0 4:0.0 5:9.0 6:0.0 7:0.0 
1.0 1:6.0 2:0.0 3:0.0 4:0.0 5:6.0 6:0.0 7:0.0 
1.0 1:4.0 2:0.0 3:0.0 4:0.0 5:4.0 6:0.0 7:0.0 
1.0 1:3.0 2:0.0 3:0.0 4:0.0 5:3.0 6:0.0 7:0.0 
1.0 1:5.0 2:0.0 3:0.0 4:0.0 5:5.0 6:0.0 7:0.0 
1.0 1:3.0 2:0.0 3:0.0 4:0.0 5:3.0 6:0.0 7:0.0 
0.9968710124397216 1:29.0 2:0.0 3:0.0 4:0.0 5:29.0 6:0.0 7:0.0 
1.0 1:3.0 2:0.0 3:0.0 4:0.0 5:3.0 6:0.0 7:0.0 
1.0 1:3.0 2:0.0 3:0.0 4:0.0 5:3.0 6:0.0 7:0.0 
1.0 1:3.0 2:0.0 3:0.0 4:0.0 5:3.0 6:0.0 7:0.0 
1.0 1:3.0 2:0.0 3:0.0 4:0.0 5:3.0 6:0.0 7:0.0 
1.0 1:4.0 2:0.0 3:0.0 4:0.0 5:4.0 6:0.0 7:0.0 
1.0 1:4.0 2:0.0 3:0.0 4:0.0 5:4.0 6:0.0 7:0.0 
1.0 1:3.0 2:0.0 3:0.0 4:0.0 5:3.0 6:0.0 7:0.0 
1.0 1:8.0 2:0.0 3:0.0 4:0.0 5:8.0 6:0.0 7:0.0 
1.0 1:3.0 2:0.0 3:0.0 4:0.0 5:3.0 6:0.0 7:0.0 
1.0 1:3.0 2:0.0 3:0.0 4:0.0 5:3.0 6:0.0 7:0.0 
1.0 1:7.0 2:0.0 3:0.0 4:0.0 5:7.0 6:0.0 7:0.0 
1.0 1:4.0 2:0.0 3:0.0 4:0.0 5:4.0 6:0.0 7:0.0 
1.0 1:4.0 2:0.0 3:0.0 4:0.0 5:4.0 6:0.0 7:0.0 
1.0 1:4.0 2:0.0 3:0.0 4:0.0 5:4.0 6:0.0 7:0.0 
1.0 1:3.0 2:0.0 3:0.0 4:0.0 5:3.0 6:0.0 7:0.0 
1.0 1:3.0 2:0.0 3:0.0 4:0.0 5:3.0 6:0.0 7:0.0 
1.0 1:3.0 2:0.0 3:0.0 4:0.0 5:3.0 6:0.0 7:0.0 
1.0 1:3.0 2:0.0 3:0.0 4:0.0 5:3.0 6:0.0 7:0.0 
1.0 1:4.0 2:0.0 3:0.0 4:0.0 5:4.0 6:0.0 7:0.0 
1.0 1:7.0 2:0.0 3:0.0 4:0.0 5:7.0 6:0.0 7:0.0 
1.0 1:8.0 2:0.0 3:0.0 4:0.0 5:8.0 6:0.0 7:0.0 
1.0 1:4.0 2:0.0 3:0.0 4:0.0 5:4.0 6:0.0 7:0.0 
1.0 1:3.0 2:0.0 3:0.0 4:0.0 5:3.0 6:0.0 7:0.0 
1.0 1:4.0 2:0.0 3:0.0 4:0.0 5:4.0 6:0.0 7:0.0 
1.0 1:3.0 2:0.0 3:0.0 4:0.0 5:3.0 6:0.0 7:0.0 
1.0 1:4.0 2:0.0 3:0.0 4:0.0 5:4.0 6:0.0 7:0.0 
1.0 1:4.0 2:0.0 3:0.0 4:0.0 5:4.0 6:0.0 7:0.0 
1.0 1:3.0 2:0.0 3:0.0 4:0.0 5:3.0 6:0.0 7:0.0 
1.0 1:10.0 2:0.0 3:0.0 4:0.0 5:10.0 6:0.0 7:0.0 
1.0 1:3.0 2:0.0 3:0.0 4:0.0 5:3.0 6:0.0 7:0.0 
1.0 1:4.0 2:0.0 3:0.0 4:0.0 5:4.0 6:0.0 7:0.0 
1.0 1:7.0 2:0.0 3:0.0 4:0.0 5:7.0 6:0.0 7:0.0 
1.0 1:5.0 2:0.0 3:0.0 4:0.0 5:5.0 6:0.0 7:0.0 
1.0 1:11.0 2:0.0 3:0.0 4:0.0 5:11.0 6:0.0 7:0.0 
1.0 1:4.0 2:0.0 3:0.0 4:0.0 5:4.0 6:0.0 7:0.0 
1.0 1:4.0 2:0.0 3:0.0 4:0.0 5:4.0 6:0.0 7:0.0 
1.0 1:4.0 2:0.0 3:0.0 4:0.0 5:4.0 6:0.0 7:0.0 
1.0 1:3.0 2:0.0 3:0.0 4:0.0 5:3.0 6:0.0 7:0.0 
0.702862020883408 1:10.0 2:0.0 3:0.0 4:0.0 5:10.0 6:0.0 7:0.0 
1.0 1:3.0 2:0.0 3:0.0 4:0.0 5:3.0 6:0.0 7:0.0 
1.0 1:4.0 2:0.0 3:0.0 4:0.0 5:4.0 6:0.0 7:0.0 
1.0 1:3.0 2:0.0 3:0.0 4:0.0 5:3.0 6:0.0 7:0.0 
1.0 1:3.0 2:0.0 3:0.0 4:0.0 5:3.0 6:0.0 7:0.0 
1.0 1:7.0 2:0.0 3:0.0 4:0.0 5:7.0 6:0.0 7:0.0 
1.0 1:12.0 2:0.0 3:0.0 4:0.0 5:12.0 6:0.0 7:0.0 
1.0 1:4.0 2:0.0 3:0.0 4:0.0 5:4.0 6:0.0 7:0.0 
1.0 1:4.0 2:0.0 3:0.0 4:0.0 5:4.0 6:0.0 7:0.0 
1.0 1:4.0 2:0.0 3:0.0 4:0.0 5:4.0 6:0.0 7:0.0 
1.0 1:3.0 2:0.0 3:0.0 4:0.0 5:3.0 6:0.0 7:0.0 
1.0 1:4.0 2:0.0 3:0.0 4:0.0 5:4.0 6:0.0 7:0.0 
1.0 1:4.0 2:0.0 3:0.0 4:0.0 5:4.0 6:0.0 7:0.0 
1.0 1:7.0 2:0.0 3:0.0 4:0.0 5:7.0 6:0.0 7:0.0 
1.0 1:3.0 2:0.0 3:0.0 4:0.0 5:3.0 6:0.0 7:0.0 
1.0 1:15.0 2:0.0 3:0.0 4:0.0 5:15.0 6:0.0 7:0.0 
1.0 1:12.0 2:0.0 3:0.0 4:0.0 5:12.0 6:0.0 7:0.0 
1.0 1:3.0 2:0.0 3:0.0 4:0.0 5:3.0 6:0.0 7:0.0 
0.6935752182671454 1:7.0 2:0.0 3:1.0 4:0.0 5:7.0 6:1.0 7:0.0 
1.0 1:4.0 2:0.0 3:0.0 4:0.0 5:4.0 6:0.0 7:0.0 
1.0 1:12.0 2:0.0 3:0.0 4:0.0 5:12.0 6:0.0 7:0.0 
1.0 1:6.0 2:0.0 3:0.0 4:0.0 5:6.0 6:0.0 7:0.0 
1.0 1:3.0 2:0.0 3:0.0 4:0.0 5:3.0 6:0.0 7:0.0 
1.0 1:3.0 2:0.0 3:0.0 4:0.0 5:3.0 6:0.0 7:0.0 
1.0 1:6.0 2:0.0 3:0.0 4:0.0 5:6.0 6:0.0 7:0.0 
1.0 1:5.0 2:0.0 3:0.0 4:0.0 5:5.0 6:0.0 7:0.0 
0.5927578331082584 1:5.0 2:0.0 3:1.0 4:0.0 5:5.0 6:1.0 7:0.0 
1.0 1:9.0 2:0.0 3:0.0 4:0.0 5:9.0 6:0.0 7:0.0 
1.0 1:4.0 2:0.0 3:0.0 4:0.0 5:4.0 6:0.0 7:0.0 
1.0 1:4.0 2:0.0 3:0.0 4:0.0 5:4.0 6:0.0 7:0.0 
1.0 1:4.0 2:0.0 3:0.0 4:0.0 5:4.0 6:0.0 7:0.0 
1.0 1:8.0 2:0.0 3:0.0 4:0.0 5:8.0 6:0.0 7:0.0 
1.0 1:3.0 2:0.0 3:0.0 4:0.0 5:3.0 6:0.0 7:0.0 
1.0 1:3.0 2:0.0 3:0.0 4:0.0 5:3.0 6:0.0 7:0.0 
1.0 1:4.0 2:0.0 3:0.0 4:0.0 5:4.0 6:0.0 7:0.0 
1.0 1:4.0 2:0.0 3:0.0 4:0.0 5:4.0 6:0.0 7:0.0 
1.0 1:3.0 2:0.0 3:0.0 4:0.0 5:3.0 6:0.0 7:0.0 
1.0 1:3.0 2:0.0 3:0.0 4:0.0 5:3.0 6:0.0 7:0.0 
1.0 1:4.0 2:0.0 3:0.0 4:0.0 5:4.0 6:0.0 7:0.0 
1.0 1:7.0 2:0.0 3:0.0 4:0.0 5:7.0 6:0.0 7:0.0 
1.0 1:2.0 2:0.0 3:0.0 4:0.0 5:2.0 6:0.0 7:0.0 
1.0 1:7.0 2:0.0 3:1.0 4:0.0 5:7.0 6:1.0 7:0.0 
1.0 1:5.0 2:0.0 3:0.0 4:0.0 5:5.0 6:0.0 7:0.0 
1.0 1:2.0 2:0.0 3:0.0 4:0.0 5:2.0 6:0.0 7:0.0 
1.0 1:2.0 2:0.0 3:0.0 4:0.0 5:2.0 6:0.0 7:0.0 
1.0 1:2.0 2:0.0 3:0.0 4:0.0 5:2.0 6:0.0 7:0.0 
1.0 1:2.0 2:0.0 3:0.0 4:0.0 5:2.0 6:0.0 7:0.0 
1.0 1:2.0 2:0.0 3:0.0 4:0.0 5:2.0 6:0.0 7:0.0 
1.0 1:6.0 2:0.0 3:0.0 4:0.0 5:6.0 6:0.0 7:0.0 
1.0 1:2.0 2:0.0 3:0.0 4:0.0 5:2.0 6:0.0 7:0.0 
1.0 1:2.0 2:0.0 3:0.0 4:0.0 5:2.0 6:0.0 7:0.0 
1.0 1:2.0 2:0.0 3:0.0 4:0.0 5:2.0 6:0.0 7:0.0 
1.0 1:3.0 2:0.0 3:0.0 4:0.0 5:3.0 6:0.0 7:0.0 
1.0 1:2.0 2:0.0 3:0.0 4:0.0 5:2.0 6:0.0 7:0.0 
1.0 1:5.0 2:0.0 3:0.0 4:0.0 5:5.0 6:0.0 7:0.0 
1.0 1:2.0 2:0.0 3:0.0 4:0.0 5:2.0 6:0.0 7:0.0 
1.0 1:2.0 2:0.0 3:0.0 4:0.0 5:2.0 6:0.0 7:0.0 
1.0 1:5.0 2:0.0 3:0.0 4:0.0 5:5.0 6:0.0 7:0.0 
1.0 1:2.0 2:0.0 3:0.0 4:0.0 5:2.0 6:0.0 7:0.0 
1.0 1:2.0 2:0.0 3:0.0 4:0.0 5:2.0 6:0.0 7:0.0 
1.0 1:3.0 2:0.0 3:0.0 4:0.0 5:3.0 6:0.0 7:0.0 
1.0 1:4.0 2:0.0 3:0.0 4:0.0 5:4.0 6:0.0 7:0.0 
1.0 1:4.0 2:0.0 3:0.0 4:0.0 5:4.0 6:0.0 7:0.0 
1.0 1:4.0 2:0.0 3:0.0 4:0.0 5:4.0 6:0.0 7:0.0 
1.0 1:3.0 2:0.0 3:0.0 4:0.0 5:3.0 6:0.0 7:0.0 
0.6025848200051909 1:12.0 2:0.0 3:0.0 4:0.0 5:12.0 6:0.0 7:0.0 
1.0 1:15.0 2:0.0 3:0.0 4:0.0 5:15.0 6:0.0 7:0.0 
1.0 1:2.0 2:0.0 3:0.0 4:0.0 5:2.0 6:0.0 7:0.0 
1.0 1:6.0 2:0.0 3:0.0 4:0.0 5:6.0 6:0.0 7:0.0 
1.0 1:2.0 2:0.0 3:0.0 4:0.0 5:2.0 6:0.0 7:0.0 
1.0 1:2.0 2:0.0 3:0.0 4:0.0 5:2.0 6:0.0 7:0.0 
1.0 1:5.0 2:0.0 3:0.0 4:0.0 5:5.0 6:0.0 7:0.0 
1.0 1:3.0 2:0.0 3:0.0 4:0.0 5:3.0 6:0.0 7:0.0 
1.0 1:4.0 2:0.0 3:0.0 4:0.0 5:4.0 6:0.0 7:0.0 
1.0 1:2.0 2:0.0 3:0.0 4:0.0 5:2.0 6:0.0 7:0.0 
1.0 1:6.0 2:0.0 3:0.0 4:0.0 5:6.0 6:0.0 7:0.0 
1.0 1:4.0 2:0.0 3:0.0 4:0.0 5:4.0 6:0.0 7:0.0 
1.0 1:2.0 2:0.0 3:0.0 4:0.0 5:2.0 6:0.0 7:0.0 
1.0 1:2.0 2:0.0 3:0.0 4:0.0 5:2.0 6:0.0 7:0.0 
1.0 1:3.0 2:0.0 3:0.0 4:0.0 5:3.0 6:0.0 7:0.0 
1.0 1:7.0 2:0.0 3:0.0 4:0.0 5:7.0 6:0.0 7:0.0 
1.0 1:3.0 2:0.0 3:0.0 4:0.0 5:3.0 6:0.0 7:0.0 
1.0 1:4.0 2:0.0 3:0.0 4:0.0 5:4.0 6:0.0 7:0.0 
1.0 1:2.0 2:0.0 3:0.0 4:0.0 5:2.0 6:0.0 7:0.0 
1.0 1:2.0 2:0.0 3:0.0 4:0.0 5:2.0 6:0.0 7:0.0 
1.0 1:4.0 2:0.0 3:0.0 4:0.0 5:4.0 6:0.0 7:0.0 
1.0 1:6.0 2:0.0 3:0.0 4:0.0 5:6.0 6:0.0 7:0.0 
1.0 1:2.0 2:0.0 3:0.0 4:0.0 5:2.0 6:0.0 7:0.0 
1.0 1:3.0 2:0.0 3:0.0 4:0.0 5:3.0 6:0.0 7:0.0 
1.0 1:2.0 2:0.0 3:0.0 4:0.0 5:2.0 6:0.0 7:0.0 
1.0 1:3.0 2:0.0 3:0.0 4:0.0 5:3.0 6:0.0 7:0.0 
1.0 1:3.0 2:0.0 3:0.0 4:0.0 5:3.0 6:0.0 7:0.0 
1.0 1:2.0 2:0.0 3:0.0 4:0.0 5:2.0 6:0.0 7:0.0 
1.0 1:2.0 2:0.0 3:0.0 4:0.0 5:2.0 6:0.0 7:0.0 
1.0 1:2.0 2:0.0 3:0.0 4:0.0 5:2.0 6:0.0 7:0.0 
1.0 1:7.0 2:0.0 3:0.0 4:0.0 5:7.0 6:0.0 7:0.0 
1.0 1:5.0 2:0.0 3:0.0 4:0.0 5:5.0 6:0.0 7:0.0 
1.0 1:2.0 2:0.0 3:0.0 4:0.0 5:2.0 6:0.0 7:0.0 
1.0 1:2.0 2:0.0 3:0.0 4:0.0 5:2.0 6:0.0 7:0.0 
1.0 1:4.0 2:0.0 3:0.0 4:0.0 5:4.0 6:0.0 7:0.0 
1.0 1:2.0 2:0.0 3:0.0 4:0.0 5:2.0 6:0.0 7:0.0 
1.0 1:2.0 2:0.0 3:0.0 4:0.0 5:2.0 6:0.0 7:0.0 
1.0 1:4.0 2:0.0 3:0.0 4:0.0 5:4.0 6:0.0 7:0.0 
1.0 1:2.0 2:0.0 3:0.0 4:0.0 5:2.0 6:0.0 7:0.0 
1.0 1:3.0 2:0.0 3:0.0 4:0.0 5:3.0 6:0.0 7:0.0 
1.0 1:2.0 2:0.0 3:0.0 4:0.0 5:2.0 6:0.0 7:0.0 
1.0 1:2.0 2:0.0 3:0.0 4:0.0 5:2.0 6:0.0 7:0.0 
1.0 1:3.0 2:0.0 3:0.0 4:0.0 5:3.0 6:0.0 7:0.0 
1.0 1:3.0 2:0.0 3:0.0 4:0.0 5:3.0 6:0.0 7:0.0 
0.9208364893501868 1:17.0 2:0.0 3:0.0 4:0.0 5:17.0 6:0.0 7:0.0 
1.0 1:4.0 2:0.0 3:0.0 4:0.0 5:4.0 6:0.0 7:0.0 
1.0 1:2.0 2:0.0 3:0.0 4:0.0 5:2.0 6:0.0 7:0.0 
1.0 1:2.0 2:0.0 3:0.0 4:0.0 5:2.0 6:0.0 7:0.0 
1.0 1:2.0 2:0.0 3:0.0 4:0.0 5:2.0 6:0.0 7:0.0 
1.0 1:2.0 2:0.0 3:0.0 4:0.0 5:2.0 6:0.0 7:0.0 
1.0 1:3.0 2:0.0 3:0.0 4:0.0 5:3.0 6:0.0 7:0.0 
1.0 1:2.0 2:0.0 3:0.0 4:0.0 5:2.0 6:0.0 7:0.0 
1.0 1:3.0 2:0.0 3:0.0 4:0.0 5:3.0 6:0.0 7:0.0 
1.0 1:4.0 2:0.0 3:0.0 4:0.0 5:4.0 6:0.0 7:0.0 
1.0 1:3.0 2:0.0 3:0.0 4:0.0 5:3.0 6:0.0 7:0.0 
1.0 1:5.0 2:0.0 3:0.0 4:0.0 5:5.0 6:0.0 7:0.0 
1.0 1:2.0 2:0.0 3:0.0 4:0.0 5:2.0 6:0.0 7:0.0 
1.0 1:2.0 2:0.0 3:0.0 4:0.0 5:2.0 6:0.0 7:0.0 
1.0 1:2.0 2:0.0 3:0.0 4:0.0 5:2.0 6:0.0 7:0.0 
1.0 1:2.0 2:0.0 3:0.0 4:0.0 5:2.0 6:0.0 7:0.0 
1.0 1:2.0 2:0.0 3:0.0 4:0.0 5:2.0 6:0.0 7:0.0 
1.0 1:5.0 2:0.0 3:0.0 4:0.0 5:5.0 6:0.0 7:0.0 
1.0 1:5.0 2:0.0 3:0.0 4:0.0 5:5.0 6:0.0 7:0.0 
1.0 1:2.0 2:0.0 3:0.0 4:0.0 5:2.0 6:0.0 7:0.0 
1.0 1:7.0 2:0.0 3:0.0 4:0.0 5:7.0 6:0.0 7:0.0 
1.0 1:4.0 2:0.0 3:0.0 4:0.0 5:4.0 6:0.0 7:0.0 
1.0 1:2.0 2:0.0 3:0.0 4:0.0 5:2.0 6:0.0 7:0.0 
1.0 1:2.0 2:0.0 3:0.0 4:0.0 5:2.0 6:0.0 7:0.0 
1.0 1:3.0 2:0.0 3:0.0 4:0.0 5:3.0 6:0.0 7:0.0 
1.0 1:2.0 2:0.0 3:0.0 4:0.0 5:2.0 6:0.0 7:0.0 
1.0 1:2.0 2:0.0 3:0.0 4:0.0 5:2.0 6:0.0 7:0.0 
1.0 1:4.0 2:0.0 3:0.0 4:0.0 5:4.0 6:0.0 7:0.0 
1.0 1:5.0 2:0.0 3:0.0 4:0.0 5:5.0 6:0.0 7:0.0 
1.0 1:2.0 2:0.0 3:0.0 4:0.0 5:2.0 6:0.0 7:0.0 
1.0 1:5.0 2:0.0 3:0.0 4:0.0 5:5.0 6:0.0 7:0.0 
1.0 1:4.0 2:0.0 3:0.0 4:0.0 5:4.0 6:0.0 7:0.0 
1.0 1:3.0 2:0.0 3:0.0 4:0.0 5:3.0 6:0.0 7:0.0 
1.0 1:2.0 2:0.0 3:0.0 4:0.0 5:2.0 6:0.0 7:0.0 
1.0 1:3.0 2:0.0 3:0.0 4:0.0 5:3.0 6:0.0 7:0.0 
1.0 1:2.0 2:0.0 3:0.0 4:0.0 5:2.0 6:0.0 7:0.0 
1.0 1:2.0 2:0.0 3:0.0 4:0.0 5:2.0 6:0.0 7:0.0 
1.0 1:8.0 2:0.0 3:0.0 4:0.0 5:8.0 6:0.0 7:0.0 
1.0 1:2.0 2:0.0 3:0.0 4:0.0 5:2.0 6:0.0 7:0.0 
1.0 1:4.0 2:0.0 3:0.0 4:0.0 5:4.0 6:0.0 7:0.0 
1.0 1:3.0 2:0.0 3:0.0 4:0.0 5:3.0 6:0.0 7:0.0 
1.0 1:5.0 2:0.0 3:0.0 4:0.0 5:5.0 6:0.0 7:0.0 
0.7636477717803796 1:0.0 2:0.0 3:1.0 4:0.0 5:0.0 6:1.0 7:0.0 
1.0 1:5.0 2:0.0 3:0.0 4:0.0 5:5.0 6:0.0 7:0.0 
0.5501858407093597 1:6.0 2:0.0 3:1.0 4:0.0 5:6.0 6:1.0 7:0.0 
1.0 1:2.0 2:0.0 3:0.0 4:0.0 5:2.0 6:0.0 7:0.0 
1.0 1:5.0 2:0.0 3:0.0 4:0.0 5:5.0 6:0.0 7:0.0 
1.0 1:5.0 2:0.0 3:0.0 4:0.0 5:5.0 6:0.0 7:0.0 
1.0 1:3.0 2:0.0 3:0.0 4:0.0 5:3.0 6:0.0 7:0.0 
1.0 1:3.0 2:0.0 3:0.0 4:0.0 5:3.0 6:0.0 7:0.0 
1.0 1:3.0 2:0.0 3:0.0 4:0.0 5:3.0 6:0.0 7:0.0 
1.0 1:14.0 2:0.0 3:0.0 4:0.0 5:14.0 6:0.0 7:0.0 
1.0 1:3.0 2:0.0 3:0.0 4:0.0 5:3.0 6:0.0 7:0.0 
1.0 1:2.0 2:0.0 3:0.0 4:0.0 5:2.0 6:0.0 7:0.0 
1.0 1:4.0 2:0.0 3:0.0 4:0.0 5:4.0 6:0.0 7:0.0 
1.0 1:2.0 2:0.0 3:0.0 4:0.0 5:2.0 6:0.0 7:0.0 
1.0 1:2.0 2:0.0 3:0.0 4:0.0 5:2.0 6:0.0 7:0.0 
1.0 1:3.0 2:0.0 3:0.0 4:0.0 5:3.0 6:0.0 7:0.0 
1.0 1:2.0 2:0.0 3:0.0 4:0.0 5:2.0 6:0.0 7:0.0 
1.0 1:2.0 2:0.0 3:0.0 4:0.0 5:2.0 6:0.0 7:0.0 
1.0 1:4.0 2:0.0 3:0.0 4:0.0 5:4.0 6:0.0 7:0.0 
1.0 1:2.0 2:0.0 3:0.0 4:0.0 5:2.0 6:0.0 7:0.0 
1.0 1:4.0 2:0.0 3:0.0 4:0.0 5:4.0 6:0.0 7:0.0 
1.0 1:2.0 2:0.0 3:0.0 4:0.0 5:2.0 6:0.0 7:0.0 
1.0 1:2.0 2:0.0 3:0.0 4:0.0 5:2.0 6:0.0 7:0.0 
0.22519683737198234 1:8.0 2:0.0 3:0.0 4:0.0 5:8.0 6:0.0 7:0.0 
1.0 1:2.0 2:0.0 3:0.0 4:0.0 5:2.0 6:0.0 7:0.0 
1.0 1:7.0 2:0.0 3:0.0 4:0.0 5:7.0 6:0.0 7:0.0 
1.0 1:4.0 2:0.0 3:0.0 4:0.0 5:4.0 6:0.0 7:0.0 
1.0 1:2.0 2:0.0 3:0.0 4:0.0 5:2.0 6:0.0 7:0.0 
1.0 1:2.0 2:0.0 3:0.0 4:0.0 5:2.0 6:0.0 7:0.0 
1.0 1:4.0 2:0.0 3:0.0 4:0.0 5:4.0 6:0.0 7:0.0 
1.0 1:4.0 2:0.0 3:0.0 4:0.0 5:4.0 6:0.0 7:0.0 
1.0 1:5.0 2:0.0 3:0.0 4:0.0 5:5.0 6:0.0 7:0.0 
1.0 1:2.0 2:0.0 3:0.0 4:0.0 5:2.0 6:0.0 7:0.0 
1.0 1:2.0 2:0.0 3:0.0 4:0.0 5:2.0 6:0.0 7:0.0 
1.0 1:2.0 2:0.0 3:0.0 4:0.0 5:2.0 6:0.0 7:0.0 
1.0 1:2.0 2:0.0 3:0.0 4:0.0 5:2.0 6:0.0 7:0.0 
1.0 1:2.0 2:0.0 3:0.0 4:0.0 5:2.0 6:0.0 7:0.0 
1.0 1:4.0 2:0.0 3:0.0 4:0.0 5:4.0 6:0.0 7:0.0 
1.0 1:2.0 2:0.0 3:0.0 4:0.0 5:2.0 6:0.0 7:0.0 
1.0 1:2.0 2:0.0 3:0.0 4:0.0 5:2.0 6:0.0 7:0.0 
1.0 1:2.0 2:0.0 3:0.0 4:0.0 5:2.0 6:0.0 7:0.0 
1.0 1:4.0 2:0.0 3:0.0 4:0.0 5:4.0 6:0.0 7:0.0 
1.0 1:2.0 2:0.0 3:0.0 4:0.0 5:2.0 6:0.0 7:0.0 
1.0 1:3.0 2:0.0 3:0.0 4:0.0 5:3.0 6:0.0 7:0.0 
1.0 1:2.0 2:0.0 3:0.0 4:0.0 5:2.0 6:0.0 7:0.0 
1.0 1:2.0 2:0.0 3:0.0 4:0.0 5:2.0 6:0.0 7:0.0 
1.0 1:2.0 2:0.0 3:0.0 4:0.0 5:2.0 6:0.0 7:0.0 
1.0 1:2.0 2:0.0 3:1.0 4:0.0 5:2.0 6:1.0 7:0.0 
1.0 1:3.0 2:0.0 3:0.0 4:0.0 5:3.0 6:0.0 7:0.0 
1.0 1:9.0 2:0.0 3:0.0 4:0.0 5:9.0 6:0.0 7:0.0 
1.0 1:6.0 2:0.0 3:0.0 4:0.0 5:6.0 6:0.0 7:0.0 
1.0 1:2.0 2:0.0 3:0.0 4:0.0 5:2.0 6:0.0 7:0.0 
1.0 1:2.0 2:0.0 3:0.0 4:0.0 5:2.0 6:0.0 7:0.0 
1.0 1:2.0 2:0.0 3:0.0 4:0.0 5:2.0 6:0.0 7:0.0 
1.0 1:5.0 2:0.0 3:0.0 4:0.0 5:5.0 6:0.0 7:0.0 
1.0 1:2.0 2:0.0 3:0.0 4:0.0 5:2.0 6:0.0 7:0.0 
1.0 1:4.0 2:0.0 3:0.0 4:0.0 5:4.0 6:0.0 7:0.0 
1.0 1:4.0 2:0.0 3:0.0 4:0.0 5:4.0 6:0.0 7:0.0 
1.0 1:3.0 2:0.0 3:0.0 4:0.0 5:3.0 6:0.0 7:0.0 
1.0 1:2.0 2:0.0 3:0.0 4:0.0 5:2.0 6:0.0 7:0.0 
1.0 1:2.0 2:0.0 3:0.0 4:0.0 5:2.0 6:0.0 7:0.0 
1.0 1:2.0 2:0.0 3:0.0 4:0.0 5:2.0 6:0.0 7:0.0 
1.0 1:5.0 2:0.0 3:0.0 4:0.0 5:5.0 6:0.0 7:0.0 
1.0 1:2.0 2:0.0 3:0.0 4:0.0 5:2.0 6:0.0 7:0.0 
1.0 1:9.0 2:0.0 3:0.0 4:0.0 5:9.0 6:0.0 7:0.0 
1.0 1:2.0 2:0.0 3:0.0 4:0.0 5:2.0 6:0.0 7:0.0 
1.0 1:4.0 2:0.0 3:0.0 4:0.0 5:4.0 6:0.0 7:0.0 
1.0 1:3.0 2:0.0 3:0.0 4:0.0 5:3.0 6:0.0 7:0.0 
1.0 1:2.0 2:0.0 3:0.0 4:0.0 5:2.0 6:0.0 7:0.0 
1.0 1:3.0 2:0.0 3:0.0 4:0.0 5:3.0 6:0.0 7:0.0 
1.0 1:7.0 2:0.0 3:0.0 4:0.0 5:7.0 6:0.0 7:0.0 
1.0 1:4.0 2:0.0 3:0.0 4:0.0 5:4.0 6:0.0 7:0.0 
1.0 1:2.0 2:0.0 3:0.0 4:0.0 5:2.0 6:0.0 7:0.0 
1.0 1:4.0 2:0.0 3:0.0 4:0.0 5:4.0 6:0.0 7:0.0 
1.0 1:3.0 2:0.0 3:0.0 4:0.0 5:3.0 6:0.0 7:0.0 
1.0 1:2.0 2:0.0 3:0.0 4:0.0 5:2.0 6:0.0 7:0.0 
1.0 1:2.0 2:0.0 3:0.0 4:0.0 5:2.0 6:0.0 7:0.0 
1.0 1:2.0 2:0.0 3:0.0 4:0.0 5:2.0 6:0.0 7:0.0 
1.0 1:2.0 2:0.0 3:0.0 4:0.0 5:2.0 6:0.0 7:0.0 
1.0 1:2.0 2:0.0 3:0.0 4:0.0 5:2.0 6:0.0 7:0.0 
1.0 1:3.0 2:0.0 3:0.0 4:0.0 5:3.0 6:0.0 7:0.0 
1.0 1:2.0 2:0.0 3:0.0 4:0.0 5:2.0 6:0.0 7:0.0 
1.0 1:6.0 2:0.0 3:0.0 4:0.0 5:6.0 6:0.0 7:0.0 
1.0 1:3.0 2:0.0 3:0.0 4:0.0 5:3.0 6:0.0 7:0.0 
1.0 1:3.0 2:0.0 3:0.0 4:0.0 5:3.0 6:0.0 7:0.0 
1.0 1:3.0 2:0.0 3:0.0 4:0.0 5:3.0 6:0.0 7:0.0 
1.0 1:2.0 2:0.0 3:0.0 4:0.0 5:2.0 6:0.0 7:0.0 
1.0 1:3.0 2:0.0 3:0.0 4:0.0 5:3.0 6:0.0 7:0.0 
1.0 1:2.0 2:0.0 3:0.0 4:0.0 5:2.0 6:0.0 7:0.0 
1.0 1:2.0 2:0.0 3:0.0 4:0.0 5:2.0 6:0.0 7:0.0 
1.0 1:3.0 2:0.0 3:0.0 4:0.0 5:3.0 6:0.0 7:0.0 
1.0 1:3.0 2:0.0 3:0.0 4:0.0 5:3.0 6:0.0 7:0.0 
1.0 1:3.0 2:0.0 3:0.0 4:0.0 5:3.0 6:0.0 7:0.0 
1.0 1:3.0 2:0.0 3:0.0 4:0.0 5:3.0 6:0.0 7:0.0 
1.0 1:2.0 2:0.0 3:0.0 4:0.0 5:2.0 6:0.0 7:0.0 
1.0 1:4.0 2:0.0 3:0.0 4:0.0 5:4.0 6:0.0 7:0.0 
1.0 1:36.0 2:0.0 3:0.0 4:0.0 5:36.0 6:0.0 7:0.0 
1.0 1:2.0 2:0.0 3:0.0 4:0.0 5:2.0 6:0.0 7:0.0 
1.0 1:5.0 2:0.0 3:0.0 4:0.0 5:5.0 6:0.0 7:0.0 
1.0 1:2.0 2:0.0 3:0.0 4:0.0 5:2.0 6:0.0 7:0.0 
1.0 1:2.0 2:0.0 3:0.0 4:0.0 5:2.0 6:0.0 7:0.0 
1.0 1:2.0 2:0.0 3:0.0 4:0.0 5:2.0 6:0.0 7:0.0 
1.0 1:7.0 2:0.0 3:0.0 4:0.0 5:7.0 6:0.0 7:0.0 
1.0 1:5.0 2:0.0 3:0.0 4:0.0 5:5.0 6:0.0 7:0.0 
1.0 1:6.0 2:0.0 3:0.0 4:0.0 5:6.0 6:0.0 7:0.0 
1.0 1:2.0 2:0.0 3:0.0 4:0.0 5:2.0 6:0.0 7:0.0 
1.0 1:6.0 2:0.0 3:0.0 4:0.0 5:6.0 6:0.0 7:0.0 
1.0 1:15.0 2:0.0 3:0.0 4:0.0 5:15.0 6:0.0 7:0.0 
1.0 1:2.0 2:0.0 3:0.0 4:0.0 5:2.0 6:0.0 7:0.0 
1.0 1:4.0 2:0.0 3:0.0 4:0.0 5:4.0 6:0.0 7:0.0 
1.0 1:3.0 2:0.0 3:0.0 4:0.0 5:3.0 6:0.0 7:0.0 
1.0 1:4.0 2:0.0 3:0.0 4:0.0 5:4.0 6:0.0 7:0.0 
1.0 1:2.0 2:0.0 3:0.0 4:0.0 5:2.0 6:0.0 7:0.0 
1.0 1:2.0 2:0.0 3:0.0 4:0.0 5:2.0 6:0.0 7:0.0 
1.0 1:2.0 2:0.0 3:0.0 4:0.0 5:2.0 6:0.0 7:0.0 
1.0 1:3.0 2:0.0 3:0.0 4:0.0 5:3.0 6:0.0 7:0.0 
1.0 1:3.0 2:0.0 3:0.0 4:0.0 5:3.0 6:0.0 7:0.0 
1.0 1:5.0 2:0.0 3:0.0 4:0.0 5:5.0 6:0.0 7:0.0 
1.0 1:2.0 2:0.0 3:0.0 4:0.0 5:2.0 6:0.0 7:0.0 
1.0 1:2.0 2:0.0 3:1.0 4:0.0 5:2.0 6:1.0 7:0.0 
1.0 1:2.0 2:0.0 3:0.0 4:0.0 5:2.0 6:0.0 7:0.0 
1.0 1:3.0 2:0.0 3:0.0 4:0.0 5:3.0 6:0.0 7:0.0 
1.0 1:4.0 2:0.0 3:0.0 4:0.0 5:4.0 6:0.0 7:0.0 
1.0 1:14.0 2:0.0 3:0.0 4:0.0 5:14.0 6:0.0 7:0.0 
1.0 1:3.0 2:0.0 3:0.0 4:0.0 5:3.0 6:0.0 7:0.0 
1.0 1:7.0 2:0.0 3:0.0 4:0.0 5:7.0 6:0.0 7:0.0 
1.0 1:2.0 2:0.0 3:0.0 4:0.0 5:2.0 6:0.0 7:0.0 
0.9693345475020658 1:16.0 2:0.0 3:0.0 4:0.0 5:16.0 6:0.0 7:0.0 
1.0 1:2.0 2:0.0 3:0.0 4:0.0 5:2.0 6:0.0 7:0.0 
1.0 1:2.0 2:0.0 3:0.0 4:0.0 5:2.0 6:0.0 7:0.0 
1.0 1:2.0 2:0.0 3:0.0 4:0.0 5:2.0 6:0.0 7:0.0 
1.0 1:4.0 2:0.0 3:0.0 4:0.0 5:4.0 6:0.0 7:0.0 
1.0 1:2.0 2:0.0 3:0.0 4:0.0 5:2.0 6:0.0 7:0.0 
1.0 1:2.0 2:0.0 3:0.0 4:0.0 5:2.0 6:0.0 7:0.0 
1.0 1:3.0 2:0.0 3:0.0 4:0.0 5:3.0 6:0.0 7:0.0 
1.0 1:4.0 2:0.0 3:0.0 4:0.0 5:4.0 6:0.0 7:0.0 
1.0 1:5.0 2:0.0 3:0.0 4:0.0 5:5.0 6:0.0 7:0.0 
0.9533173642021696 1:24.0 2:0.0 3:0.0 4:0.0 5:24.0 6:0.0 7:0.0 
1.0 1:3.0 2:0.0 3:0.0 4:0.0 5:3.0 6:0.0 7:0.0 
1.0 1:2.0 2:0.0 3:0.0 4:0.0 5:2.0 6:0.0 7:0.0 
1.0 1:3.0 2:0.0 3:0.0 4:0.0 5:3.0 6:0.0 7:0.0 
1.0 1:3.0 2:0.0 3:0.0 4:0.0 5:3.0 6:0.0 7:0.0 
1.0 1:3.0 2:0.0 3:0.0 4:0.0 5:3.0 6:0.0 7:0.0 
1.0 1:9.0 2:0.0 3:0.0 4:0.0 5:9.0 6:0.0 7:0.0 
1.0 1:3.0 2:0.0 3:0.0 4:0.0 5:3.0 6:0.0 7:0.0 
1.0 1:4.0 2:0.0 3:0.0 4:0.0 5:4.0 6:0.0 7:0.0 
1.0 1:3.0 2:0.0 3:0.0 4:0.0 5:3.0 6:0.0 7:0.0 
1.0 1:2.0 2:0.0 3:0.0 4:0.0 5:2.0 6:0.0 7:0.0 
1.0 1:2.0 2:0.0 3:0.0 4:0.0 5:2.0 6:0.0 7:0.0 
1.0 1:3.0 2:0.0 3:0.0 4:0.0 5:3.0 6:0.0 7:0.0 
1.0 1:2.0 2:0.0 3:0.0 4:0.0 5:2.0 6:0.0 7:0.0 
1.0 1:2.0 2:0.0 3:0.0 4:0.0 5:2.0 6:0.0 7:0.0 
1.0 1:7.0 2:0.0 3:0.0 4:0.0 5:7.0 6:0.0 7:0.0 
1.0 1:6.0 2:0.0 3:0.0 4:0.0 5:6.0 6:0.0 7:0.0 
1.0 1:2.0 2:0.0 3:0.0 4:0.0 5:2.0 6:0.0 7:0.0 
1.0 1:2.0 2:0.0 3:0.0 4:0.0 5:2.0 6:0.0 7:0.0 
1.0 1:5.0 2:0.0 3:0.0 4:0.0 5:5.0 6:0.0 7:0.0 
1.0 1:3.0 2:0.0 3:0.0 4:0.0 5:3.0 6:0.0 7:0.0 
1.0 1:3.0 2:0.0 3:0.0 4:0.0 5:3.0 6:0.0 7:0.0 
1.0 1:2.0 2:0.0 3:0.0 4:0.0 5:2.0 6:0.0 7:0.0 
1.0 1:2.0 2:0.0 3:0.0 4:0.0 5:2.0 6:0.0 7:0.0 
1.0 1:2.0 2:0.0 3:0.0 4:0.0 5:2.0 6:0.0 7:0.0 
1.0 1:2.0 2:0.0 3:0.0 4:0.0 5:2.0 6:0.0 7:0.0 
1.0 1:2.0 2:0.0 3:0.0 4:0.0 5:2.0 6:0.0 7:0.0 
1.0 1:4.0 2:0.0 3:0.0 4:0.0 5:4.0 6:0.0 7:0.0 
1.0 1:4.0 2:0.0 3:0.0 4:0.0 5:4.0 6:0.0 7:0.0 
1.0 1:4.0 2:0.0 3:0.0 4:0.0 5:4.0 6:0.0 7:0.0 
1.0 1:2.0 2:0.0 3:0.0 4:0.0 5:2.0 6:0.0 7:0.0 
1.0 1:5.0 2:0.0 3:0.0 4:0.0 5:5.0 6:0.0 7:0.0 
1.0 1:2.0 2:0.0 3:0.0 4:0.0 5:2.0 6:0.0 7:0.0 
1.0 1:2.0 2:0.0 3:0.0 4:0.0 5:2.0 6:0.0 7:0.0 
1.0 1:7.0 2:0.0 3:0.0 4:0.0 5:7.0 6:0.0 7:0.0 
1.0 1:6.0 2:0.0 3:0.0 4:0.0 5:6.0 6:0.0 7:0.0 
1.0 1:2.0 2:0.0 3:0.0 4:0.0 5:2.0 6:0.0 7:0.0 
1.0 1:3.0 2:0.0 3:0.0 4:0.0 5:3.0 6:0.0 7:0.0 
1.0 1:9.0 2:0.0 3:0.0 4:0.0 5:9.0 6:0.0 7:0.0 
1.0 1:2.0 2:0.0 3:0.0 4:0.0 5:2.0 6:0.0 7:0.0 
1.0 1:2.0 2:0.0 3:0.0 4:0.0 5:2.0 6:0.0 7:0.0 
1.0 1:3.0 2:0.0 3:0.0 4:0.0 5:3.0 6:0.0 7:0.0 
0.6374442840721536 1:7.0 2:0.0 3:1.0 4:0.0 5:7.0 6:1.0 7:0.0 
1.0 1:5.0 2:0.0 3:0.0 4:0.0 5:5.0 6:0.0 7:0.0 
1.0 1:2.0 2:0.0 3:0.0 4:0.0 5:2.0 6:0.0 7:0.0 
1.0 1:2.0 2:0.0 3:0.0 4:0.0 5:2.0 6:0.0 7:0.0 
1.0 1:2.0 2:0.0 3:0.0 4:0.0 5:2.0 6:0.0 7:0.0 
1.0 1:2.0 2:0.0 3:0.0 4:0.0 5:2.0 6:0.0 7:0.0 
1.0 1:2.0 2:0.0 3:0.0 4:0.0 5:2.0 6:0.0 7:0.0 
0.23855677627305966 1:1.0 2:0.0 3:0.0 4:0.0 5:1.0 6:0.0 7:0.0 
1.0 1:1.0 2:0.0 3:0.0 4:0.0 5:1.0 6:0.0 7:0.0 
1.0 1:1.0 2:0.0 3:0.0 4:0.0 5:1.0 6:0.0 7:0.0 
1.0 1:2.0 2:0.0 3:0.0 4:0.0 5:2.0 6:0.0 7:0.0 
1.0 1:1.0 2:0.0 3:0.0 4:0.0 5:1.0 6:0.0 7:0.0 
1.0 1:2.0 2:0.0 3:0.0 4:0.0 5:2.0 6:0.0 7:0.0 
1.0 1:3.0 2:0.0 3:0.0 4:0.0 5:3.0 6:0.0 7:0.0 
0.3473397461281981 1:2.0 2:0.0 3:2.0 4:0.0 5:2.0 6:2.0 7:0.0 
1.0 1:1.0 2:0.0 3:0.0 4:0.0 5:1.0 6:0.0 7:0.0 
1.0 1:1.0 2:0.0 3:0.0 4:0.0 5:1.0 6:0.0 7:0.0 
1.0 1:1.0 2:0.0 3:0.0 4:0.0 5:1.0 6:0.0 7:0.0 
1.0 1:1.0 2:0.0 3:0.0 4:0.0 5:1.0 6:0.0 7:0.0 
1.0 1:2.0 2:0.0 3:0.0 4:0.0 5:2.0 6:0.0 7:0.0 
1.0 1:3.0 2:0.0 3:0.0 4:0.0 5:3.0 6:0.0 7:0.0 
1.0 1:3.0 2:0.0 3:0.0 4:0.0 5:3.0 6:0.0 7:0.0 
1.0 1:2.0 2:0.0 3:0.0 4:0.0 5:2.0 6:0.0 7:0.0 
1.0 1:1.0 2:0.0 3:0.0 4:0.0 5:1.0 6:0.0 7:0.0 
1.0 1:1.0 2:0.0 3:0.0 4:0.0 5:1.0 6:0.0 7:0.0 
1.0 1:1.0 2:0.0 3:0.0 4:0.0 5:1.0 6:0.0 7:0.0 
1.0 1:1.0 2:0.0 3:0.0 4:0.0 5:1.0 6:0.0 7:0.0 
1.0 1:1.0 2:0.0 3:0.0 4:0.0 5:1.0 6:0.0 7:0.0 
1.0 1:2.0 2:0.0 3:0.0 4:0.0 5:2.0 6:0.0 7:0.0 
1.0 1:1.0 2:0.0 3:0.0 4:0.0 5:1.0 6:0.0 7:0.0 
1.0 1:1.0 2:0.0 3:0.0 4:0.0 5:1.0 6:0.0 7:0.0 
1.0 1:1.0 2:0.0 3:0.0 4:0.0 5:1.0 6:0.0 7:0.0 
1.0 1:5.0 2:0.0 3:0.0 4:0.0 5:5.0 6:0.0 7:0.0 
1.0 1:3.0 2:0.0 3:0.0 4:0.0 5:3.0 6:0.0 7:0.0 
1.0 1:1.0 2:0.0 3:0.0 4:0.0 5:1.0 6:0.0 7:0.0 
1.0 1:1.0 2:0.0 3:0.0 4:0.0 5:1.0 6:0.0 7:0.0 
1.0 1:1.0 2:0.0 3:0.0 4:0.0 5:1.0 6:0.0 7:0.0 
1.0 1:1.0 2:0.0 3:0.0 4:0.0 5:1.0 6:0.0 7:0.0 
1.0 1:7.0 2:0.0 3:0.0 4:0.0 5:7.0 6:0.0 7:0.0 
1.0 1:1.0 2:0.0 3:0.0 4:0.0 5:1.0 6:0.0 7:0.0 
1.0 1:3.0 2:0.0 3:0.0 4:0.0 5:3.0 6:0.0 7:0.0 
1.0 1:2.0 2:0.0 3:0.0 4:0.0 5:2.0 6:0.0 7:0.0 
1.0 1:1.0 2:0.0 3:0.0 4:0.0 5:1.0 6:0.0 7:0.0 
1.0 1:1.0 2:0.0 3:0.0 4:0.0 5:1.0 6:0.0 7:0.0 
1.0 1:2.0 2:0.0 3:0.0 4:0.0 5:2.0 6:0.0 7:0.0 
1.0 1:1.0 2:0.0 3:0.0 4:0.0 5:1.0 6:0.0 7:0.0 
1.0 1:1.0 2:0.0 3:0.0 4:0.0 5:1.0 6:0.0 7:0.0 
1.0 1:2.0 2:0.0 3:0.0 4:0.0 5:2.0 6:0.0 7:0.0 
1.0 1:1.0 2:0.0 3:0.0 4:0.0 5:1.0 6:0.0 7:0.0 
0.024091949213948853 1:27.0 2:0.0 3:0.0 4:0.0 5:27.0 6:0.0 7:0.0 
1.0 1:1.0 2:0.0 3:0.0 4:0.0 5:1.0 6:0.0 7:0.0 
1.0 1:1.0 2:0.0 3:0.0 4:0.0 5:1.0 6:0.0 7:0.0 
1.0 1:1.0 2:0.0 3:0.0 4:0.0 5:1.0 6:0.0 7:0.0 
1.0 1:1.0 2:0.0 3:0.0 4:0.0 5:1.0 6:0.0 7:0.0 
1.0 1:1.0 2:0.0 3:0.0 4:0.0 5:1.0 6:0.0 7:0.0 
1.0 1:1.0 2:0.0 3:0.0 4:0.0 5:1.0 6:0.0 7:0.0 
1.0 1:2.0 2:0.0 3:0.0 4:0.0 5:2.0 6:0.0 7:0.0 
1.0 1:1.0 2:0.0 3:0.0 4:0.0 5:1.0 6:0.0 7:0.0 
1.0 1:1.0 2:0.0 3:0.0 4:0.0 5:1.0 6:0.0 7:0.0 
1.0 1:3.0 2:0.0 3:0.0 4:0.0 5:3.0 6:0.0 7:0.0 
1.0 1:2.0 2:0.0 3:0.0 4:0.0 5:2.0 6:0.0 7:0.0 
1.0 1:4.0 2:0.0 3:0.0 4:0.0 5:4.0 6:0.0 7:0.0 
1.0 1:1.0 2:0.0 3:0.0 4:0.0 5:1.0 6:0.0 7:0.0 
1.0 1:1.0 2:0.0 3:0.0 4:0.0 5:1.0 6:0.0 7:0.0 
1.0 1:1.0 2:0.0 3:0.0 4:0.0 5:1.0 6:0.0 7:0.0 
1.0 1:1.0 2:0.0 3:0.0 4:0.0 5:1.0 6:0.0 7:0.0 
1.0 1:1.0 2:0.0 3:0.0 4:0.0 5:1.0 6:0.0 7:0.0 
1.0 1:2.0 2:0.0 3:0.0 4:0.0 5:2.0 6:0.0 7:0.0 
1.0 1:1.0 2:0.0 3:0.0 4:0.0 5:1.0 6:0.0 7:0.0 
1.0 1:1.0 2:0.0 3:0.0 4:0.0 5:1.0 6:0.0 7:0.0 
1.0 1:1.0 2:0.0 3:0.0 4:0.0 5:1.0 6:0.0 7:0.0 
1.0 1:1.0 2:0.0 3:0.0 4:0.0 5:1.0 6:0.0 7:0.0 
1.0 1:1.0 2:0.0 3:0.0 4:0.0 5:1.0 6:0.0 7:0.0 
1.0 1:1.0 2:0.0 3:0.0 4:0.0 5:1.0 6:0.0 7:0.0 
1.0 1:5.0 2:0.0 3:0.0 4:0.0 5:5.0 6:0.0 7:0.0 
1.0 1:1.0 2:0.0 3:0.0 4:0.0 5:1.0 6:0.0 7:0.0 
1.0 1:3.0 2:0.0 3:0.0 4:0.0 5:3.0 6:0.0 7:0.0 
1.0 1:1.0 2:0.0 3:0.0 4:0.0 5:1.0 6:0.0 7:0.0 
1.0 1:1.0 2:0.0 3:0.0 4:0.0 5:1.0 6:0.0 7:0.0 
1.0 1:1.0 2:0.0 3:0.0 4:0.0 5:1.0 6:0.0 7:0.0 
1.0 1:1.0 2:0.0 3:0.0 4:0.0 5:1.0 6:0.0 7:0.0 
1.0 1:1.0 2:0.0 3:0.0 4:0.0 5:1.0 6:0.0 7:0.0 
1.0 1:1.0 2:0.0 3:0.0 4:0.0 5:1.0 6:0.0 7:0.0 
1.0 1:1.0 2:0.0 3:0.0 4:0.0 5:1.0 6:0.0 7:0.0 
1.0 1:3.0 2:0.0 3:0.0 4:0.0 5:3.0 6:0.0 7:0.0 
1.0 1:1.0 2:0.0 3:0.0 4:0.0 5:1.0 6:0.0 7:0.0 
1.0 1:9.0 2:0.0 3:0.0 4:0.0 5:9.0 6:0.0 7:0.0 
0.42212323281993946 1:6.0 2:0.0 3:0.0 4:0.0 5:6.0 6:0.0 7:0.0 
1.0 1:1.0 2:0.0 3:0.0 4:0.0 5:1.0 6:0.0 7:0.0 
1.0 1:2.0 2:0.0 3:0.0 4:0.0 5:2.0 6:0.0 7:0.0 
1.0 1:1.0 2:0.0 3:0.0 4:0.0 5:1.0 6:0.0 7:0.0 
1.0 1:1.0 2:0.0 3:0.0 4:0.0 5:1.0 6:0.0 7:0.0 
1.0 1:4.0 2:0.0 3:0.0 4:0.0 5:4.0 6:0.0 7:0.0 
1.0 1:2.0 2:0.0 3:0.0 4:0.0 5:2.0 6:0.0 7:0.0 
1.0 1:3.0 2:0.0 3:0.0 4:0.0 5:3.0 6:0.0 7:0.0 
1.0 1:2.0 2:0.0 3:0.0 4:0.0 5:2.0 6:0.0 7:0.0 
1.0 1:2.0 2:0.0 3:0.0 4:0.0 5:2.0 6:0.0 7:0.0 
1.0 1:1.0 2:0.0 3:0.0 4:0.0 5:1.0 6:0.0 7:0.0 
1.0 1:3.0 2:0.0 3:0.0 4:0.0 5:3.0 6:0.0 7:0.0 
1.0 1:1.0 2:0.0 3:0.0 4:0.0 5:1.0 6:0.0 7:0.0 
1.0 1:1.0 2:0.0 3:0.0 4:0.0 5:1.0 6:0.0 7:0.0 
1.0 1:1.0 2:0.0 3:0.0 4:0.0 5:1.0 6:0.0 7:0.0 
1.0 1:1.0 2:0.0 3:0.0 4:0.0 5:1.0 6:0.0 7:0.0 
1.0 1:2.0 2:0.0 3:0.0 4:0.0 5:2.0 6:0.0 7:0.0 
1.0 1:1.0 2:0.0 3:0.0 4:0.0 5:1.0 6:0.0 7:0.0 
1.0 1:2.0 2:0.0 3:0.0 4:0.0 5:2.0 6:0.0 7:0.0 
1.0 1:1.0 2:0.0 3:0.0 4:0.0 5:1.0 6:0.0 7:0.0 
1.0 1:1.0 2:0.0 3:0.0 4:0.0 5:1.0 6:0.0 7:0.0 
1.0 1:2.0 2:0.0 3:0.0 4:0.0 5:2.0 6:0.0 7:0.0 
1.0 1:1.0 2:0.0 3:0.0 4:0.0 5:1.0 6:0.0 7:0.0 
1.0 1:2.0 2:0.0 3:0.0 4:0.0 5:2.0 6:0.0 7:0.0 
1.0 1:1.0 2:0.0 3:0.0 4:0.0 5:1.0 6:0.0 7:0.0 
1.0 1:2.0 2:0.0 3:0.0 4:0.0 5:2.0 6:0.0 7:0.0 
1.0 1:1.0 2:0.0 3:0.0 4:0.0 5:1.0 6:0.0 7:0.0 
0.3113158711537594 1:4.0 2:0.0 3:0.0 4:0.0 5:4.0 6:0.0 7:0.0 
1.0 1:1.0 2:0.0 3:0.0 4:0.0 5:1.0 6:0.0 7:0.0 
1.0 1:2.0 2:0.0 3:1.0 4:0.0 5:2.0 6:1.0 7:0.0 
1.0 1:1.0 2:0.0 3:0.0 4:0.0 5:1.0 6:0.0 7:0.0 
1.0 1:1.0 2:0.0 3:0.0 4:0.0 5:1.0 6:0.0 7:0.0 
1.0 1:3.0 2:0.0 3:0.0 4:0.0 5:3.0 6:0.0 7:0.0 
1.0 1:1.0 2:0.0 3:0.0 4:0.0 5:1.0 6:0.0 7:0.0 
1.0 1:1.0 2:0.0 3:0.0 4:0.0 5:1.0 6:0.0 7:0.0 
1.0 1:7.0 2:0.0 3:0.0 4:0.0 5:7.0 6:0.0 7:0.0 
1.0 1:1.0 2:0.0 3:0.0 4:0.0 5:1.0 6:0.0 7:0.0 
1.0 1:1.0 2:0.0 3:0.0 4:0.0 5:1.0 6:0.0 7:0.0 
1.0 1:1.0 2:0.0 3:0.0 4:0.0 5:1.0 6:0.0 7:0.0 
1.0 1:2.0 2:0.0 3:0.0 4:0.0 5:2.0 6:0.0 7:0.0 
1.0 1:1.0 2:0.0 3:0.0 4:0.0 5:1.0 6:0.0 7:0.0 
1.0 1:3.0 2:0.0 3:0.0 4:0.0 5:3.0 6:0.0 7:0.0 
1.0 1:1.0 2:0.0 3:0.0 4:0.0 5:1.0 6:0.0 7:0.0 
1.0 1:1.0 2:0.0 3:0.0 4:0.0 5:1.0 6:0.0 7:0.0 
1.0 1:3.0 2:0.0 3:0.0 4:0.0 5:3.0 6:0.0 7:0.0 
1.0 1:1.0 2:0.0 3:0.0 4:0.0 5:1.0 6:0.0 7:0.0 
1.0 1:1.0 2:0.0 3:0.0 4:0.0 5:1.0 6:0.0 7:0.0 
1.0 1:1.0 2:0.0 3:0.0 4:0.0 5:1.0 6:0.0 7:0.0 
1.0 1:1.0 2:0.0 3:0.0 4:0.0 5:1.0 6:0.0 7:0.0 
1.0 1:1.0 2:0.0 3:0.0 4:0.0 5:1.0 6:0.0 7:0.0 
1.0 1:1.0 2:0.0 3:0.0 4:0.0 5:1.0 6:0.0 7:0.0 
1.0 1:1.0 2:0.0 3:0.0 4:0.0 5:1.0 6:0.0 7:0.0 
1.0 1:2.0 2:0.0 3:0.0 4:0.0 5:2.0 6:0.0 7:0.0 
1.0 1:1.0 2:0.0 3:0.0 4:0.0 5:1.0 6:0.0 7:0.0 
1.0 1:1.0 2:0.0 3:0.0 4:0.0 5:1.0 6:0.0 7:0.0 
1.0 1:1.0 2:0.0 3:0.0 4:0.0 5:1.0 6:0.0 7:0.0 
1.0 1:1.0 2:0.0 3:0.0 4:0.0 5:1.0 6:0.0 7:0.0 
1.0 1:2.0 2:0.0 3:0.0 4:0.0 5:2.0 6:0.0 7:0.0 
1.0 1:1.0 2:0.0 3:0.0 4:0.0 5:1.0 6:0.0 7:0.0 
1.0 1:1.0 2:0.0 3:0.0 4:0.0 5:1.0 6:0.0 7:0.0 
1.0 1:3.0 2:0.0 3:0.0 4:0.0 5:3.0 6:0.0 7:0.0 
1.0 1:1.0 2:0.0 3:0.0 4:0.0 5:1.0 6:0.0 7:0.0 
1.0 1:1.0 2:0.0 3:0.0 4:0.0 5:1.0 6:0.0 7:0.0 
1.0 1:3.0 2:0.0 3:0.0 4:0.0 5:3.0 6:0.0 7:0.0 
1.0 1:2.0 2:0.0 3:0.0 4:0.0 5:2.0 6:0.0 7:0.0 
1.0 1:2.0 2:0.0 3:0.0 4:0.0 5:2.0 6:0.0 7:0.0 
1.0 1:1.0 2:0.0 3:0.0 4:0.0 5:1.0 6:0.0 7:0.0 
1.0 1:1.0 2:0.0 3:0.0 4:0.0 5:1.0 6:0.0 7:0.0 
1.0 1:1.0 2:0.0 3:0.0 4:0.0 5:1.0 6:0.0 7:0.0 
1.0 1:1.0 2:0.0 3:0.0 4:0.0 5:1.0 6:0.0 7:0.0 
1.0 1:2.0 2:0.0 3:0.0 4:0.0 5:2.0 6:0.0 7:0.0 
1.0 1:3.0 2:0.0 3:0.0 4:0.0 5:3.0 6:0.0 7:0.0 
1.0 1:2.0 2:0.0 3:0.0 4:0.0 5:2.0 6:0.0 7:0.0 
1.0 1:1.0 2:0.0 3:0.0 4:0.0 5:1.0 6:0.0 7:0.0 
1.0 1:3.0 2:0.0 3:0.0 4:0.0 5:3.0 6:0.0 7:0.0 
1.0 1:1.0 2:0.0 3:0.0 4:0.0 5:1.0 6:0.0 7:0.0 
1.0 1:1.0 2:0.0 3:0.0 4:0.0 5:1.0 6:0.0 7:0.0 
1.0 1:1.0 2:0.0 3:0.0 4:0.0 5:1.0 6:0.0 7:0.0 
1.0 1:3.0 2:0.0 3:0.0 4:0.0 5:3.0 6:0.0 7:0.0 
1.0 1:1.0 2:0.0 3:0.0 4:0.0 5:1.0 6:0.0 7:0.0 
1.0 1:1.0 2:0.0 3:0.0 4:0.0 5:1.0 6:0.0 7:0.0 
1.0 1:1.0 2:0.0 3:0.0 4:0.0 5:1.0 6:0.0 7:0.0 
1.0 1:1.0 2:0.0 3:0.0 4:0.0 5:1.0 6:0.0 7:0.0 
1.0 1:2.0 2:0.0 3:0.0 4:0.0 5:2.0 6:0.0 7:0.0 
1.0 1:1.0 2:0.0 3:0.0 4:0.0 5:1.0 6:0.0 7:0.0 
1.0 1:3.0 2:0.0 3:0.0 4:0.0 5:3.0 6:0.0 7:0.0 
1.0 1:1.0 2:0.0 3:0.0 4:0.0 5:1.0 6:0.0 7:0.0 
1.0 1:1.0 2:0.0 3:0.0 4:0.0 5:1.0 6:0.0 7:0.0 
1.0 1:3.0 2:0.0 3:0.0 4:0.0 5:3.0 6:0.0 7:0.0 
1.0 1:2.0 2:0.0 3:0.0 4:0.0 5:2.0 6:0.0 7:0.0 
1.0 1:1.0 2:0.0 3:0.0 4:0.0 5:1.0 6:0.0 7:0.0 
1.0 1:3.0 2:0.0 3:0.0 4:0.0 5:3.0 6:0.0 7:0.0 
1.0 1:2.0 2:0.0 3:0.0 4:0.0 5:2.0 6:0.0 7:0.0 
1.0 1:1.0 2:0.0 3:0.0 4:0.0 5:1.0 6:0.0 7:0.0 
1.0 1:35.0 2:0.0 3:0.0 4:0.0 5:35.0 6:0.0 7:0.0 
1.0 1:2.0 2:0.0 3:0.0 4:0.0 5:2.0 6:0.0 7:0.0 
1.0 1:1.0 2:0.0 3:0.0 4:0.0 5:1.0 6:0.0 7:0.0 
1.0 1:1.0 2:0.0 3:0.0 4:0.0 5:1.0 6:0.0 7:0.0 
1.0 1:1.0 2:0.0 3:0.0 4:0.0 5:1.0 6:0.0 7:0.0 
1.0 1:1.0 2:0.0 3:0.0 4:0.0 5:1.0 6:0.0 7:0.0 
1.0 1:1.0 2:0.0 3:0.0 4:0.0 5:1.0 6:0.0 7:0.0 
1.0 1:1.0 2:0.0 3:0.0 4:0.0 5:1.0 6:0.0 7:0.0 
1.0 1:1.0 2:0.0 3:0.0 4:0.0 5:1.0 6:0.0 7:0.0 
1.0 1:14.0 2:0.0 3:0.0 4:0.0 5:14.0 6:0.0 7:0.0 
1.0 1:1.0 2:0.0 3:0.0 4:0.0 5:1.0 6:0.0 7:0.0 
1.0 1:1.0 2:0.0 3:0.0 4:0.0 5:1.0 6:0.0 7:0.0 
1.0 1:2.0 2:0.0 3:0.0 4:0.0 5:2.0 6:0.0 7:0.0 
1.0 1:1.0 2:0.0 3:0.0 4:0.0 5:1.0 6:0.0 7:0.0 
1.0 1:1.0 2:0.0 3:0.0 4:0.0 5:1.0 6:0.0 7:0.0 
1.0 1:1.0 2:0.0 3:0.0 4:0.0 5:1.0 6:0.0 7:0.0 
1.0 1:1.0 2:0.0 3:0.0 4:0.0 5:1.0 6:0.0 7:0.0 
1.0 1:1.0 2:0.0 3:0.0 4:0.0 5:1.0 6:0.0 7:0.0 
1.0 1:2.0 2:0.0 3:0.0 4:0.0 5:2.0 6:0.0 7:0.0 
1.0 1:1.0 2:0.0 3:0.0 4:0.0 5:1.0 6:0.0 7:0.0 
1.0 1:1.0 2:0.0 3:0.0 4:0.0 5:1.0 6:0.0 7:0.0 
1.0 1:2.0 2:0.0 3:0.0 4:0.0 5:2.0 6:0.0 7:0.0 
1.0 1:1.0 2:0.0 3:0.0 4:0.0 5:1.0 6:0.0 7:0.0 
1.0 1:2.0 2:0.0 3:0.0 4:0.0 5:2.0 6:0.0 7:0.0 
1.0 1:1.0 2:0.0 3:0.0 4:0.0 5:1.0 6:0.0 7:0.0 
1.0 1:1.0 2:0.0 3:0.0 4:0.0 5:1.0 6:0.0 7:0.0 
1.0 1:1.0 2:0.0 3:0.0 4:0.0 5:1.0 6:0.0 7:0.0 
1.0 1:1.0 2:0.0 3:0.0 4:0.0 5:1.0 6:0.0 7:0.0 
1.0 1:1.0 2:0.0 3:0.0 4:0.0 5:1.0 6:0.0 7:0.0 
1.0 1:1.0 2:0.0 3:0.0 4:0.0 5:1.0 6:0.0 7:0.0 
1.0 1:2.0 2:0.0 3:0.0 4:0.0 5:2.0 6:0.0 7:0.0 
1.0 1:1.0 2:0.0 3:0.0 4:0.0 5:1.0 6:0.0 7:0.0 
1.0 1:1.0 2:0.0 3:0.0 4:0.0 5:1.0 6:0.0 7:0.0 
1.0 1:3.0 2:0.0 3:0.0 4:0.0 5:3.0 6:0.0 7:0.0 
1.0 1:1.0 2:0.0 3:0.0 4:0.0 5:1.0 6:0.0 7:0.0 
1.0 1:1.0 2:0.0 3:0.0 4:0.0 5:1.0 6:0.0 7:0.0 
1.0 1:1.0 2:0.0 3:0.0 4:0.0 5:1.0 6:0.0 7:0.0 
1.0 1:1.0 2:0.0 3:0.0 4:0.0 5:1.0 6:0.0 7:0.0 
1.0 1:2.0 2:0.0 3:0.0 4:0.0 5:2.0 6:0.0 7:0.0 
1.0 1:2.0 2:0.0 3:0.0 4:0.0 5:2.0 6:0.0 7:0.0 
1.0 1:1.0 2:0.0 3:0.0 4:0.0 5:1.0 6:0.0 7:0.0 
1.0 1:1.0 2:0.0 3:0.0 4:0.0 5:1.0 6:0.0 7:0.0 
1.0 1:2.0 2:0.0 3:0.0 4:0.0 5:2.0 6:0.0 7:0.0 
1.0 1:1.0 2:0.0 3:0.0 4:0.0 5:1.0 6:0.0 7:0.0 
1.0 1:1.0 2:0.0 3:0.0 4:0.0 5:1.0 6:0.0 7:0.0 
1.0 1:1.0 2:0.0 3:0.0 4:0.0 5:1.0 6:0.0 7:0.0 
1.0 1:1.0 2:0.0 3:0.0 4:0.0 5:1.0 6:0.0 7:0.0 
1.0 1:1.0 2:0.0 3:0.0 4:0.0 5:1.0 6:0.0 7:0.0 
1.0 1:7.0 2:0.0 3:0.0 4:0.0 5:7.0 6:0.0 7:0.0 
1.0 1:2.0 2:0.0 3:0.0 4:0.0 5:2.0 6:0.0 7:0.0 
1.0 1:1.0 2:0.0 3:0.0 4:0.0 5:1.0 6:0.0 7:0.0 
1.0 1:1.0 2:0.0 3:0.0 4:0.0 5:1.0 6:0.0 7:0.0 
1.0 1:3.0 2:0.0 3:0.0 4:0.0 5:3.0 6:0.0 7:0.0 
1.0 1:1.0 2:0.0 3:0.0 4:0.0 5:1.0 6:0.0 7:0.0 
1.0 1:1.0 2:0.0 3:0.0 4:0.0 5:1.0 6:0.0 7:0.0 
1.0 1:1.0 2:0.0 3:0.0 4:0.0 5:1.0 6:0.0 7:0.0 
1.0 1:1.0 2:0.0 3:0.0 4:0.0 5:1.0 6:0.0 7:0.0 
1.0 1:2.0 2:0.0 3:0.0 4:0.0 5:2.0 6:0.0 7:0.0 
1.0 1:1.0 2:0.0 3:0.0 4:0.0 5:1.0 6:0.0 7:0.0 
1.0 1:1.0 2:0.0 3:0.0 4:0.0 5:1.0 6:0.0 7:0.0 
1.0 1:1.0 2:0.0 3:0.0 4:0.0 5:1.0 6:0.0 7:0.0 
1.0 1:1.0 2:0.0 3:0.0 4:0.0 5:1.0 6:0.0 7:0.0 
1.0 1:1.0 2:0.0 3:0.0 4:0.0 5:1.0 6:0.0 7:0.0 
1.0 1:1.0 2:0.0 3:0.0 4:0.0 5:1.0 6:0.0 7:0.0 
1.0 1:2.0 2:0.0 3:0.0 4:0.0 5:2.0 6:0.0 7:0.0 
1.0 1:1.0 2:0.0 3:0.0 4:0.0 5:1.0 6:0.0 7:0.0 
1.0 1:1.0 2:0.0 3:0.0 4:0.0 5:1.0 6:0.0 7:0.0 
1.0 1:1.0 2:0.0 3:0.0 4:0.0 5:1.0 6:0.0 7:0.0 
1.0 1:1.0 2:0.0 3:0.0 4:0.0 5:1.0 6:0.0 7:0.0 
1.0 1:1.0 2:0.0 3:0.0 4:0.0 5:1.0 6:0.0 7:0.0 
1.0 1:2.0 2:0.0 3:0.0 4:0.0 5:2.0 6:0.0 7:0.0 
1.0 1:1.0 2:0.0 3:0.0 4:0.0 5:1.0 6:0.0 7:0.0 
1.0 1:1.0 2:0.0 3:0.0 4:0.0 5:1.0 6:0.0 7:0.0 
1.0 1:1.0 2:0.0 3:0.0 4:0.0 5:1.0 6:0.0 7:0.0 
1.0 1:1.0 2:0.0 3:0.0 4:0.0 5:1.0 6:0.0 7:0.0 
1.0 1:2.0 2:0.0 3:0.0 4:0.0 5:2.0 6:0.0 7:0.0 
1.0 1:1.0 2:0.0 3:0.0 4:0.0 5:1.0 6:0.0 7:0.0 
1.0 1:1.0 2:0.0 3:0.0 4:0.0 5:1.0 6:0.0 7:0.0 
1.0 1:2.0 2:0.0 3:0.0 4:0.0 5:2.0 6:0.0 7:0.0 
1.0 1:1.0 2:0.0 3:0.0 4:0.0 5:1.0 6:0.0 7:0.0 
1.0 1:1.0 2:0.0 3:0.0 4:0.0 5:1.0 6:0.0 7:0.0 
1.0 1:1.0 2:0.0 3:0.0 4:0.0 5:1.0 6:0.0 7:0.0 
1.0 1:1.0 2:0.0 3:0.0 4:0.0 5:1.0 6:0.0 7:0.0 
1.0 1:1.0 2:0.0 3:0.0 4:0.0 5:1.0 6:0.0 7:0.0 
1.0 1:1.0 2:0.0 3:0.0 4:0.0 5:1.0 6:0.0 7:0.0 
1.0 1:2.0 2:0.0 3:0.0 4:0.0 5:2.0 6:0.0 7:0.0 
1.0 1:1.0 2:0.0 3:0.0 4:0.0 5:1.0 6:0.0 7:0.0 
1.0 1:1.0 2:0.0 3:0.0 4:0.0 5:1.0 6:0.0 7:0.0 
1.0 1:3.0 2:0.0 3:0.0 4:0.0 5:3.0 6:0.0 7:0.0 
1.0 1:1.0 2:0.0 3:0.0 4:0.0 5:1.0 6:0.0 7:0.0 
1.0 1:2.0 2:0.0 3:0.0 4:0.0 5:2.0 6:0.0 7:0.0 
1.0 1:1.0 2:0.0 3:0.0 4:0.0 5:1.0 6:0.0 7:0.0 
1.0 1:2.0 2:0.0 3:1.0 4:0.0 5:2.0 6:1.0 7:0.0 
1.0 1:2.0 2:0.0 3:0.0 4:0.0 5:2.0 6:0.0 7:0.0 
1.0 1:1.0 2:0.0 3:0.0 4:0.0 5:1.0 6:0.0 7:0.0 
1.0 1:2.0 2:0.0 3:0.0 4:0.0 5:2.0 6:0.0 7:0.0 
1.0 1:1.0 2:0.0 3:0.0 4:0.0 5:1.0 6:0.0 7:0.0 
1.0 1:1.0 2:0.0 3:0.0 4:0.0 5:1.0 6:0.0 7:0.0 
1.0 1:1.0 2:0.0 3:0.0 4:0.0 5:1.0 6:0.0 7:0.0 
1.0 1:26.0 2:0.0 3:0.0 4:0.0 5:26.0 6:0.0 7:0.0 
1.0 1:1.0 2:0.0 3:0.0 4:0.0 5:1.0 6:0.0 7:0.0 
1.0 1:2.0 2:0.0 3:0.0 4:0.0 5:2.0 6:0.0 7:0.0 
1.0 1:2.0 2:0.0 3:0.0 4:0.0 5:2.0 6:0.0 7:0.0 
1.0 1:3.0 2:0.0 3:0.0 4:0.0 5:3.0 6:0.0 7:0.0 
1.0 1:2.0 2:0.0 3:0.0 4:0.0 5:2.0 6:0.0 7:0.0 
1.0 1:3.0 2:0.0 3:0.0 4:0.0 5:3.0 6:0.0 7:0.0 
1.0 1:1.0 2:0.0 3:0.0 4:0.0 5:1.0 6:0.0 7:0.0 
1.0 1:1.0 2:0.0 3:0.0 4:0.0 5:1.0 6:0.0 7:0.0 
1.0 1:1.0 2:0.0 3:0.0 4:0.0 5:1.0 6:0.0 7:0.0 
1.0 1:2.0 2:0.0 3:0.0 4:0.0 5:2.0 6:0.0 7:0.0 
1.0 1:1.0 2:0.0 3:0.0 4:0.0 5:1.0 6:0.0 7:0.0 
1.0 1:1.0 2:0.0 3:0.0 4:0.0 5:1.0 6:0.0 7:0.0 
1.0 1:1.0 2:0.0 3:0.0 4:0.0 5:1.0 6:0.0 7:0.0 
1.0 1:1.0 2:0.0 3:0.0 4:0.0 5:1.0 6:0.0 7:0.0 
1.0 1:1.0 2:0.0 3:0.0 4:0.0 5:1.0 6:0.0 7:0.0 
1.0 1:1.0 2:0.0 3:0.0 4:0.0 5:1.0 6:0.0 7:0.0 
1.0 1:1.0 2:0.0 3:0.0 4:0.0 5:1.0 6:0.0 7:0.0 
1.0 1:2.0 2:0.0 3:1.0 4:0.0 5:2.0 6:1.0 7:0.0 
1.0 1:1.0 2:0.0 3:0.0 4:0.0 5:1.0 6:0.0 7:0.0 
1.0 1:1.0 2:0.0 3:0.0 4:0.0 5:1.0 6:0.0 7:0.0 
0.36809419697002344 1:14.0 2:0.0 3:0.0 4:0.0 5:14.0 6:0.0 7:0.0 
1.0 1:1.0 2:0.0 3:0.0 4:0.0 5:1.0 6:0.0 7:0.0 
1.0 1:1.0 2:0.0 3:0.0 4:0.0 5:1.0 6:0.0 7:0.0 
1.0 1:1.0 2:0.0 3:0.0 4:0.0 5:1.0 6:0.0 7:0.0 
1.0 1:1.0 2:0.0 3:0.0 4:0.0 5:1.0 6:0.0 7:0.0 
1.0 1:2.0 2:0.0 3:0.0 4:0.0 5:2.0 6:0.0 7:0.0 
1.0 1:1.0 2:0.0 3:0.0 4:0.0 5:1.0 6:0.0 7:0.0 
1.0 1:1.0 2:0.0 3:0.0 4:0.0 5:1.0 6:0.0 7:0.0 
1.0 1:1.0 2:0.0 3:0.0 4:0.0 5:1.0 6:0.0 7:0.0 
1.0 1:1.0 2:0.0 3:0.0 4:0.0 5:1.0 6:0.0 7:0.0 
1.0 1:2.0 2:0.0 3:0.0 4:0.0 5:2.0 6:0.0 7:0.0 
1.0 1:1.0 2:0.0 3:0.0 4:0.0 5:1.0 6:0.0 7:0.0 
1.0 1:2.0 2:0.0 3:0.0 4:0.0 5:2.0 6:0.0 7:0.0 
1.0 1:1.0 2:0.0 3:0.0 4:0.0 5:1.0 6:0.0 7:0.0 
1.0 1:2.0 2:0.0 3:0.0 4:0.0 5:2.0 6:0.0 7:0.0 
1.0 1:1.0 2:0.0 3:0.0 4:0.0 5:1.0 6:0.0 7:0.0 
1.0 1:2.0 2:0.0 3:0.0 4:0.0 5:2.0 6:0.0 7:0.0 
1.0 1:1.0 2:0.0 3:0.0 4:0.0 5:1.0 6:0.0 7:0.0 
1.0 1:2.0 2:0.0 3:0.0 4:0.0 5:2.0 6:0.0 7:0.0 
1.0 1:1.0 2:0.0 3:0.0 4:0.0 5:1.0 6:0.0 7:0.0 
0.001830061516674838 1:17.0 2:0.0 3:0.0 4:0.0 5:17.0 6:0.0 7:0.0 
1.0 1:1.0 2:0.0 3:0.0 4:0.0 5:1.0 6:0.0 7:0.0 
1.0 1:1.0 2:0.0 3:0.0 4:0.0 5:1.0 6:0.0 7:0.0 
1.0 1:3.0 2:0.0 3:0.0 4:0.0 5:3.0 6:0.0 7:0.0 
1.0 1:2.0 2:0.0 3:0.0 4:0.0 5:2.0 6:0.0 7:0.0 
1.0 1:1.0 2:0.0 3:0.0 4:0.0 5:1.0 6:0.0 7:0.0 
1.0 1:1.0 2:0.0 3:0.0 4:0.0 5:1.0 6:0.0 7:0.0 
1.0 1:2.0 2:0.0 3:0.0 4:0.0 5:2.0 6:0.0 7:0.0 
1.0 1:2.0 2:0.0 3:0.0 4:0.0 5:2.0 6:0.0 7:0.0 
1.0 1:1.0 2:0.0 3:0.0 4:0.0 5:1.0 6:0.0 7:0.0 
1.0 1:1.0 2:0.0 3:0.0 4:0.0 5:1.0 6:0.0 7:0.0 
1.0 1:1.0 2:0.0 3:0.0 4:0.0 5:1.0 6:0.0 7:0.0 
1.0 1:2.0 2:0.0 3:0.0 4:0.0 5:2.0 6:0.0 7:0.0 
1.0 1:1.0 2:0.0 3:0.0 4:0.0 5:1.0 6:0.0 7:0.0 
1.0 1:1.0 2:0.0 3:0.0 4:0.0 5:1.0 6:0.0 7:0.0 
1.0 1:1.0 2:0.0 3:0.0 4:0.0 5:1.0 6:0.0 7:0.0 
1.0 1:1.0 2:0.0 3:0.0 4:0.0 5:1.0 6:0.0 7:0.0 
1.0 1:2.0 2:0.0 3:0.0 4:0.0 5:2.0 6:0.0 7:0.0 
1.0 1:3.0 2:0.0 3:0.0 4:0.0 5:3.0 6:0.0 7:0.0 
1.0 1:2.0 2:0.0 3:0.0 4:0.0 5:2.0 6:0.0 7:0.0 
1.0 1:2.0 2:0.0 3:0.0 4:0.0 5:2.0 6:0.0 7:0.0 
1.0 1:1.0 2:0.0 3:0.0 4:0.0 5:1.0 6:0.0 7:0.0 
1.0 1:1.0 2:0.0 3:0.0 4:0.0 5:1.0 6:0.0 7:0.0 
1.0 1:1.0 2:0.0 3:0.0 4:0.0 5:1.0 6:0.0 7:0.0 
1.0 1:1.0 2:0.0 3:0.0 4:0.0 5:1.0 6:0.0 7:0.0 
1.0 1:1.0 2:0.0 3:0.0 4:0.0 5:1.0 6:0.0 7:0.0 
1.0 1:1.0 2:0.0 3:0.0 4:0.0 5:1.0 6:0.0 7:0.0 
1.0 1:1.0 2:0.0 3:0.0 4:0.0 5:1.0 6:0.0 7:0.0 
1.0 1:1.0 2:0.0 3:0.0 4:0.0 5:1.0 6:0.0 7:0.0 
1.0 1:1.0 2:0.0 3:0.0 4:0.0 5:1.0 6:0.0 7:0.0 
1.0 1:2.0 2:0.0 3:0.0 4:0.0 5:2.0 6:0.0 7:0.0 
1.0 1:1.0 2:0.0 3:0.0 4:0.0 5:1.0 6:0.0 7:0.0 
1.0 1:1.0 2:0.0 3:0.0 4:0.0 5:1.0 6:0.0 7:0.0 
1.0 1:1.0 2:0.0 3:0.0 4:0.0 5:1.0 6:0.0 7:0.0 
1.0 1:2.0 2:0.0 3:0.0 4:0.0 5:2.0 6:0.0 7:0.0 
1.0 1:1.0 2:0.0 3:0.0 4:0.0 5:1.0 6:0.0 7:0.0 
1.0 1:1.0 2:0.0 3:0.0 4:0.0 5:1.0 6:0.0 7:0.0 
1.0 1:1.0 2:0.0 3:0.0 4:0.0 5:1.0 6:0.0 7:0.0 
1.0 1:1.0 2:0.0 3:0.0 4:0.0 5:1.0 6:0.0 7:0.0 
1.0 1:1.0 2:0.0 3:0.0 4:0.0 5:1.0 6:0.0 7:0.0 
1.0 1:1.0 2:0.0 3:0.0 4:0.0 5:1.0 6:0.0 7:0.0 
1.0 1:1.0 2:0.0 3:0.0 4:0.0 5:1.0 6:0.0 7:0.0 
1.0 1:1.0 2:0.0 3:0.0 4:0.0 5:1.0 6:0.0 7:0.0 
1.0 1:1.0 2:0.0 3:0.0 4:0.0 5:1.0 6:0.0 7:0.0 
1.0 1:3.0 2:0.0 3:0.0 4:0.0 5:3.0 6:0.0 7:0.0 
1.0 1:1.0 2:0.0 3:0.0 4:0.0 5:1.0 6:0.0 7:0.0 
1.0 1:3.0 2:0.0 3:0.0 4:0.0 5:3.0 6:0.0 7:0.0 
1.0 1:1.0 2:0.0 3:0.0 4:0.0 5:1.0 6:0.0 7:0.0 
1.0 1:1.0 2:0.0 3:0.0 4:0.0 5:1.0 6:0.0 7:0.0 
1.0 1:1.0 2:0.0 3:0.0 4:0.0 5:1.0 6:0.0 7:0.0 
1.0 1:1.0 2:0.0 3:0.0 4:0.0 5:1.0 6:0.0 7:0.0 
1.0 1:1.0 2:0.0 3:0.0 4:0.0 5:1.0 6:0.0 7:0.0 
1.0 1:1.0 2:0.0 3:0.0 4:0.0 5:1.0 6:0.0 7:0.0 
1.0 1:1.0 2:0.0 3:0.0 4:0.0 5:1.0 6:0.0 7:0.0 
1.0 1:1.0 2:0.0 3:0.0 4:0.0 5:1.0 6:0.0 7:0.0 
1.0 1:1.0 2:0.0 3:0.0 4:0.0 5:1.0 6:0.0 7:0.0 
1.0 1:1.0 2:0.0 3:0.0 4:0.0 5:1.0 6:0.0 7:0.0 
1.0 1:1.0 2:0.0 3:0.0 4:0.0 5:1.0 6:0.0 7:0.0 
1.0 1:1.0 2:0.0 3:0.0 4:0.0 5:1.0 6:0.0 7:0.0 
1.0 1:1.0 2:0.0 3:0.0 4:0.0 5:1.0 6:0.0 7:0.0 
1.0 1:2.0 2:0.0 3:0.0 4:0.0 5:2.0 6:0.0 7:0.0 
1.0 1:1.0 2:0.0 3:0.0 4:0.0 5:1.0 6:0.0 7:0.0 
1.0 1:3.0 2:0.0 3:0.0 4:0.0 5:3.0 6:0.0 7:0.0 
1.0 1:3.0 2:0.0 3:0.0 4:0.0 5:3.0 6:0.0 7:0.0 
1.0 1:1.0 2:0.0 3:0.0 4:0.0 5:1.0 6:0.0 7:0.0 
1.0 1:1.0 2:0.0 3:0.0 4:0.0 5:1.0 6:0.0 7:0.0 
1.0 1:3.0 2:0.0 3:0.0 4:0.0 5:3.0 6:0.0 7:0.0 
1.0 1:5.0 2:0.0 3:0.0 4:0.0 5:5.0 6:0.0 7:0.0 
1.0 1:1.0 2:0.0 3:0.0 4:0.0 5:1.0 6:0.0 7:0.0 
1.0 1:1.0 2:0.0 3:0.0 4:0.0 5:1.0 6:0.0 7:0.0 
1.0 1:1.0 2:0.0 3:0.0 4:0.0 5:1.0 6:0.0 7:0.0 
1.0 1:1.0 2:0.0 3:0.0 4:0.0 5:1.0 6:0.0 7:0.0 
1.0 1:9.0 2:0.0 3:0.0 4:0.0 5:9.0 6:0.0 7:0.0 
1.0 1:1.0 2:0.0 3:0.0 4:0.0 5:1.0 6:0.0 7:0.0 
1.0 1:2.0 2:0.0 3:0.0 4:0.0 5:2.0 6:0.0 7:0.0 
1.0 1:1.0 2:0.0 3:0.0 4:0.0 5:1.0 6:0.0 7:0.0 
1.0 1:1.0 2:0.0 3:0.0 4:0.0 5:1.0 6:0.0 7:0.0 
1.0 1:1.0 2:0.0 3:0.0 4:0.0 5:1.0 6:0.0 7:0.0 
1.0 1:1.0 2:0.0 3:0.0 4:0.0 5:1.0 6:0.0 7:0.0 
1.0 1:1.0 2:0.0 3:0.0 4:0.0 5:1.0 6:0.0 7:0.0 
1.0 1:1.0 2:0.0 3:0.0 4:0.0 5:1.0 6:0.0 7:0.0 
1.0 1:2.0 2:0.0 3:0.0 4:0.0 5:2.0 6:0.0 7:0.0 
1.0 1:2.0 2:0.0 3:0.0 4:0.0 5:2.0 6:0.0 7:0.0 
1.0 1:3.0 2:0.0 3:0.0 4:0.0 5:3.0 6:0.0 7:0.0 
1.0 1:2.0 2:0.0 3:0.0 4:0.0 5:2.0 6:0.0 7:0.0 
1.0 1:1.0 2:0.0 3:0.0 4:0.0 5:1.0 6:0.0 7:0.0 
1.0 1:1.0 2:0.0 3:0.0 4:0.0 5:1.0 6:0.0 7:0.0 
1.0 1:2.0 2:0.0 3:0.0 4:0.0 5:2.0 6:0.0 7:0.0 
1.0 1:7.0 2:0.0 3:0.0 4:0.0 5:7.0 6:0.0 7:0.0 
1.0 1:1.0 2:0.0 3:0.0 4:0.0 5:1.0 6:0.0 7:0.0 
1.0 1:1.0 2:0.0 3:0.0 4:0.0 5:1.0 6:0.0 7:0.0 
1.0 1:1.0 2:0.0 3:0.0 4:0.0 5:1.0 6:0.0 7:0.0 
1.0 1:2.0 2:0.0 3:1.0 4:0.0 5:2.0 6:1.0 7:0.0 
1.0 1:2.0 2:0.0 3:0.0 4:0.0 5:2.0 6:0.0 7:0.0 
1.0 1:1.0 2:0.0 3:0.0 4:0.0 5:1.0 6:0.0 7:0.0 
1.0 1:1.0 2:0.0 3:0.0 4:0.0 5:1.0 6:0.0 7:0.0 
1.0 1:1.0 2:0.0 3:0.0 4:0.0 5:1.0 6:0.0 7:0.0 
1.0 1:1.0 2:0.0 3:0.0 4:0.0 5:1.0 6:0.0 7:0.0 
1.0 1:5.0 2:0.0 3:0.0 4:0.0 5:5.0 6:0.0 7:0.0 
1.0 1:1.0 2:0.0 3:0.0 4:0.0 5:1.0 6:0.0 7:0.0 
1.0 1:1.0 2:0.0 3:0.0 4:0.0 5:1.0 6:0.0 7:0.0 
1.0 1:2.0 2:0.0 3:0.0 4:0.0 5:2.0 6:0.0 7:0.0 
1.0 1:1.0 2:0.0 3:0.0 4:0.0 5:1.0 6:0.0 7:0.0 
1.0 1:1.0 2:0.0 3:0.0 4:0.0 5:1.0 6:0.0 7:0.0 
1.0 1:1.0 2:0.0 3:0.0 4:0.0 5:1.0 6:0.0 7:0.0 
1.0 1:1.0 2:0.0 3:0.0 4:0.0 5:1.0 6:0.0 7:0.0 
1.0 1:1.0 2:0.0 3:0.0 4:0.0 5:1.0 6:0.0 7:0.0 
1.0 1:1.0 2:0.0 3:0.0 4:0.0 5:1.0 6:0.0 7:0.0 
0.09692861110748383 1:2.0 2:0.0 3:0.0 4:0.0 5:2.0 6:0.0 7:0.0 
1.0 1:1.0 2:0.0 3:0.0 4:0.0 5:1.0 6:0.0 7:0.0 
1.0 1:1.0 2:0.0 3:0.0 4:0.0 5:1.0 6:0.0 7:0.0 
1.0 1:1.0 2:0.0 3:0.0 4:0.0 5:1.0 6:0.0 7:0.0 
1.0 1:1.0 2:0.0 3:0.0 4:0.0 5:1.0 6:0.0 7:0.0 
1.0 1:1.0 2:0.0 3:0.0 4:0.0 5:1.0 6:0.0 7:0.0 
1.0 1:1.0 2:0.0 3:0.0 4:0.0 5:1.0 6:0.0 7:0.0 
1.0 1:1.0 2:0.0 3:0.0 4:0.0 5:1.0 6:0.0 7:0.0 
1.0 1:1.0 2:0.0 3:0.0 4:0.0 5:1.0 6:0.0 7:0.0 
1.0 1:1.0 2:0.0 3:0.0 4:0.0 5:1.0 6:0.0 7:0.0 
1.0 1:1.0 2:0.0 3:0.0 4:0.0 5:1.0 6:0.0 7:0.0 
1.0 1:1.0 2:0.0 3:0.0 4:0.0 5:1.0 6:0.0 7:0.0 
1.0 1:1.0 2:0.0 3:0.0 4:0.0 5:1.0 6:0.0 7:0.0 
1.0 1:1.0 2:0.0 3:0.0 4:0.0 5:1.0 6:0.0 7:0.0 
1.0 1:1.0 2:0.0 3:0.0 4:0.0 5:1.0 6:0.0 7:0.0 
1.0 1:1.0 2:0.0 3:0.0 4:0.0 5:1.0 6:0.0 7:0.0 
1.0 1:1.0 2:0.0 3:0.0 4:0.0 5:1.0 6:0.0 7:0.0 
1.0 1:1.0 2:0.0 3:0.0 4:0.0 5:1.0 6:0.0 7:0.0 
1.0 1:1.0 2:0.0 3:0.0 4:0.0 5:1.0 6:0.0 7:0.0 
1.0 1:1.0 2:0.0 3:0.0 4:0.0 5:1.0 6:0.0 7:0.0 
1.0 1:1.0 2:0.0 3:0.0 4:0.0 5:1.0 6:0.0 7:0.0 
1.0 1:1.0 2:0.0 3:0.0 4:0.0 5:1.0 6:0.0 7:0.0 
1.0 1:1.0 2:0.0 3:0.0 4:0.0 5:1.0 6:0.0 7:0.0 
1.0 1:3.0 2:0.0 3:0.0 4:0.0 5:3.0 6:0.0 7:0.0 
1.0 1:1.0 2:0.0 3:0.0 4:0.0 5:1.0 6:0.0 7:0.0 
1.0 1:1.0 2:0.0 3:0.0 4:0.0 5:1.0 6:0.0 7:0.0 
1.0 1:1.0 2:0.0 3:0.0 4:0.0 5:1.0 6:0.0 7:0.0 
1.0 1:1.0 2:0.0 3:0.0 4:0.0 5:1.0 6:0.0 7:0.0 
1.0 1:1.0 2:0.0 3:0.0 4:0.0 5:1.0 6:0.0 7:0.0 
1.0 1:1.0 2:0.0 3:0.0 4:0.0 5:1.0 6:0.0 7:0.0 
1.0 1:1.0 2:0.0 3:0.0 4:0.0 5:1.0 6:0.0 7:0.0 
1.0 1:1.0 2:0.0 3:0.0 4:0.0 5:1.0 6:0.0 7:0.0 
1.0 1:1.0 2:0.0 3:0.0 4:0.0 5:1.0 6:0.0 7:0.0 
1.0 1:3.0 2:0.0 3:0.0 4:0.0 5:3.0 6:0.0 7:0.0 
1.0 1:1.0 2:0.0 3:0.0 4:0.0 5:1.0 6:0.0 7:0.0 
1.0 1:1.0 2:0.0 3:0.0 4:0.0 5:1.0 6:0.0 7:0.0 
1.0 1:1.0 2:0.0 3:0.0 4:0.0 5:1.0 6:0.0 7:0.0 
1.0 1:1.0 2:0.0 3:0.0 4:0.0 5:1.0 6:0.0 7:0.0 
1.0 1:1.0 2:0.0 3:0.0 4:0.0 5:1.0 6:0.0 7:0.0 
1.0 1:1.0 2:0.0 3:0.0 4:0.0 5:1.0 6:0.0 7:0.0 
1.0 1:1.0 2:0.0 3:0.0 4:0.0 5:1.0 6:0.0 7:0.0 
1.0 1:1.0 2:0.0 3:0.0 4:0.0 5:1.0 6:0.0 7:0.0 
1.0 1:1.0 2:0.0 3:0.0 4:0.0 5:1.0 6:0.0 7:0.0 
1.0 1:1.0 2:0.0 3:0.0 4:0.0 5:1.0 6:0.0 7:0.0 
1.0 1:1.0 2:0.0 3:0.0 4:0.0 5:1.0 6:0.0 7:0.0 
1.0 1:3.0 2:0.0 3:0.0 4:0.0 5:3.0 6:0.0 7:0.0 
1.0 1:1.0 2:0.0 3:0.0 4:0.0 5:1.0 6:0.0 7:0.0 
1.0 1:2.0 2:0.0 3:1.0 4:0.0 5:2.0 6:1.0 7:0.0 
1.0 1:1.0 2:0.0 3:0.0 4:0.0 5:1.0 6:0.0 7:0.0 
1.0 1:1.0 2:0.0 3:0.0 4:0.0 5:1.0 6:0.0 7:0.0 
1.0 1:1.0 2:0.0 3:0.0 4:0.0 5:1.0 6:0.0 7:0.0 
1.0 1:1.0 2:0.0 3:0.0 4:0.0 5:1.0 6:0.0 7:0.0 
1.0 1:1.0 2:0.0 3:0.0 4:0.0 5:1.0 6:0.0 7:0.0 
1.0 1:1.0 2:0.0 3:0.0 4:0.0 5:1.0 6:0.0 7:0.0 
1.0 1:1.0 2:0.0 3:0.0 4:0.0 5:1.0 6:0.0 7:0.0 
1.0 1:3.0 2:0.0 3:0.0 4:0.0 5:3.0 6:0.0 7:0.0 
1.0 1:1.0 2:0.0 3:0.0 4:0.0 5:1.0 6:0.0 7:0.0 
1.0 1:1.0 2:0.0 3:0.0 4:0.0 5:1.0 6:0.0 7:0.0 
1.0 1:7.0 2:0.0 3:0.0 4:0.0 5:7.0 6:0.0 7:0.0 
1.0 1:1.0 2:0.0 3:0.0 4:0.0 5:1.0 6:0.0 7:0.0 
1.0 1:5.0 2:0.0 3:0.0 4:0.0 5:5.0 6:0.0 7:0.0 
1.0 1:1.0 2:0.0 3:0.0 4:0.0 5:1.0 6:0.0 7:0.0 
1.0 1:1.0 2:0.0 3:0.0 4:0.0 5:1.0 6:0.0 7:0.0 
1.0 1:1.0 2:0.0 3:0.0 4:0.0 5:1.0 6:0.0 7:0.0 
1.0 1:1.0 2:0.0 3:0.0 4:0.0 5:1.0 6:0.0 7:0.0 
1.0 1:9.0 2:0.0 3:0.0 4:0.0 5:9.0 6:0.0 7:0.0 
1.0 1:1.0 2:0.0 3:0.0 4:0.0 5:1.0 6:0.0 7:0.0 
1.0 1:1.0 2:0.0 3:0.0 4:0.0 5:1.0 6:0.0 7:0.0 
1.0 1:1.0 2:0.0 3:0.0 4:0.0 5:1.0 6:0.0 7:0.0 
1.0 1:1.0 2:0.0 3:0.0 4:0.0 5:1.0 6:0.0 7:0.0 
1.0 1:1.0 2:0.0 3:0.0 4:0.0 5:1.0 6:0.0 7:0.0 
1.0 1:1.0 2:0.0 3:0.0 4:0.0 5:1.0 6:0.0 7:0.0 
1.0 1:1.0 2:0.0 3:0.0 4:0.0 5:1.0 6:0.0 7:0.0 
1.0 1:1.0 2:0.0 3:0.0 4:0.0 5:1.0 6:0.0 7:0.0 
1.0 1:1.0 2:0.0 3:0.0 4:0.0 5:1.0 6:0.0 7:0.0 
1.0 1:1.0 2:0.0 3:0.0 4:0.0 5:1.0 6:0.0 7:0.0 
1.0 1:1.0 2:0.0 3:0.0 4:0.0 5:1.0 6:0.0 7:0.0 
1.0 1:1.0 2:0.0 3:0.0 4:0.0 5:1.0 6:0.0 7:0.0 
1.0 1:1.0 2:0.0 3:0.0 4:0.0 5:1.0 6:0.0 7:0.0 
1.0 1:9.0 2:0.0 3:0.0 4:0.0 5:9.0 6:0.0 7:0.0 
1.0 1:1.0 2:0.0 3:0.0 4:0.0 5:1.0 6:0.0 7:0.0 
1.0 1:1.0 2:0.0 3:0.0 4:0.0 5:1.0 6:0.0 7:0.0 
1.0 1:1.0 2:0.0 3:0.0 4:0.0 5:1.0 6:0.0 7:0.0 
1.0 1:1.0 2:0.0 3:0.0 4:0.0 5:1.0 6:0.0 7:0.0 
1.0 1:1.0 2:0.0 3:0.0 4:0.0 5:1.0 6:0.0 7:0.0 
1.0 1:1.0 2:0.0 3:0.0 4:0.0 5:1.0 6:0.0 7:0.0 
1.0 1:1.0 2:0.0 3:0.0 4:0.0 5:1.0 6:0.0 7:0.0 
1.0 1:1.0 2:0.0 3:0.0 4:0.0 5:1.0 6:0.0 7:0.0 
1.0 1:1.0 2:0.0 3:0.0 4:0.0 5:1.0 6:0.0 7:0.0 
1.0 1:1.0 2:0.0 3:0.0 4:0.0 5:1.0 6:0.0 7:0.0 
1.0 1:1.0 2:0.0 3:0.0 4:0.0 5:1.0 6:0.0 7:0.0 
1.0 1:1.0 2:0.0 3:0.0 4:0.0 5:1.0 6:0.0 7:0.0 
1.0 1:1.0 2:0.0 3:0.0 4:0.0 5:1.0 6:0.0 7:0.0 
1.0 1:1.0 2:0.0 3:0.0 4:0.0 5:1.0 6:0.0 7:0.0 
1.0 1:5.0 2:0.0 3:0.0 4:0.0 5:5.0 6:0.0 7:0.0 
0.925894049978114 1:10.0 2:0.0 3:2.0 4:0.0 5:10.0 6:2.0 7:0.0 
1.0 1:1.0 2:0.0 3:0.0 4:0.0 5:1.0 6:0.0 7:0.0 
1.0 1:1.0 2:0.0 3:0.0 4:0.0 5:1.0 6:0.0 7:0.0 
1.0 1:1.0 2:0.0 3:0.0 4:0.0 5:1.0 6:0.0 7:0.0 
1.0 1:3.0 2:0.0 3:0.0 4:0.0 5:3.0 6:0.0 7:0.0 
1.0 1:1.0 2:0.0 3:0.0 4:0.0 5:1.0 6:0.0 7:0.0 
1.0 1:1.0 2:0.0 3:0.0 4:0.0 5:1.0 6:0.0 7:0.0 
1.0 1:7.0 2:0.0 3:0.0 4:0.0 5:7.0 6:0.0 7:0.0 
1.0 1:1.0 2:0.0 3:0.0 4:0.0 5:1.0 6:0.0 7:0.0 
1.0 1:1.0 2:0.0 3:0.0 4:0.0 5:1.0 6:0.0 7:0.0 
1.0 1:3.0 2:0.0 3:0.0 4:0.0 5:3.0 6:0.0 7:0.0 
1.0 1:1.0 2:0.0 3:0.0 4:0.0 5:1.0 6:0.0 7:0.0 
1.0 1:1.0 2:0.0 3:0.0 4:0.0 5:1.0 6:0.0 7:0.0 
1.0 1:1.0 2:0.0 3:0.0 4:0.0 5:1.0 6:0.0 7:0.0 
1.0 1:1.0 2:0.0 3:0.0 4:0.0 5:1.0 6:0.0 7:0.0 
1.0 1:1.0 2:0.0 3:0.0 4:0.0 5:1.0 6:0.0 7:0.0 
1.0 1:1.0 2:0.0 3:0.0 4:0.0 5:1.0 6:0.0 7:0.0 
1.0 1:1.0 2:0.0 3:0.0 4:0.0 5:1.0 6:0.0 7:0.0 
1.0 1:1.0 2:0.0 3:0.0 4:0.0 5:1.0 6:0.0 7:0.0 
1.0 1:1.0 2:0.0 3:0.0 4:0.0 5:1.0 6:0.0 7:0.0 
1.0 1:1.0 2:0.0 3:0.0 4:0.0 5:1.0 6:0.0 7:0.0 
1.0 1:1.0 2:0.0 3:0.0 4:0.0 5:1.0 6:0.0 7:0.0 
1.0 1:3.0 2:0.0 3:0.0 4:0.0 5:3.0 6:0.0 7:0.0 
1.0 1:1.0 2:0.0 3:0.0 4:0.0 5:1.0 6:0.0 7:0.0 
1.0 1:1.0 2:0.0 3:0.0 4:0.0 5:1.0 6:0.0 7:0.0 
1.0 1:1.0 2:0.0 3:0.0 4:0.0 5:1.0 6:0.0 7:0.0 
1.0 1:1.0 2:0.0 3:0.0 4:0.0 5:1.0 6:0.0 7:0.0 
1.0 1:1.0 2:0.0 3:0.0 4:0.0 5:1.0 6:0.0 7:0.0 
1.0 1:1.0 2:0.0 3:0.0 4:0.0 5:1.0 6:0.0 7:0.0 
1.0 1:3.0 2:0.0 3:0.0 4:0.0 5:3.0 6:0.0 7:0.0 
1.0 1:3.0 2:0.0 3:0.0 4:0.0 5:3.0 6:0.0 7:0.0 
1.0 1:1.0 2:0.0 3:0.0 4:0.0 5:1.0 6:0.0 7:0.0 
1.0 1:1.0 2:0.0 3:0.0 4:0.0 5:1.0 6:0.0 7:0.0 
1.0 1:1.0 2:0.0 3:0.0 4:0.0 5:1.0 6:0.0 7:0.0 
1.0 1:3.0 2:0.0 3:0.0 4:0.0 5:3.0 6:0.0 7:0.0 
1.0 1:1.0 2:0.0 3:0.0 4:0.0 5:1.0 6:0.0 7:0.0 
1.0 1:5.0 2:0.0 3:0.0 4:0.0 5:5.0 6:0.0 7:0.0 
1.0 1:1.0 2:0.0 3:0.0 4:0.0 5:1.0 6:0.0 7:0.0 
1.0 1:1.0 2:0.0 3:0.0 4:0.0 5:1.0 6:0.0 7:0.0 
0.9701522322261303 1:26.0 2:0.0 3:0.0 4:0.0 5:26.0 6:0.0 7:0.0 
1.0 1:3.0 2:0.0 3:0.0 4:0.0 5:3.0 6:0.0 7:0.0 
1.0 1:1.0 2:0.0 3:0.0 4:0.0 5:1.0 6:0.0 7:0.0 
1.0 1:1.0 2:0.0 3:0.0 4:0.0 5:1.0 6:0.0 7:0.0 
1.0 1:1.0 2:0.0 3:0.0 4:0.0 5:1.0 6:0.0 7:0.0 
1.0 1:1.0 2:0.0 3:0.0 4:0.0 5:1.0 6:0.0 7:0.0 
1.0 1:1.0 2:0.0 3:0.0 4:0.0 5:1.0 6:0.0 7:0.0 
1.0 1:11.0 2:0.0 3:0.0 4:0.0 5:11.0 6:0.0 7:0.0 
1.0 1:3.0 2:0.0 3:0.0 4:0.0 5:3.0 6:0.0 7:0.0 
1.0 1:1.0 2:0.0 3:0.0 4:0.0 5:1.0 6:0.0 7:0.0 
1.0 1:1.0 2:0.0 3:0.0 4:0.0 5:1.0 6:0.0 7:0.0 
1.0 1:1.0 2:0.0 3:0.0 4:0.0 5:1.0 6:0.0 7:0.0 
1.0 1:1.0 2:0.0 3:0.0 4:0.0 5:1.0 6:0.0 7:0.0 
1.0 1:1.0 2:0.0 3:0.0 4:0.0 5:1.0 6:0.0 7:0.0 
1.0 1:1.0 2:0.0 3:0.0 4:0.0 5:1.0 6:0.0 7:0.0 
1.0 1:1.0 2:0.0 3:0.0 4:0.0 5:1.0 6:0.0 7:0.0 
1.0 1:1.0 2:0.0 3:0.0 4:0.0 5:1.0 6:0.0 7:0.0 
1.0 1:1.0 2:0.0 3:0.0 4:0.0 5:1.0 6:0.0 7:0.0 
1.0 1:1.0 2:0.0 3:0.0 4:0.0 5:1.0 6:0.0 7:0.0 
1.0 1:1.0 2:0.0 3:0.0 4:0.0 5:1.0 6:0.0 7:0.0 
-1.0 1:2.0 2:0.0 3:0.0 4:0.0 5:2.0 6:0.0 7:0.0 
-1.0 1:3.0 2:0.0 3:0.0 4:0.0 5:3.0 6:0.0 7:0.0 
-1.0 1:3.0 2:0.0 3:0.0 4:0.0 5:3.0 6:0.0 7:0.0 
-1.0 1:3.0 2:0.0 3:0.0 4:0.0 5:3.0 6:0.0 7:0.0 
-1.0 1:2.0 2:0.0 3:0.0 4:0.0 5:2.0 6:0.0 7:0.0 
-1.0 1:7.0 2:0.0 3:0.0 4:0.0 5:7.0 6:0.0 7:0.0 
-1.0 1:7.0 2:0.0 3:0.0 4:0.0 5:7.0 6:0.0 7:0.0 
-1.0 1:4.0 2:0.0 3:0.0 4:0.0 5:4.0 6:0.0 7:0.0 
-1.0 1:3.0 2:0.0 3:0.0 4:0.0 5:3.0 6:0.0 7:0.0 
-1.0 1:28.0 2:0.0 3:0.0 4:0.0 5:28.0 6:0.0 7:0.0 
-1.0 1:28.0 2:0.0 3:0.0 4:0.0 5:28.0 6:0.0 7:0.0 
-1.0 1:28.0 2:0.0 3:0.0 4:0.0 5:28.0 6:0.0 7:0.0 
-1.0 1:28.0 2:0.0 3:0.0 4:0.0 5:28.0 6:0.0 7:0.0 
-1.0 1:1.0 2:0.0 3:0.0 4:0.0 5:1.0 6:0.0 7:0.0 
-1.0 1:1.0 2:0.0 3:0.0 4:0.0 5:1.0 6:0.0 7:0.0 
-1.0 1:1.0 2:0.0 3:0.0 4:0.0 5:1.0 6:0.0 7:0.0 
-1.0 1:8.0 2:0.0 3:0.0 4:0.0 5:8.0 6:0.0 7:0.0 
-1.0 1:10.0 2:0.0 3:0.0 4:0.0 5:10.0 6:0.0 7:0.0 
-1.0 1:6.0 2:0.0 3:0.0 4:0.0 5:6.0 6:0.0 7:0.0 
