svm_type c_svc
kernel_type rbf
gamma 0.25
nr_class 2
total_sv 4230
rho 0.6416043997980035
label -1 1
nr_sv 2071 2159
SV
1.0 1:7.0 2:0.0 3:2.0 4:0.0 
0.19156956816532122 1:23.0 2:0.0 3:1.0 4:0.0 
1.0 1:76.0 2:0.0 3:0.0 4:0.0 
1.0 1:135.0 2:0.0 3:0.0 4:0.0 
0.8620508232572317 1:21.0 2:0.0 3:0.0 4:0.0 
1.0 1:132.0 2:0.0 3:0.0 4:0.0 
0.6861039601272416 1:10.0 2:0.0 3:0.0 4:2.0 
1.0 1:14.0 2:0.0 3:1.0 4:0.0 
1.0 1:28.0 2:0.0 3:0.0 4:0.0 
0.2813950921507729 1:29.0 2:0.0 3:1.0 4:0.0 
1.0 1:46.0 2:0.0 3:0.0 4:0.0 
1.0 1:32.0 2:0.0 3:2.0 4:0.0 
0.20604413047573522 1:10.0 2:0.0 3:2.0 4:0.0 
1.0 1:15.0 2:0.0 3:6.0 4:0.0 
1.0 1:70.0 2:0.0 3:2.0 4:0.0 
1.0 1:21.0 2:0.0 3:0.0 4:0.0 
1.0 1:36.0 2:0.0 3:0.0 4:0.0 
0.49449513947884094 1:53.0 2:0.0 3:0.0 4:0.0 
1.0 1:32.0 2:0.0 3:0.0 4:0.0 
1.0 1:60.0 2:0.0 3:0.0 4:0.0 
0.4242542279900649 1:13.0 2:0.0 3:5.0 4:0.0 
1.0 1:159.0 2:0.0 3:0.0 4:0.0 
1.0 1:21.0 2:0.0 3:0.0 4:0.0 
1.0 1:25.0 2:0.0 3:0.0 4:0.0 
1.0 1:49.0 2:0.0 3:0.0 4:0.0 
1.0 1:37.0 2:0.0 3:0.0 4:0.0 
1.0 1:21.0 2:0.0 3:0.0 4:0.0 
1.0 1:38.0 2:0.0 3:0.0 4:0.0 
1.0 1:25.0 2:0.0 3:0.0 4:0.0 
1.0 1:28.0 2:0.0 3:0.0 4:0.0 
0.8178648606752076 1:8.0 2:0.0 3:2.0 4:0.0 
1.0 1:16.0 2:0.0 3:0.0 4:1.0 
0.37642359861643204 1:1.0 2:0.0 3:3.0 4:0.0 
1.0 1:59.0 2:0.0 3:0.0 4:0.0 
1.0 1:32.0 2:0.0 3:0.0 4:0.0 
0.6580225904609305 1:29.0 2:0.0 3:0.0 4:0.0 
0.8399381229521055 1:0.0 2:0.0 3:0.0 4:1.0 
1.0 1:21.0 2:0.0 3:0.0 4:0.0 
1.0 1:0.0 2:0.0 3:0.0 4:1.0 
1.0 1:81.0 2:0.0 3:0.0 4:0.0 
1.0 1:21.0 2:0.0 3:0.0 4:0.0 
1.0 1:78.0 2:0.0 3:2.0 4:0.0 
1.0 1:44.0 2:0.0 3:0.0 4:0.0 
1.0 1:20.0 2:0.0 3:1.0 4:0.0 
1.0 1:31.0 2:0.0 3:1.0 4:0.0 
0.18537773473481503 1:48.0 2:0.0 3:0.0 4:0.0 
1.0 1:61.0 2:0.0 3:0.0 4:0.0 
1.0 1:70.0 2:0.0 3:0.0 4:0.0 
1.0 1:0.0 2:0.0 3:0.0 4:1.0 
1.0 1:21.0 2:0.0 3:0.0 4:0.0 
1.0 1:34.0 2:0.0 3:1.0 4:0.0 
1.0 1:9.0 2:0.0 3:0.0 4:4.0 
0.9537715347511657 1:20.0 2:0.0 3:0.0 4:0.0 
1.0 1:32.0 2:0.0 3:0.0 4:0.0 
1.0 1:21.0 2:0.0 3:0.0 4:0.0 
1.0 1:37.0 2:0.0 3:0.0 4:0.0 
1.0 1:20.0 2:0.0 3:0.0 4:0.0 
0.9686836273517976 1:22.0 2:0.0 3:0.0 4:0.0 
1.0 1:21.0 2:0.0 3:0.0 4:0.0 
1.0 1:25.0 2:0.0 3:0.0 4:0.0 
1.0 1:43.0 2:0.0 3:0.0 4:0.0 
0.9936907574016348 1:8.0 2:0.0 3:2.0 4:0.0 
1.0 1:20.0 2:0.0 3:0.0 4:0.0 
1.0 1:83.0 2:0.0 3:0.0 4:0.0 
1.0 1:12.0 2:0.0 3:1.0 4:0.0 
1.0 1:54.0 2:0.0 3:0.0 4:0.0 
1.0 1:12.0 2:0.0 3:1.0 4:0.0 
1.0 1:30.0 2:0.0 3:1.0 4:0.0 
1.0 1:12.0 2:0.0 3:0.0 4:4.0 
1.0 1:12.0 2:0.0 3:4.0 4:0.0 
1.0 1:114.0 2:0.0 3:0.0 4:0.0 
0.7317935564195435 1:23.0 2:0.0 3:1.0 4:0.0 
1.0 1:0.0 2:0.0 3:0.0 4:1.0 
1.0 1:25.0 2:0.0 3:0.0 4:0.0 
1.0 1:60.0 2:0.0 3:0.0 4:0.0 
0.6506012263938666 1:24.0 2:0.0 3:0.0 4:0.0 
1.0 1:20.0 2:0.0 3:0.0 4:0.0 
1.0 1:32.0 2:0.0 3:0.0 4:0.0 
1.0 1:54.0 2:0.0 3:0.0 4:0.0 
1.0 1:50.0 2:0.0 3:0.0 4:0.0 
1.0 1:24.0 2:0.0 3:0.0 4:0.0 
0.6081620365428276 1:14.0 2:0.0 3:3.0 4:0.0 
1.0 1:44.0 2:0.0 3:0.0 4:0.0 
1.0 1:21.0 2:0.0 3:0.0 4:0.0 
1.0 1:91.0 2:0.0 3:0.0 4:0.0 
1.0 1:25.0 2:0.0 3:0.0 4:0.0 
1.0 1:45.0 2:0.0 3:4.0 4:0.0 
1.0 1:20.0 2:0.0 3:0.0 4:0.0 
1.0 1:28.0 2:0.0 3:0.0 4:0.0 
1.0 1:21.0 2:0.0 3:0.0 4:0.0 
1.0 1:101.0 2:0.0 3:0.0 4:0.0 
1.0 1:68.0 2:0.0 3:0.0 4:0.0 
1.0 1:21.0 2:0.0 3:0.0 4:0.0 
1.0 1:39.0 2:0.0 3:0.0 4:0.0 
1.0 1:20.0 2:0.0 3:0.0 4:0.0 
1.0 1:42.0 2:0.0 3:0.0 4:0.0 
1.0 1:49.0 2:0.0 3:0.0 4:0.0 
1.0 1:20.0 2:0.0 3:0.0 4:0.0 
1.0 1:38.0 2:0.0 3:0.0 4:0.0 
1.0 1:20.0 2:0.0 3:0.0 4:0.0 
1.0 1:24.0 2:0.0 3:0.0 4:0.0 
1.0 1:68.0 2:0.0 3:1.0 4:0.0 
1.0 1:20.0 2:0.0 3:0.0 4:0.0 
1.0 1:69.0 2:0.0 3:0.0 4:0.0 
1.0 1:25.0 2:0.0 3:0.0 4:0.0 
0.2109487110546796 1:31.0 2:0.0 3:0.0 4:0.0 
1.0 1:249.0 2:0.0 3:0.0 4:0.0 
1.0 1:24.0 2:0.0 3:0.0 4:0.0 
1.0 1:35.0 2:0.0 3:0.0 4:0.0 
1.0 1:36.0 2:0.0 3:0.0 4:0.0 
0.8428931302789539 1:4.0 2:0.0 3:0.0 4:2.0 
0.4358919456953237 1:41.0 2:0.0 3:0.0 4:0.0 
1.0 1:11.0 2:0.0 3:2.0 4:0.0 
1.0 1:21.0 2:0.0 3:0.0 4:0.0 
1.0 1:47.0 2:0.0 3:0.0 4:0.0 
1.0 1:24.0 2:0.0 3:0.0 4:0.0 
1.0 1:64.0 2:0.0 3:0.0 4:0.0 
0.6236324159145084 1:20.0 2:0.0 3:1.0 4:0.0 
1.0 1:24.0 2:0.0 3:0.0 4:0.0 
1.0 1:20.0 2:0.0 3:0.0 4:0.0 
0.693432589139453 1:97.0 2:0.0 3:0.0 4:0.0 
0.36334862069206986 1:19.0 2:0.0 3:2.0 4:0.0 
1.0 1:46.0 2:0.0 3:0.0 4:0.0 
1.0 1:20.0 2:0.0 3:0.0 4:0.0 
1.0 1:29.0 2:0.0 3:0.0 4:0.0 
0.4399332139999998 1:26.0 2:0.0 3:0.0 4:0.0 
1.0 1:27.0 2:0.0 3:0.0 4:0.0 
1.0 1:31.0 2:0.0 3:0.0 4:0.0 
0.31582606766687876 1:6.0 2:0.0 3:2.0 4:0.0 
1.0 1:20.0 2:0.0 3:0.0 4:0.0 
1.0 1:21.0 2:0.0 3:0.0 4:0.0 
1.0 1:31.0 2:0.0 3:0.0 4:0.0 
1.0 1:50.0 2:0.0 3:2.0 4:0.0 
1.0 1:20.0 2:0.0 3:0.0 4:0.0 
1.0 1:39.0 2:0.0 3:0.0 4:0.0 
1.0 1:43.0 2:0.0 3:0.0 4:0.0 
1.0 1:10.0 2:0.0 3:3.0 4:0.0 
1.0 1:36.0 2:0.0 3:0.0 4:0.0 
1.0 1:29.0 2:0.0 3:0.0 4:0.0 
1.0 1:70.0 2:0.0 3:0.0 4:0.0 
1.0 1:3.0 2:0.0 3:3.0 4:0.0 
1.0 1:6.0 2:0.0 3:2.0 4:0.0 
1.0 1:38.0 2:0.0 3:0.0 4:0.0 
1.0 1:25.0 2:0.0 3:0.0 4:0.0 
0.7631895347012604 1:19.0 2:0.0 3:0.0 4:1.0 
1.0 1:61.0 2:0.0 3:3.0 4:0.0 
1.0 1:26.0 2:0.0 3:0.0 4:0.0 
1.0 1:20.0 2:0.0 3:0.0 4:0.0 
1.0 1:47.0 2:0.0 3:0.0 4:0.0 
1.0 1:43.0 2:0.0 3:0.0 4:0.0 
1.0 1:20.0 2:0.0 3:0.0 4:0.0 
1.0 1:28.0 2:0.0 3:0.0 4:0.0 
1.0 1:21.0 2:0.0 3:0.0 4:0.0 
1.0 1:19.0 2:0.0 3:0.0 4:0.0 
1.0 1:31.0 2:0.0 3:0.0 4:0.0 
1.0 1:29.0 2:0.0 3:0.0 4:0.0 
1.0 1:31.0 2:0.0 3:0.0 4:0.0 
1.0 1:39.0 2:0.0 3:0.0 4:0.0 
0.5501218294858237 1:17.0 2:0.0 3:2.0 4:0.0 
0.259787395630197 1:6.0 2:0.0 3:3.0 4:0.0 
1.0 1:51.0 2:0.0 3:0.0 4:0.0 
0.5903749713990155 1:6.0 2:0.0 3:0.0 4:1.0 
1.0 1:19.0 2:0.0 3:0.0 4:0.0 
0.8504041302859772 1:10.0 2:0.0 3:5.0 4:0.0 
1.0 1:20.0 2:0.0 3:0.0 4:0.0 
1.0 1:28.0 2:0.0 3:0.0 4:0.0 
0.30451821438082566 1:18.0 2:0.0 3:0.0 4:0.0 
1.0 1:22.0 2:0.0 3:0.0 4:0.0 
1.0 1:19.0 2:0.0 3:0.0 4:0.0 
1.0 1:40.0 2:0.0 3:0.0 4:0.0 
1.0 1:19.0 2:0.0 3:0.0 4:0.0 
1.0 1:20.0 2:0.0 3:0.0 4:0.0 
1.0 1:24.0 2:0.0 3:0.0 4:0.0 
1.0 1:7.0 2:0.0 3:3.0 4:0.0 
1.0 1:25.0 2:0.0 3:0.0 4:0.0 
1.0 1:28.0 2:0.0 3:0.0 4:0.0 
0.929672135494857 1:15.0 2:0.0 3:0.0 4:0.0 
1.0 1:15.0 2:0.0 3:0.0 4:0.0 
1.0 1:32.0 2:0.0 3:0.0 4:0.0 
1.0 1:15.0 2:0.0 3:0.0 4:0.0 
1.0 1:22.0 2:0.0 3:0.0 4:0.0 
1.0 1:24.0 2:0.0 3:0.0 4:0.0 
1.0 1:26.0 2:0.0 3:0.0 4:0.0 
1.0 1:59.0 2:0.0 3:2.0 4:1.0 
1.0 1:22.0 2:0.0 3:0.0 4:0.0 
1.0 1:29.0 2:0.0 3:0.0 4:0.0 
1.0 1:21.0 2:0.0 3:0.0 4:0.0 
1.0 1:18.0 2:0.0 3:0.0 4:0.0 
1.0 1:38.0 2:0.0 3:0.0 4:0.0 
1.0 1:24.0 2:0.0 3:0.0 4:0.0 
1.0 1:15.0 2:0.0 3:0.0 4:0.0 
0.6191954674361657 1:22.0 2:0.0 3:0.0 4:1.0 
1.0 1:31.0 2:0.0 3:0.0 4:0.0 
1.0 1:19.0 2:0.0 3:0.0 4:0.0 
1.0 1:18.0 2:0.0 3:0.0 4:0.0 
1.0 1:18.0 2:0.0 3:0.0 4:0.0 
0.9597240055941644 1:41.0 2:0.0 3:0.0 4:0.0 
1.0 1:15.0 2:0.0 3:0.0 4:0.0 
1.0 1:20.0 2:0.0 3:0.0 4:0.0 
1.0 1:33.0 2:0.0 3:0.0 4:0.0 
1.0 1:76.0 2:0.0 3:0.0 4:0.0 
1.0 1:67.0 2:0.0 3:0.0 4:0.0 
1.0 1:138.0 2:0.0 3:0.0 4:0.0 
1.0 1:15.0 2:0.0 3:0.0 4:0.0 
1.0 1:31.0 2:0.0 3:0.0 4:0.0 
1.0 1:25.0 2:0.0 3:0.0 4:0.0 
1.0 1:21.0 2:0.0 3:0.0 4:0.0 
1.0 1:18.0 2:0.0 3:0.0 4:0.0 
1.0 1:47.0 2:0.0 3:2.0 4:0.0 
1.0 1:21.0 2:0.0 3:0.0 4:0.0 
0.8354356777850955 1:14.0 2:0.0 3:3.0 4:0.0 
1.0 1:15.0 2:0.0 3:0.0 4:0.0 
1.0 1:29.0 2:0.0 3:0.0 4:0.0 
1.0 1:39.0 2:0.0 3:0.0 4:0.0 
1.0 1:26.0 2:0.0 3:0.0 4:0.0 
1.0 1:18.0 2:0.0 3:0.0 4:0.0 
1.0 1:26.0 2:0.0 3:0.0 4:0.0 
1.0 1:21.0 2:0.0 3:0.0 4:0.0 
1.0 1:27.0 2:0.0 3:0.0 4:0.0 
1.0 1:16.0 2:0.0 3:1.0 4:0.0 
1.0 1:25.0 2:0.0 3:0.0 4:0.0 
1.0 1:18.0 2:0.0 3:0.0 4:0.0 
1.0 1:15.0 2:0.0 3:0.0 4:0.0 
1.0 1:60.0 2:0.0 3:0.0 4:0.0 
1.0 1:19.0 2:0.0 3:0.0 4:2.0 
1.0 1:20.0 2:0.0 3:0.0 4:0.0 
0.11394220436814724 1:34.0 2:0.0 3:0.0 4:0.0 
0.4755024825698365 1:13.0 2:0.0 3:0.0 4:0.0 
1.0 1:22.0 2:0.0 3:0.0 4:0.0 
1.0 1:62.0 2:0.0 3:1.0 4:0.0 
1.0 1:13.0 2:0.0 3:0.0 4:0.0 
1.0 1:15.0 2:0.0 3:0.0 4:0.0 
1.0 1:115.0 2:0.0 3:0.0 4:0.0 
1.0 1:40.0 2:0.0 3:0.0 4:0.0 
0.6023585545157593 1:24.0 2:0.0 3:0.0 4:1.0 
1.0 1:29.0 2:0.0 3:0.0 4:0.0 
1.0 1:24.0 2:0.0 3:0.0 4:0.0 
1.0 1:91.0 2:0.0 3:1.0 4:0.0 
1.0 1:20.0 2:0.0 3:0.0 4:0.0 
1.0 1:13.0 2:0.0 3:0.0 4:0.0 
1.0 1:18.0 2:0.0 3:0.0 4:0.0 
1.0 1:32.0 2:0.0 3:0.0 4:0.0 
1.0 1:27.0 2:0.0 3:2.0 4:0.0 
1.0 1:21.0 2:0.0 3:0.0 4:0.0 
1.0 1:13.0 2:0.0 3:0.0 4:0.0 
1.0 1:13.0 2:0.0 3:0.0 4:0.0 
1.0 1:13.0 2:0.0 3:0.0 4:0.0 
1.0 1:27.0 2:0.0 3:0.0 4:0.0 
1.0 1:21.0 2:0.0 3:0.0 4:0.0 
1.0 1:18.0 2:0.0 3:0.0 4:0.0 
1.0 1:25.0 2:0.0 3:0.0 4:0.0 
1.0 1:21.0 2:0.0 3:0.0 4:0.0 
1.0 1:18.0 2:0.0 3:0.0 4:0.0 
1.0 1:15.0 2:0.0 3:0.0 4:0.0 
1.0 1:15.0 2:0.0 3:0.0 4:0.0 
1.0 1:20.0 2:0.0 3:0.0 4:0.0 
1.0 1:21.0 2:0.0 3:0.0 4:0.0 
1.0 1:6.0 2:0.0 3:2.0 4:0.0 
0.3660306146166155 1:7.0 2:0.0 3:0.0 4:1.0 
1.0 1:15.0 2:0.0 3:0.0 4:0.0 
1.0 1:19.0 2:0.0 3:0.0 4:0.0 
1.0 1:36.0 2:0.0 3:0.0 4:0.0 
1.0 1:19.0 2:0.0 3:0.0 4:0.0 
1.0 1:13.0 2:0.0 3:0.0 4:0.0 
1.0 1:13.0 2:0.0 3:0.0 4:0.0 
1.0 1:25.0 2:0.0 3:0.0 4:0.0 
1.0 1:34.0 2:0.0 3:0.0 4:0.0 
1.0 1:20.0 2:0.0 3:0.0 4:0.0 
1.0 1:13.0 2:0.0 3:0.0 4:0.0 
1.0 1:47.0 2:0.0 3:0.0 4:1.0 
1.0 1:33.0 2:0.0 3:0.0 4:0.0 
1.0 1:6.0 2:0.0 3:2.0 4:0.0 
1.0 1:5.0 2:0.0 3:0.0 4:2.0 
1.0 1:13.0 2:0.0 3:0.0 4:0.0 
1.0 1:21.0 2:0.0 3:0.0 4:0.0 
1.0 1:15.0 2:0.0 3:0.0 4:0.0 
1.0 1:29.0 2:0.0 3:0.0 4:0.0 
1.0 1:32.0 2:0.0 3:0.0 4:0.0 
1.0 1:13.0 2:0.0 3:0.0 4:0.0 
1.0 1:15.0 2:0.0 3:0.0 4:0.0 
1.0 1:82.0 2:0.0 3:0.0 4:0.0 
1.0 1:13.0 2:0.0 3:0.0 4:0.0 
1.0 1:46.0 2:0.0 3:0.0 4:0.0 
1.0 1:21.0 2:0.0 3:0.0 4:0.0 
0.958271685790844 1:97.0 2:0.0 3:0.0 4:0.0 
1.0 1:18.0 2:0.0 3:0.0 4:0.0 
1.0 1:18.0 2:0.0 3:0.0 4:0.0 
1.0 1:19.0 2:0.0 3:0.0 4:0.0 
1.0 1:22.0 2:0.0 3:0.0 4:0.0 
1.0 1:19.0 2:0.0 3:0.0 4:0.0 
1.0 1:5.0 2:0.0 3:2.0 4:0.0 
0.6885253945187805 1:4.0 2:0.0 3:2.0 4:0.0 
0.01546048018280069 1:5.0 2:0.0 3:1.0 4:0.0 
1.0 1:37.0 2:0.0 3:0.0 4:0.0 
1.0 1:12.0 2:0.0 3:2.0 4:0.0 
1.0 1:13.0 2:0.0 3:0.0 4:0.0 
0.44426907361091117 1:15.0 2:0.0 3:4.0 4:0.0 
1.0 1:25.0 2:0.0 3:0.0 4:0.0 
1.0 1:35.0 2:0.0 3:0.0 4:0.0 
1.0 1:25.0 2:0.0 3:0.0 4:0.0 
1.0 1:43.0 2:0.0 3:0.0 4:0.0 
1.0 1:13.0 2:0.0 3:0.0 4:0.0 
1.0 1:39.0 2:0.0 3:0.0 4:0.0 
1.0 1:19.0 2:0.0 3:0.0 4:0.0 
1.0 1:5.0 2:0.0 3:1.0 4:0.0 
1.0 1:19.0 2:0.0 3:0.0 4:0.0 
1.0 1:44.0 2:0.0 3:0.0 4:0.0 
1.0 1:13.0 2:0.0 3:0.0 4:0.0 
1.0 1:5.0 2:0.0 3:1.0 4:0.0 
1.0 1:45.0 2:0.0 3:0.0 4:0.0 
0.342410290464119 1:14.0 2:0.0 3:0.0 4:0.0 
1.0 1:15.0 2:0.0 3:0.0 4:0.0 
1.0 1:24.0 2:0.0 3:0.0 4:0.0 
1.0 1:21.0 2:0.0 3:0.0 4:0.0 
1.0 1:21.0 2:0.0 3:0.0 4:0.0 
1.0 1:13.0 2:0.0 3:0.0 4:0.0 
1.0 1:31.0 2:0.0 3:0.0 4:0.0 
1.0 1:20.0 2:0.0 3:0.0 4:0.0 
1.0 1:13.0 2:0.0 3:0.0 4:0.0 
1.0 1:39.0 2:0.0 3:0.0 4:0.0 
1.0 1:14.0 2:0.0 3:0.0 4:0.0 
1.0 1:14.0 2:0.0 3:0.0 4:0.0 
1.0 1:58.0 2:0.0 3:0.0 4:0.0 
1.0 1:13.0 2:0.0 3:0.0 4:0.0 
1.0 1:21.0 2:0.0 3:0.0 4:0.0 
1.0 1:19.0 2:0.0 3:0.0 4:0.0 
1.0 1:11.0 2:0.0 3:0.0 4:0.0 
1.0 1:5.0 2:0.0 3:1.0 4:0.0 
0.14497818799215814 1:10.0 2:0.0 3:0.0 4:0.0 
1.0 1:10.0 2:0.0 3:0.0 4:0.0 
1.0 1:10.0 2:0.0 3:0.0 4:0.0 
1.0 1:11.0 2:0.0 3:0.0 4:0.0 
1.0 1:18.0 2:0.0 3:0.0 4:0.0 
1.0 1:15.0 2:0.0 3:0.0 4:0.0 
0.1925957210319801 1:21.0 2:0.0 3:0.0 4:0.0 
0.8907649405162984 1:19.0 2:0.0 3:1.0 4:0.0 
1.0 1:78.0 2:0.0 3:1.0 4:0.0 
1.0 1:39.0 2:0.0 3:0.0 4:0.0 
1.0 1:10.0 2:0.0 3:0.0 4:0.0 
1.0 1:10.0 2:0.0 3:0.0 4:0.0 
0.04079246347777631 1:17.0 2:0.0 3:0.0 4:0.0 
1.0 1:14.0 2:0.0 3:0.0 4:0.0 
1.0 1:13.0 2:0.0 3:0.0 4:0.0 
1.0 1:17.0 2:0.0 3:0.0 4:0.0 
1.0 1:11.0 2:0.0 3:0.0 4:0.0 
1.0 1:17.0 2:0.0 3:0.0 4:0.0 
1.0 1:20.0 2:0.0 3:0.0 4:0.0 
1.0 1:10.0 2:0.0 3:0.0 4:0.0 
0.5934088262199924 1:25.0 2:0.0 3:1.0 4:0.0 
1.0 1:19.0 2:0.0 3:0.0 4:0.0 
1.0 1:17.0 2:0.0 3:0.0 4:0.0 
1.0 1:26.0 2:0.0 3:0.0 4:0.0 
1.0 1:16.0 2:0.0 3:0.0 4:0.0 
0.4960232838363438 1:16.0 2:0.0 3:1.0 4:0.0 
1.0 1:11.0 2:0.0 3:0.0 4:0.0 
1.0 1:10.0 2:0.0 3:0.0 4:0.0 
1.0 1:38.0 2:0.0 3:0.0 4:0.0 
1.0 1:14.0 2:0.0 3:0.0 4:0.0 
1.0 1:14.0 2:0.0 3:0.0 4:0.0 
1.0 1:10.0 2:0.0 3:0.0 4:0.0 
1.0 1:10.0 2:0.0 3:0.0 4:0.0 
1.0 1:14.0 2:0.0 3:0.0 4:0.0 
1.0 1:10.0 2:0.0 3:0.0 4:0.0 
1.0 1:17.0 2:0.0 3:0.0 4:0.0 
1.0 1:14.0 2:0.0 3:0.0 4:0.0 
1.0 1:10.0 2:0.0 3:0.0 4:0.0 
1.0 1:25.0 2:0.0 3:0.0 4:0.0 
1.0 1:17.0 2:0.0 3:0.0 4:0.0 
1.0 1:52.0 2:0.0 3:0.0 4:0.0 
1.0 1:13.0 2:0.0 3:0.0 4:0.0 
1.0 1:10.0 2:0.0 3:0.0 4:0.0 
1.0 1:15.0 2:0.0 3:0.0 4:0.0 
0.6545652401858596 1:11.0 2:0.0 3:1.0 4:0.0 
1.0 1:17.0 2:0.0 3:0.0 4:0.0 
1.0 1:10.0 2:0.0 3:0.0 4:0.0 
1.0 1:13.0 2:0.0 3:0.0 4:0.0 
1.0 1:14.0 2:0.0 3:0.0 4:0.0 
1.0 1:31.0 2:0.0 3:0.0 4:0.0 
1.0 1:11.0 2:0.0 3:0.0 4:0.0 
1.0 1:17.0 2:0.0 3:0.0 4:0.0 
1.0 1:12.0 2:0.0 3:2.0 4:0.0 
1.0 1:0.0 2:0.0 3:0.0 4:1.0 
1.0 1:10.0 2:0.0 3:0.0 4:0.0 
0.5505597468210761 1:9.0 2:0.0 3:0.0 4:0.0 
1.0 1:32.0 2:0.0 3:0.0 4:0.0 
1.0 1:13.0 2:0.0 3:0.0 4:0.0 
1.0 1:43.0 2:0.0 3:0.0 4:0.0 
1.0 1:10.0 2:0.0 3:0.0 4:0.0 
1.0 1:36.0 2:0.0 3:1.0 4:0.0 
1.0 1:10.0 2:0.0 3:0.0 4:0.0 
1.0 1:15.0 2:0.0 3:0.0 4:0.0 
1.0 1:14.0 2:0.0 3:0.0 4:0.0 
1.0 1:9.0 2:0.0 3:0.0 4:0.0 
1.0 1:13.0 2:0.0 3:0.0 4:0.0 
1.0 1:11.0 2:0.0 3:0.0 4:0.0 
1.0 1:18.0 2:0.0 3:0.0 4:0.0 
1.0 1:14.0 2:0.0 3:0.0 4:0.0 
1.0 1:11.0 2:0.0 3:0.0 4:0.0 
1.0 1:13.0 2:0.0 3:0.0 4:0.0 
1.0 1:38.0 2:0.0 3:0.0 4:0.0 
1.0 1:63.0 2:0.0 3:0.0 4:0.0 
1.0 1:11.0 2:0.0 3:0.0 4:0.0 
1.0 1:18.0 2:0.0 3:0.0 4:0.0 
1.0 1:9.0 2:0.0 3:0.0 4:0.0 
1.0 1:10.0 2:0.0 3:0.0 4:0.0 
1.0 1:14.0 2:0.0 3:0.0 4:0.0 
1.0 1:10.0 2:0.0 3:0.0 4:0.0 
1.0 1:10.0 2:0.0 3:0.0 4:0.0 
1.0 1:9.0 2:0.0 3:0.0 4:0.0 
0.6319135658784448 1:14.0 2:0.0 3:1.0 4:0.0 
1.0 1:18.0 2:0.0 3:0.0 4:0.0 
1.0 1:12.0 2:0.0 3:1.0 4:0.0 
1.0 1:16.0 2:0.0 3:0.0 4:0.0 
1.0 1:13.0 2:0.0 3:0.0 4:0.0 
1.0 1:5.0 2:0.0 3:1.0 4:0.0 
1.0 1:16.0 2:0.0 3:0.0 4:0.0 
1.0 1:11.0 2:0.0 3:0.0 4:0.0 
1.0 1:11.0 2:0.0 3:0.0 4:0.0 
1.0 1:13.0 2:0.0 3:0.0 4:0.0 
1.0 1:9.0 2:0.0 3:0.0 4:0.0 
1.0 1:22.0 2:0.0 3:0.0 4:0.0 
0.8586617187873068 1:27.0 2:0.0 3:0.0 4:1.0 
1.0 1:15.0 2:0.0 3:0.0 4:0.0 
0.07540485167963479 1:5.0 2:0.0 3:2.0 4:0.0 
1.0 1:13.0 2:0.0 3:0.0 4:0.0 
1.0 1:124.0 2:0.0 3:3.0 4:0.0 
1.0 1:51.0 2:0.0 3:0.0 4:0.0 
1.0 1:16.0 2:0.0 3:0.0 4:0.0 
1.0 1:9.0 2:0.0 3:0.0 4:0.0 
1.0 1:14.0 2:0.0 3:0.0 4:0.0 
1.0 1:10.0 2:0.0 3:0.0 4:0.0 
1.0 1:13.0 2:0.0 3:0.0 4:0.0 
1.0 1:10.0 2:0.0 3:0.0 4:0.0 
0.21972445416313569 1:8.0 2:0.0 3:0.0 4:0.0 
1.0 1:9.0 2:0.0 3:0.0 4:0.0 
1.0 1:8.0 2:0.0 3:0.0 4:0.0 
1.0 1:10.0 2:0.0 3:0.0 4:0.0 
1.0 1:10.0 2:0.0 3:0.0 4:0.0 
1.0 1:33.0 2:0.0 3:0.0 4:0.0 
1.0 1:15.0 2:0.0 3:0.0 4:0.0 
1.0 1:33.0 2:0.0 3:0.0 4:0.0 
1.0 1:22.0 2:0.0 3:0.0 4:0.0 
1.0 1:13.0 2:0.0 3:0.0 4:0.0 
1.0 1:9.0 2:0.0 3:0.0 4:0.0 
1.0 1:10.0 2:0.0 3:0.0 4:0.0 
1.0 1:9.0 2:0.0 3:0.0 4:0.0 
1.0 1:11.0 2:0.0 3:0.0 4:0.0 
1.0 1:8.0 2:0.0 3:0.0 4:0.0 
1.0 1:19.0 2:0.0 3:0.0 4:0.0 
1.0 1:15.0 2:0.0 3:0.0 4:0.0 
1.0 1:11.0 2:0.0 3:0.0 4:0.0 
1.0 1:10.0 2:0.0 3:0.0 4:0.0 
1.0 1:15.0 2:0.0 3:0.0 4:0.0 
1.0 1:11.0 2:0.0 3:0.0 4:0.0 
1.0 1:9.0 2:0.0 3:0.0 4:0.0 
1.0 1:42.0 2:0.0 3:0.0 4:0.0 
1.0 1:9.0 2:0.0 3:0.0 4:0.0 
1.0 1:27.0 2:0.0 3:0.0 4:0.0 
1.0 1:13.0 2:0.0 3:0.0 4:0.0 
1.0 1:8.0 2:0.0 3:0.0 4:0.0 
1.0 1:11.0 2:0.0 3:4.0 4:0.0 
1.0 1:9.0 2:0.0 3:0.0 4:0.0 
1.0 1:10.0 2:0.0 3:0.0 4:0.0 
1.0 1:8.0 2:0.0 3:0.0 4:0.0 
1.0 1:8.0 2:0.0 3:0.0 4:0.0 
1.0 1:8.0 2:0.0 3:0.0 4:0.0 
0.3910801263269351 1:15.0 2:0.0 3:1.0 4:1.0 
1.0 1:9.0 2:0.0 3:0.0 4:0.0 
1.0 1:20.0 2:0.0 3:0.0 4:0.0 
1.0 1:8.0 2:0.0 3:0.0 4:0.0 
1.0 1:12.0 2:0.0 3:0.0 4:0.0 
1.0 1:34.0 2:0.0 3:0.0 4:0.0 
1.0 1:14.0 2:0.0 3:0.0 4:0.0 
1.0 1:8.0 2:0.0 3:0.0 4:0.0 
1.0 1:13.0 2:0.0 3:0.0 4:0.0 
1.0 1:10.0 2:0.0 3:0.0 4:0.0 
1.0 1:26.0 2:0.0 3:0.0 4:0.0 
1.0 1:17.0 2:0.0 3:0.0 4:0.0 
1.0 1:12.0 2:0.0 3:0.0 4:0.0 
1.0 1:11.0 2:0.0 3:0.0 4:0.0 
1.0 1:26.0 2:0.0 3:0.0 4:0.0 
1.0 1:26.0 2:0.0 3:0.0 4:0.0 
1.0 1:16.0 2:0.0 3:2.0 4:0.0 
1.0 1:149.0 2:0.0 3:0.0 4:0.0 
1.0 1:8.0 2:0.0 3:0.0 4:0.0 
1.0 1:8.0 2:0.0 3:0.0 4:0.0 
1.0 1:11.0 2:0.0 3:0.0 4:0.0 
1.0 1:16.0 2:0.0 3:0.0 4:0.0 
1.0 1:13.0 2:0.0 3:0.0 4:0.0 
1.0 1:13.0 2:0.0 3:0.0 4:0.0 
1.0 1:15.0 2:0.0 3:0.0 4:0.0 
0.6491959981793571 1:6.0 2:0.0 3:2.0 4:0.0 
1.0 1:8.0 2:0.0 3:0.0 4:0.0 
0.6759137391594258 1:7.0 2:0.0 3:3.0 4:0.0 
1.0 1:8.0 2:0.0 3:0.0 4:0.0 
1.0 1:14.0 2:0.0 3:0.0 4:0.0 
1.0 1:11.0 2:0.0 3:0.0 4:0.0 
1.0 1:66.0 2:0.0 3:2.0 4:0.0 
1.0 1:8.0 2:0.0 3:0.0 4:0.0 
1.0 1:9.0 2:0.0 3:0.0 4:0.0 
1.0 1:9.0 2:0.0 3:0.0 4:0.0 
1.0 1:10.0 2:0.0 3:3.0 4:0.0 
1.0 1:14.0 2:0.0 3:0.0 4:0.0 
1.0 1:13.0 2:0.0 3:0.0 4:0.0 
1.0 1:5.0 2:0.0 3:1.0 4:0.0 
1.0 1:10.0 2:0.0 3:0.0 4:0.0 
1.0 1:43.0 2:0.0 3:0.0 4:0.0 
1.0 1:9.0 2:0.0 3:0.0 4:0.0 
1.0 1:10.0 2:0.0 3:0.0 4:0.0 
1.0 1:12.0 2:0.0 3:0.0 4:0.0 
1.0 1:12.0 2:0.0 3:0.0 4:0.0 
1.0 1:9.0 2:0.0 3:0.0 4:0.0 
1.0 1:11.0 2:0.0 3:0.0 4:0.0 
1.0 1:5.0 2:0.0 3:1.0 4:0.0 
1.0 1:9.0 2:0.0 3:0.0 4:0.0 
1.0 1:14.0 2:0.0 3:0.0 4:0.0 
1.0 1:9.0 2:0.0 3:0.0 4:0.0 
0.7255409270372994 1:7.0 2:0.0 3:1.0 4:0.0 
1.0 1:9.0 2:0.0 3:0.0 4:0.0 
1.0 1:31.0 2:0.0 3:0.0 4:0.0 
1.0 1:11.0 2:0.0 3:0.0 4:0.0 
0.7450637326796873 1:2.0 2:0.0 3:2.0 4:0.0 
1.0 1:10.0 2:0.0 3:0.0 4:0.0 
1.0 1:12.0 2:0.0 3:0.0 4:0.0 
1.0 1:28.0 2:0.0 3:0.0 4:0.0 
1.0 1:10.0 2:0.0 3:0.0 4:0.0 
1.0 1:52.0 2:0.0 3:0.0 4:0.0 
1.0 1:32.0 2:0.0 3:0.0 4:0.0 
1.0 1:13.0 2:0.0 3:0.0 4:0.0 
1.0 1:10.0 2:0.0 3:0.0 4:0.0 
1.0 1:20.0 2:0.0 3:0.0 4:0.0 
1.0 1:5.0 2:0.0 3:1.0 4:0.0 
1.0 1:8.0 2:0.0 3:0.0 4:0.0 
1.0 1:9.0 2:0.0 3:0.0 4:0.0 
1.0 1:20.0 2:0.0 3:0.0 4:0.0 
1.0 1:11.0 2:0.0 3:0.0 4:0.0 
0.06800123582799235 1:42.0 2:0.0 3:0.0 4:0.0 
1.0 1:10.0 2:0.0 3:0.0 4:0.0 
1.0 1:18.0 2:0.0 3:0.0 4:0.0 
1.0 1:10.0 2:0.0 3:0.0 4:0.0 
1.0 1:8.0 2:0.0 3:0.0 4:0.0 
1.0 1:75.0 2:0.0 3:0.0 4:0.0 
1.0 1:14.0 2:0.0 3:0.0 4:0.0 
0.11807434591446582 1:19.0 2:0.0 3:0.0 4:0.0 
1.0 1:16.0 2:0.0 3:0.0 4:0.0 
1.0 1:11.0 2:0.0 3:0.0 4:0.0 
0.2072116446574843 1:6.0 2:0.0 3:0.0 4:0.0 
1.0 1:6.0 2:0.0 3:0.0 4:0.0 
1.0 1:20.0 2:0.0 3:0.0 4:0.0 
1.0 1:16.0 2:0.0 3:0.0 4:0.0 
1.0 1:6.0 2:0.0 3:0.0 4:1.0 
1.0 1:18.0 2:0.0 3:0.0 4:0.0 
1.0 1:11.0 2:0.0 3:0.0 4:0.0 
1.0 1:11.0 2:0.0 3:0.0 4:0.0 
1.0 1:11.0 2:0.0 3:0.0 4:0.0 
1.0 1:20.0 2:0.0 3:0.0 4:0.0 
1.0 1:16.0 2:0.0 3:0.0 4:0.0 
1.0 1:12.0 2:0.0 3:0.0 4:0.0 
1.0 1:9.0 2:0.0 3:0.0 4:0.0 
1.0 1:18.0 2:0.0 3:4.0 4:0.0 
0.24004392450001244 1:0.0 2:0.0 3:1.0 4:0.0 
1.0 1:10.0 2:0.0 3:0.0 4:0.0 
1.0 1:38.0 2:0.0 3:0.0 4:0.0 
1.0 1:9.0 2:0.0 3:0.0 4:0.0 
1.0 1:6.0 2:0.0 3:0.0 4:0.0 
1.0 1:8.0 2:0.0 3:0.0 4:0.0 
1.0 1:20.0 2:0.0 3:0.0 4:0.0 
1.0 1:14.0 2:0.0 3:0.0 4:0.0 
1.0 1:6.0 2:0.0 3:0.0 4:0.0 
1.0 1:6.0 2:0.0 3:0.0 4:0.0 
1.0 1:120.0 2:0.0 3:0.0 4:0.0 
1.0 1:5.0 2:0.0 3:1.0 4:0.0 
1.0 1:20.0 2:0.0 3:0.0 4:0.0 
1.0 1:8.0 2:0.0 3:0.0 4:0.0 
1.0 1:9.0 2:0.0 3:0.0 4:0.0 
1.0 1:8.0 2:0.0 3:0.0 4:0.0 
1.0 1:26.0 2:0.0 3:0.0 4:0.0 
1.0 1:6.0 2:0.0 3:0.0 4:0.0 
1.0 1:14.0 2:0.0 3:0.0 4:0.0 
1.0 1:8.0 2:0.0 3:0.0 4:0.0 
1.0 1:27.0 2:0.0 3:0.0 4:0.0 
1.0 1:8.0 2:0.0 3:0.0 4:0.0 
1.0 1:6.0 2:0.0 3:0.0 4:0.0 
1.0 1:20.0 2:0.0 3:0.0 4:0.0 
1.0 1:10.0 2:0.0 3:0.0 4:0.0 
1.0 1:6.0 2:0.0 3:0.0 4:0.0 
1.0 1:12.0 2:0.0 3:0.0 4:0.0 
1.0 1:6.0 2:0.0 3:0.0 4:0.0 
1.0 1:12.0 2:0.0 3:0.0 4:0.0 
1.0 1:9.0 2:0.0 3:0.0 4:0.0 
1.0 1:29.0 2:0.0 3:0.0 4:0.0 
1.0 1:16.0 2:0.0 3:0.0 4:0.0 
1.0 1:6.0 2:0.0 3:0.0 4:0.0 
1.0 1:0.0 2:0.0 3:1.0 4:0.0 
1.0 1:8.0 2:0.0 3:0.0 4:0.0 
1.0 1:9.0 2:0.0 3:0.0 4:0.0 
1.0 1:10.0 2:0.0 3:0.0 4:0.0 
1.0 1:25.0 2:0.0 3:0.0 4:0.0 
1.0 1:6.0 2:0.0 3:0.0 4:0.0 
0.4110014176820076 1:7.0 2:0.0 3:0.0 4:0.0 
1.0 1:11.0 2:0.0 3:0.0 4:0.0 
1.0 1:6.0 2:0.0 3:0.0 4:0.0 
0.21901617658594436 1:3.0 2:0.0 3:0.0 4:2.0 
1.0 1:6.0 2:0.0 3:0.0 4:0.0 
1.0 1:9.0 2:0.0 3:0.0 4:0.0 
1.0 1:9.0 2:0.0 3:0.0 4:0.0 
1.0 1:6.0 2:0.0 3:0.0 4:0.0 
1.0 1:13.0 2:0.0 3:0.0 4:0.0 
1.0 1:12.0 2:0.0 3:0.0 4:0.0 
1.0 1:22.0 2:0.0 3:1.0 4:0.0 
1.0 1:37.0 2:0.0 3:0.0 4:0.0 
1.0 1:9.0 2:0.0 3:0.0 4:0.0 
1.0 1:7.0 2:0.0 3:0.0 4:0.0 
1.0 1:14.0 2:0.0 3:0.0 4:0.0 
1.0 1:11.0 2:0.0 3:0.0 4:0.0 
1.0 1:7.0 2:0.0 3:2.0 4:0.0 
1.0 1:5.0 2:0.0 3:1.0 4:0.0 
1.0 1:11.0 2:0.0 3:0.0 4:0.0 
1.0 1:13.0 2:0.0 3:0.0 4:0.0 
1.0 1:7.0 2:0.0 3:0.0 4:0.0 
1.0 1:6.0 2:0.0 3:0.0 4:0.0 
1.0 1:6.0 2:0.0 3:0.0 4:0.0 
1.0 1:22.0 2:0.0 3:0.0 4:0.0 
1.0 1:88.0 2:0.0 3:0.0 4:1.0 
1.0 1:6.0 2:0.0 3:0.0 4:0.0 
1.0 1:52.0 2:0.0 3:0.0 4:0.0 
1.0 1:31.0 2:0.0 3:0.0 4:0.0 
1.0 1:11.0 2:0.0 3:0.0 4:0.0 
1.0 1:22.0 2:0.0 3:0.0 4:0.0 
1.0 1:8.0 2:0.0 3:0.0 4:0.0 
1.0 1:17.0 2:0.0 3:0.0 4:0.0 
1.0 1:7.0 2:0.0 3:0.0 4:0.0 
1.0 1:21.0 2:0.0 3:2.0 4:0.0 
1.0 1:6.0 2:0.0 3:0.0 4:0.0 
1.0 1:9.0 2:0.0 3:0.0 4:0.0 
1.0 1:13.0 2:0.0 3:0.0 4:0.0 
1.0 1:11.0 2:0.0 3:0.0 4:0.0 
1.0 1:0.0 2:0.0 3:1.0 4:0.0 
1.0 1:6.0 2:0.0 3:0.0 4:0.0 
1.0 1:10.0 2:0.0 3:0.0 4:0.0 
1.0 1:40.0 2:0.0 3:0.0 4:0.0 
1.0 1:9.0 2:0.0 3:0.0 4:0.0 
1.0 1:8.0 2:0.0 3:0.0 4:0.0 
1.0 1:10.0 2:0.0 3:0.0 4:0.0 
1.0 1:13.0 2:0.0 3:0.0 4:0.0 
1.0 1:7.0 2:0.0 3:0.0 4:0.0 
1.0 1:6.0 2:0.0 3:0.0 4:0.0 
1.0 1:14.0 2:0.0 3:0.0 4:0.0 
1.0 1:7.0 2:0.0 3:0.0 4:0.0 
1.0 1:10.0 2:0.0 3:0.0 4:0.0 
1.0 1:6.0 2:0.0 3:0.0 4:0.0 
1.0 1:6.0 2:0.0 3:0.0 4:0.0 
1.0 1:7.0 2:0.0 3:2.0 4:0.0 
1.0 1:10.0 2:0.0 3:0.0 4:0.0 
1.0 1:11.0 2:0.0 3:0.0 4:0.0 
1.0 1:12.0 2:0.0 3:1.0 4:0.0 
1.0 1:7.0 2:0.0 3:0.0 4:0.0 
0.9940459909769305 1:0.0 2:0.0 3:0.0 4:1.0 
1.0 1:6.0 2:0.0 3:0.0 4:0.0 
1.0 1:16.0 2:0.0 3:0.0 4:0.0 
1.0 1:11.0 2:0.0 3:0.0 4:0.0 
1.0 1:6.0 2:0.0 3:0.0 4:0.0 
1.0 1:7.0 2:0.0 3:0.0 4:0.0 
1.0 1:7.0 2:0.0 3:0.0 4:0.0 
1.0 1:11.0 2:0.0 3:0.0 4:0.0 
1.0 1:6.0 2:0.0 3:0.0 4:0.0 
1.0 1:12.0 2:0.0 3:0.0 4:0.0 
1.0 1:26.0 2:0.0 3:0.0 4:0.0 
1.0 1:6.0 2:0.0 3:0.0 4:0.0 
1.0 1:6.0 2:0.0 3:0.0 4:0.0 
1.0 1:7.0 2:0.0 3:0.0 4:0.0 
1.0 1:30.0 2:0.0 3:1.0 4:0.0 
1.0 1:6.0 2:0.0 3:0.0 4:0.0 
1.0 1:16.0 2:0.0 3:0.0 4:0.0 
1.0 1:6.0 2:0.0 3:0.0 4:0.0 
1.0 1:12.0 2:0.0 3:0.0 4:0.0 
1.0 1:13.0 2:0.0 3:0.0 4:0.0 
1.0 1:6.0 2:0.0 3:0.0 4:0.0 
1.0 1:6.0 2:0.0 3:0.0 4:0.0 
1.0 1:12.0 2:0.0 3:0.0 4:0.0 
1.0 1:13.0 2:0.0 3:0.0 4:0.0 
1.0 1:6.0 2:0.0 3:0.0 4:0.0 
1.0 1:6.0 2:0.0 3:0.0 4:0.0 
1.0 1:21.0 2:0.0 3:3.0 4:0.0 
1.0 1:6.0 2:0.0 3:0.0 4:0.0 
1.0 1:8.0 2:0.0 3:0.0 4:0.0 
1.0 1:14.0 2:0.0 3:0.0 4:0.0 
1.0 1:8.0 2:0.0 3:0.0 4:0.0 
1.0 1:17.0 2:0.0 3:0.0 4:0.0 
1.0 1:7.0 2:0.0 3:0.0 4:0.0 
1.0 1:6.0 2:0.0 3:0.0 4:0.0 
1.0 1:11.0 2:0.0 3:0.0 4:0.0 
1.0 1:11.0 2:0.0 3:0.0 4:0.0 
1.0 1:6.0 2:0.0 3:0.0 4:0.0 
1.0 1:9.0 2:0.0 3:0.0 4:0.0 
1.0 1:11.0 2:0.0 3:0.0 4:0.0 
1.0 1:22.0 2:0.0 3:0.0 4:0.0 
1.0 1:9.0 2:0.0 3:0.0 4:0.0 
1.0 1:7.0 2:0.0 3:0.0 4:0.0 
1.0 1:10.0 2:0.0 3:0.0 4:0.0 
1.0 1:7.0 2:0.0 3:0.0 4:0.0 
1.0 1:6.0 2:0.0 3:0.0 4:0.0 
1.0 1:6.0 2:0.0 3:0.0 4:0.0 
1.0 1:7.0 2:0.0 3:0.0 4:0.0 
1.0 1:6.0 2:0.0 3:0.0 4:0.0 
1.0 1:9.0 2:0.0 3:0.0 4:0.0 
1.0 1:8.0 2:0.0 3:0.0 4:0.0 
1.0 1:12.0 2:0.0 3:0.0 4:0.0 
1.0 1:6.0 2:0.0 3:0.0 4:0.0 
1.0 1:9.0 2:0.0 3:0.0 4:0.0 
1.0 1:10.0 2:0.0 3:0.0 4:0.0 
1.0 1:13.0 2:0.0 3:0.0 4:0.0 
1.0 1:13.0 2:0.0 3:0.0 4:0.0 
1.0 1:10.0 2:0.0 3:0.0 4:0.0 
1.0 1:35.0 2:0.0 3:0.0 4:0.0 
1.0 1:7.0 2:0.0 3:0.0 4:0.0 
1.0 1:13.0 2:0.0 3:0.0 4:0.0 
1.0 1:7.0 2:0.0 3:0.0 4:0.0 
1.0 1:8.0 2:0.0 3:0.0 4:0.0 
1.0 1:12.0 2:0.0 3:0.0 4:0.0 
1.0 1:6.0 2:0.0 3:0.0 4:0.0 
1.0 1:8.0 2:0.0 3:0.0 4:0.0 
1.0 1:7.0 2:0.0 3:0.0 4:0.0 
1.0 1:6.0 2:0.0 3:0.0 4:0.0 
1.0 1:8.0 2:0.0 3:0.0 4:0.0 
1.0 1:7.0 2:0.0 3:0.0 4:0.0 
1.0 1:6.0 2:0.0 3:0.0 4:0.0 
1.0 1:8.0 2:0.0 3:0.0 4:0.0 
1.0 1:6.0 2:0.0 3:0.0 4:0.0 
1.0 1:32.0 2:0.0 3:0.0 4:0.0 
0.49899297476896626 1:5.0 2:0.0 3:0.0 4:0.0 
0.8497154799831003 1:13.0 2:0.0 3:1.0 4:0.0 
1.0 1:6.0 2:0.0 3:0.0 4:0.0 
1.0 1:5.0 2:0.0 3:0.0 4:0.0 
1.0 1:34.0 2:0.0 3:0.0 4:0.0 
1.0 1:5.0 2:0.0 3:0.0 4:0.0 
1.0 1:12.0 2:0.0 3:0.0 4:0.0 
1.0 1:8.0 2:0.0 3:0.0 4:0.0 
1.0 1:12.0 2:0.0 3:0.0 4:0.0 
1.0 1:5.0 2:0.0 3:0.0 4:0.0 
1.0 1:5.0 2:0.0 3:0.0 4:0.0 
1.0 1:5.0 2:0.0 3:0.0 4:0.0 
1.0 1:5.0 2:0.0 3:0.0 4:0.0 
1.0 1:17.0 2:0.0 3:0.0 4:0.0 
1.0 1:8.0 2:0.0 3:0.0 4:0.0 
1.0 1:5.0 2:0.0 3:0.0 4:0.0 
1.0 1:5.0 2:0.0 3:0.0 4:0.0 
1.0 1:5.0 2:0.0 3:0.0 4:0.0 
1.0 1:5.0 2:0.0 3:0.0 4:0.0 
1.0 1:6.0 2:0.0 3:0.0 4:0.0 
1.0 1:10.0 2:0.0 3:0.0 4:0.0 
0.9617901447699064 1:21.0 2:0.0 3:1.0 4:0.0 
1.0 1:8.0 2:0.0 3:0.0 4:0.0 
1.0 1:25.0 2:0.0 3:0.0 4:0.0 
1.0 1:9.0 2:0.0 3:0.0 4:0.0 
1.0 1:6.0 2:0.0 3:0.0 4:0.0 
1.0 1:6.0 2:0.0 3:0.0 4:0.0 
1.0 1:10.0 2:0.0 3:0.0 4:0.0 
1.0 1:16.0 2:0.0 3:0.0 4:0.0 
1.0 1:15.0 2:0.0 3:0.0 4:0.0 
1.0 1:7.0 2:0.0 3:0.0 4:0.0 
1.0 1:5.0 2:0.0 3:0.0 4:0.0 
1.0 1:3.0 2:0.0 3:1.0 4:0.0 
1.0 1:11.0 2:0.0 3:0.0 4:0.0 
1.0 1:12.0 2:0.0 3:0.0 4:0.0 
1.0 1:20.0 2:0.0 3:0.0 4:0.0 
1.0 1:29.0 2:0.0 3:0.0 4:0.0 
1.0 1:6.0 2:0.0 3:0.0 4:0.0 
1.0 1:5.0 2:0.0 3:0.0 4:0.0 
1.0 1:22.0 2:0.0 3:0.0 4:0.0 
1.0 1:5.0 2:0.0 3:0.0 4:0.0 
1.0 1:6.0 2:0.0 3:0.0 4:0.0 
1.0 1:5.0 2:0.0 3:0.0 4:0.0 
1.0 1:5.0 2:0.0 3:0.0 4:0.0 
1.0 1:5.0 2:0.0 3:0.0 4:0.0 
1.0 1:11.0 2:0.0 3:0.0 4:0.0 
1.0 1:5.0 2:0.0 3:0.0 4:0.0 
1.0 1:18.0 2:0.0 3:0.0 4:0.0 
1.0 1:0.0 2:0.0 3:1.0 4:0.0 
1.0 1:7.0 2:0.0 3:0.0 4:0.0 
1.0 1:6.0 2:0.0 3:0.0 4:0.0 
1.0 1:5.0 2:0.0 3:0.0 4:0.0 
1.0 1:9.0 2:0.0 3:0.0 4:0.0 
1.0 1:6.0 2:0.0 3:0.0 4:0.0 
1.0 1:5.0 2:0.0 3:0.0 4:0.0 
1.0 1:10.0 2:0.0 3:0.0 4:0.0 
1.0 1:7.0 2:0.0 3:0.0 4:0.0 
1.0 1:3.0 2:0.0 3:1.0 4:0.0 
1.0 1:11.0 2:0.0 3:0.0 4:0.0 
1.0 1:5.0 2:0.0 3:0.0 4:0.0 
1.0 1:14.0 2:0.0 3:0.0 4:0.0 
1.0 1:7.0 2:0.0 3:0.0 4:0.0 
1.0 1:5.0 2:0.0 3:1.0 4:0.0 
1.0 1:6.0 2:0.0 3:0.0 4:0.0 
0.8278457334828926 1:8.0 2:0.0 3:1.0 4:0.0 
1.0 1:9.0 2:0.0 3:0.0 4:0.0 
1.0 1:25.0 2:0.0 3:0.0 4:0.0 
1.0 1:5.0 2:0.0 3:0.0 4:0.0 
1.0 1:6.0 2:0.0 3:0.0 4:0.0 
1.0 1:9.0 2:0.0 3:0.0 4:0.0 
1.0 1:9.0 2:0.0 3:0.0 4:0.0 
1.0 1:8.0 2:0.0 3:0.0 4:0.0 
1.0 1:6.0 2:0.0 3:0.0 4:0.0 
1.0 1:9.0 2:0.0 3:0.0 4:0.0 
1.0 1:5.0 2:0.0 3:0.0 4:0.0 
1.0 1:8.0 2:0.0 3:0.0 4:0.0 
1.0 1:7.0 2:0.0 3:0.0 4:0.0 
1.0 1:15.0 2:0.0 3:0.0 4:0.0 
1.0 1:5.0 2:0.0 3:0.0 4:0.0 
1.0 1:13.0 2:0.0 3:0.0 4:0.0 
1.0 1:5.0 2:0.0 3:0.0 4:0.0 
1.0 1:0.0 2:0.0 3:1.0 4:0.0 
1.0 1:12.0 2:0.0 3:0.0 4:0.0 
1.0 1:14.0 2:0.0 3:0.0 4:0.0 
1.0 1:5.0 2:0.0 3:0.0 4:0.0 
1.0 1:5.0 2:0.0 3:0.0 4:0.0 
1.0 1:26.0 2:0.0 3:0.0 4:0.0 
1.0 1:11.0 2:0.0 3:0.0 4:0.0 
1.0 1:9.0 2:0.0 3:0.0 4:0.0 
1.0 1:7.0 2:0.0 3:0.0 4:0.0 
1.0 1:9.0 2:0.0 3:0.0 4:0.0 
0.051607519727794274 1:33.0 2:0.0 3:0.0 4:0.0 
1.0 1:7.0 2:0.0 3:0.0 4:0.0 
1.0 1:7.0 2:0.0 3:0.0 4:0.0 
1.0 1:7.0 2:0.0 3:0.0 4:0.0 
1.0 1:11.0 2:0.0 3:0.0 4:0.0 
1.0 1:5.0 2:0.0 3:0.0 4:0.0 
1.0 1:8.0 2:0.0 3:0.0 4:0.0 
1.0 1:12.0 2:0.0 3:0.0 4:0.0 
1.0 1:5.0 2:0.0 3:0.0 4:0.0 
1.0 1:24.0 2:0.0 3:0.0 4:0.0 
1.0 1:15.0 2:0.0 3:0.0 4:0.0 
1.0 1:5.0 2:0.0 3:0.0 4:0.0 
1.0 1:7.0 2:0.0 3:0.0 4:0.0 
1.0 1:13.0 2:0.0 3:0.0 4:0.0 
1.0 1:8.0 2:0.0 3:0.0 4:0.0 
1.0 1:5.0 2:0.0 3:0.0 4:0.0 
1.0 1:11.0 2:0.0 3:0.0 4:0.0 
1.0 1:9.0 2:0.0 3:0.0 4:0.0 
1.0 1:22.0 2:0.0 3:0.0 4:0.0 
1.0 1:6.0 2:0.0 3:0.0 4:0.0 
1.0 1:11.0 2:0.0 3:0.0 4:0.0 
1.0 1:6.0 2:0.0 3:0.0 4:0.0 
1.0 1:15.0 2:0.0 3:0.0 4:0.0 
1.0 1:5.0 2:0.0 3:0.0 4:0.0 
1.0 1:7.0 2:0.0 3:0.0 4:0.0 
1.0 1:5.0 2:0.0 3:0.0 4:0.0 
1.0 1:5.0 2:0.0 3:0.0 4:0.0 
1.0 1:20.0 2:0.0 3:0.0 4:0.0 
1.0 1:7.0 2:0.0 3:0.0 4:0.0 
1.0 1:6.0 2:0.0 3:0.0 4:0.0 
1.0 1:7.0 2:0.0 3:0.0 4:0.0 
1.0 1:5.0 2:0.0 3:0.0 4:0.0 
1.0 1:7.0 2:0.0 3:0.0 4:0.0 
1.0 1:5.0 2:0.0 3:0.0 4:0.0 
1.0 1:9.0 2:0.0 3:0.0 4:0.0 
1.0 1:5.0 2:0.0 3:0.0 4:0.0 
1.0 1:9.0 2:0.0 3:0.0 4:0.0 
1.0 1:6.0 2:0.0 3:0.0 4:0.0 
1.0 1:7.0 2:0.0 3:0.0 4:0.0 
1.0 1:9.0 2:0.0 3:0.0 4:0.0 
1.0 1:5.0 2:0.0 3:0.0 4:0.0 
1.0 1:3.0 2:0.0 3:1.0 4:0.0 
1.0 1:7.0 2:0.0 3:0.0 4:0.0 
1.0 1:7.0 2:0.0 3:0.0 4:0.0 
1.0 1:5.0 2:0.0 3:0.0 4:0.0 
1.0 1:3.0 2:0.0 3:1.0 4:0.0 
1.0 1:6.0 2:0.0 3:0.0 4:0.0 
1.0 1:5.0 2:0.0 3:0.0 4:0.0 
1.0 1:0.0 2:0.0 3:1.0 4:0.0 
1.0 1:12.0 2:0.0 3:0.0 4:0.0 
1.0 1:18.0 2:0.0 3:0.0 4:0.0 
1.0 1:0.0 2:0.0 3:1.0 4:0.0 
1.0 1:27.0 2:0.0 3:0.0 4:0.0 
1.0 1:13.0 2:0.0 3:0.0 4:0.0 
1.0 1:5.0 2:0.0 3:0.0 4:0.0 
1.0 1:6.0 2:0.0 3:0.0 4:0.0 
1.0 1:10.0 2:0.0 3:0.0 4:0.0 
1.0 1:5.0 2:0.0 3:0.0 4:0.0 
1.0 1:5.0 2:0.0 3:0.0 4:0.0 
1.0 1:7.0 2:0.0 3:0.0 4:0.0 
0.16421346995028022 1:2.0 2:0.0 3:1.0 4:0.0 
1.0 1:9.0 2:0.0 3:0.0 4:0.0 
1.0 1:7.0 2:0.0 3:0.0 4:0.0 
1.0 1:10.0 2:0.0 3:0.0 4:0.0 
1.0 1:7.0 2:0.0 3:0.0 4:0.0 
1.0 1:5.0 2:0.0 3:0.0 4:0.0 
1.0 1:4.0 2:0.0 3:2.0 4:0.0 
1.0 1:6.0 2:0.0 3:0.0 4:0.0 
1.0 1:5.0 2:0.0 3:0.0 4:0.0 
1.0 1:12.0 2:0.0 3:0.0 4:0.0 
1.0 1:2.0 2:0.0 3:1.0 4:0.0 
1.0 1:5.0 2:0.0 3:0.0 4:0.0 
1.0 1:9.0 2:0.0 3:0.0 4:0.0 
1.0 1:7.0 2:0.0 3:0.0 4:0.0 
1.0 1:5.0 2:0.0 3:0.0 4:0.0 
1.0 1:7.0 2:0.0 3:0.0 4:0.0 
0.9887568725121615 1:19.0 2:0.0 3:2.0 4:0.0 
1.0 1:8.0 2:0.0 3:0.0 4:0.0 
1.0 1:14.0 2:0.0 3:0.0 4:2.0 
1.0 1:5.0 2:0.0 3:1.0 4:0.0 
1.0 1:5.0 2:0.0 3:0.0 4:0.0 
1.0 1:5.0 2:0.0 3:0.0 4:0.0 
1.0 1:12.0 2:0.0 3:0.0 4:0.0 
1.0 1:6.0 2:0.0 3:0.0 4:0.0 
1.0 1:5.0 2:0.0 3:0.0 4:0.0 
1.0 1:5.0 2:0.0 3:0.0 4:0.0 
1.0 1:29.0 2:0.0 3:0.0 4:0.0 
1.0 1:13.0 2:0.0 3:0.0 4:0.0 
0.9800001205766721 1:18.0 2:0.0 3:0.0 4:0.0 
1.0 1:15.0 2:0.0 3:0.0 4:0.0 
1.0 1:24.0 2:0.0 3:0.0 4:0.0 
1.0 1:35.0 2:0.0 3:0.0 4:0.0 
1.0 1:9.0 2:0.0 3:0.0 4:0.0 
1.0 1:15.0 2:0.0 3:0.0 4:0.0 
1.0 1:5.0 2:0.0 3:0.0 4:0.0 
1.0 1:15.0 2:0.0 3:0.0 4:0.0 
1.0 1:5.0 2:0.0 3:0.0 4:0.0 
0.48228679645696526 1:15.0 2:0.0 3:1.0 4:0.0 
1.0 1:6.0 2:0.0 3:0.0 4:0.0 
1.0 1:5.0 2:0.0 3:0.0 4:0.0 
1.0 1:5.0 2:0.0 3:0.0 4:0.0 
1.0 1:5.0 2:0.0 3:0.0 4:0.0 
1.0 1:5.0 2:0.0 3:0.0 4:0.0 
1.0 1:5.0 2:0.0 3:0.0 4:0.0 
1.0 1:5.0 2:0.0 3:0.0 4:0.0 
1.0 1:2.0 2:0.0 3:1.0 4:0.0 
1.0 1:0.0 2:0.0 3:1.0 4:0.0 
1.0 1:5.0 2:0.0 3:0.0 4:0.0 
1.0 1:7.0 2:0.0 3:0.0 4:0.0 
1.0 1:5.0 2:0.0 3:0.0 4:0.0 
1.0 1:12.0 2:0.0 3:0.0 4:0.0 
1.0 1:6.0 2:0.0 3:0.0 4:0.0 
1.0 1:4.0 2:0.0 3:0.0 4:0.0 
1.0 1:0.0 2:0.0 3:1.0 4:0.0 
1.0 1:47.0 2:0.0 3:0.0 4:0.0 
1.0 1:0.0 2:0.0 3:1.0 4:0.0 
1.0 1:7.0 2:0.0 3:0.0 4:0.0 
1.0 1:5.0 2:0.0 3:0.0 4:0.0 
0.10830644885238674 1:3.0 2:0.0 3:0.0 4:0.0 
1.0 1:3.0 2:0.0 3:0.0 4:0.0 
1.0 1:3.0 2:0.0 3:0.0 4:0.0 
1.0 1:3.0 2:0.0 3:0.0 4:0.0 
1.0 1:4.0 2:0.0 3:0.0 4:0.0 
1.0 1:4.0 2:0.0 3:0.0 4:0.0 
1.0 1:3.0 2:0.0 3:0.0 4:0.0 
1.0 1:16.0 2:0.0 3:0.0 4:0.0 
1.0 1:9.0 2:0.0 3:0.0 4:0.0 
1.0 1:3.0 2:0.0 3:0.0 4:0.0 
1.0 1:11.0 2:0.0 3:0.0 4:0.0 
1.0 1:22.0 2:0.0 3:0.0 4:0.0 
1.0 1:4.0 2:0.0 3:0.0 4:0.0 
1.0 1:3.0 2:0.0 3:0.0 4:0.0 
1.0 1:9.0 2:0.0 3:0.0 4:0.0 
1.0 1:5.0 2:0.0 3:0.0 4:0.0 
1.0 1:7.0 2:0.0 3:0.0 4:0.0 
1.0 1:7.0 2:0.0 3:0.0 4:0.0 
1.0 1:5.0 2:0.0 3:0.0 4:0.0 
1.0 1:4.0 2:0.0 3:0.0 4:0.0 
1.0 1:75.0 2:0.0 3:0.0 4:0.0 
1.0 1:8.0 2:0.0 3:0.0 4:0.0 
1.0 1:3.0 2:0.0 3:0.0 4:0.0 
1.0 1:3.0 2:0.0 3:0.0 4:0.0 
1.0 1:10.0 2:0.0 3:0.0 4:0.0 
1.0 1:26.0 2:0.0 3:0.0 4:0.0 
1.0 1:5.0 2:0.0 3:0.0 4:0.0 
1.0 1:4.0 2:0.0 3:0.0 4:0.0 
1.0 1:5.0 2:0.0 3:0.0 4:0.0 
1.0 1:6.0 2:0.0 3:0.0 4:0.0 
1.0 1:3.0 2:0.0 3:0.0 4:0.0 
1.0 1:3.0 2:0.0 3:0.0 4:0.0 
1.0 1:4.0 2:0.0 3:0.0 4:0.0 
1.0 1:7.0 2:0.0 3:0.0 4:0.0 
1.0 1:5.0 2:0.0 3:0.0 4:0.0 
1.0 1:7.0 2:0.0 3:0.0 4:0.0 
1.0 1:4.0 2:0.0 3:0.0 4:0.0 
1.0 1:8.0 2:0.0 3:0.0 4:0.0 
1.0 1:5.0 2:0.0 3:0.0 4:0.0 
1.0 1:5.0 2:0.0 3:0.0 4:0.0 
1.0 1:8.0 2:0.0 3:0.0 4:0.0 
1.0 1:3.0 2:0.0 3:0.0 4:0.0 
1.0 1:3.0 2:0.0 3:0.0 4:0.0 
1.0 1:5.0 2:0.0 3:0.0 4:0.0 
1.0 1:3.0 2:0.0 3:0.0 4:0.0 
1.0 1:14.0 2:0.0 3:0.0 4:0.0 
1.0 1:3.0 2:0.0 3:0.0 4:0.0 
1.0 1:7.0 2:0.0 3:0.0 4:0.0 
1.0 1:8.0 2:0.0 3:0.0 4:0.0 
1.0 1:7.0 2:0.0 3:0.0 4:0.0 
1.0 1:5.0 2:0.0 3:0.0 4:0.0 
1.0 1:5.0 2:0.0 3:0.0 4:0.0 
1.0 1:3.0 2:0.0 3:0.0 4:0.0 
0.2086921048993832 1:10.0 2:0.0 3:0.0 4:0.0 
1.0 1:3.0 2:0.0 3:0.0 4:0.0 
1.0 1:11.0 2:0.0 3:0.0 4:0.0 
1.0 1:3.0 2:0.0 3:0.0 4:0.0 
1.0 1:5.0 2:0.0 3:0.0 4:0.0 
1.0 1:9.0 2:0.0 3:0.0 4:0.0 
1.0 1:3.0 2:0.0 3:0.0 4:0.0 
1.0 1:3.0 2:0.0 3:0.0 4:0.0 
1.0 1:4.0 2:0.0 3:0.0 4:0.0 
1.0 1:4.0 2:0.0 3:0.0 4:0.0 
1.0 1:3.0 2:0.0 3:0.0 4:0.0 
1.0 1:4.0 2:0.0 3:0.0 4:0.0 
1.0 1:6.0 2:0.0 3:0.0 4:0.0 
1.0 1:5.0 2:0.0 3:0.0 4:0.0 
1.0 1:5.0 2:0.0 3:0.0 4:0.0 
1.0 1:4.0 2:0.0 3:0.0 4:0.0 
1.0 1:14.0 2:0.0 3:0.0 4:0.0 
1.0 1:11.0 2:0.0 3:0.0 4:0.0 
1.0 1:3.0 2:0.0 3:0.0 4:0.0 
1.0 1:3.0 2:0.0 3:0.0 4:0.0 
1.0 1:3.0 2:0.0 3:0.0 4:0.0 
1.0 1:3.0 2:0.0 3:0.0 4:0.0 
1.0 1:3.0 2:0.0 3:0.0 4:0.0 
0.8451624674934249 1:8.0 2:0.0 3:0.0 4:0.0 
1.0 1:3.0 2:0.0 3:0.0 4:0.0 
1.0 1:3.0 2:0.0 3:0.0 4:0.0 
1.0 1:3.0 2:0.0 3:0.0 4:0.0 
1.0 1:3.0 2:0.0 3:0.0 4:0.0 
1.0 1:3.0 2:0.0 3:0.0 4:0.0 
1.0 1:3.0 2:0.0 3:0.0 4:0.0 
1.0 1:17.0 2:0.0 3:0.0 4:0.0 
1.0 1:5.0 2:0.0 3:0.0 4:0.0 
1.0 1:7.0 2:0.0 3:0.0 4:0.0 
1.0 1:3.0 2:0.0 3:0.0 4:0.0 
1.0 1:3.0 2:0.0 3:0.0 4:0.0 
1.0 1:3.0 2:0.0 3:0.0 4:0.0 
1.0 1:4.0 2:0.0 3:0.0 4:0.0 
1.0 1:3.0 2:0.0 3:0.0 4:0.0 
1.0 1:5.0 2:0.0 3:0.0 4:0.0 
1.0 1:3.0 2:0.0 3:0.0 4:0.0 
1.0 1:3.0 2:0.0 3:0.0 4:0.0 
1.0 1:7.0 2:0.0 3:0.0 4:0.0 
1.0 1:3.0 2:0.0 3:0.0 4:0.0 
1.0 1:3.0 2:0.0 3:0.0 4:0.0 
0.9549032874507131 1:12.0 2:0.0 3:0.0 4:1.0 
1.0 1:7.0 2:0.0 3:0.0 4:0.0 
1.0 1:6.0 2:0.0 3:0.0 4:0.0 
1.0 1:5.0 2:0.0 3:0.0 4:0.0 
1.0 1:3.0 2:0.0 3:0.0 4:0.0 
1.0 1:6.0 2:0.0 3:0.0 4:0.0 
1.0 1:4.0 2:0.0 3:0.0 4:0.0 
1.0 1:11.0 2:0.0 3:0.0 4:0.0 
1.0 1:67.0 2:0.0 3:0.0 4:0.0 
1.0 1:3.0 2:0.0 3:0.0 4:0.0 
1.0 1:15.0 2:0.0 3:0.0 4:0.0 
1.0 1:3.0 2:0.0 3:0.0 4:0.0 
1.0 1:11.0 2:0.0 3:0.0 4:0.0 
1.0 1:3.0 2:0.0 3:0.0 4:0.0 
1.0 1:4.0 2:0.0 3:0.0 4:0.0 
1.0 1:4.0 2:0.0 3:0.0 4:0.0 
1.0 1:5.0 2:0.0 3:0.0 4:0.0 
1.0 1:4.0 2:0.0 3:0.0 4:0.0 
1.0 1:4.0 2:0.0 3:0.0 4:0.0 
1.0 1:3.0 2:0.0 3:0.0 4:0.0 
1.0 1:3.0 2:0.0 3:0.0 4:0.0 
1.0 1:7.0 2:0.0 3:0.0 4:0.0 
1.0 1:3.0 2:0.0 3:0.0 4:0.0 
1.0 1:3.0 2:0.0 3:0.0 4:0.0 
1.0 1:3.0 2:0.0 3:0.0 4:0.0 
1.0 1:6.0 2:0.0 3:0.0 4:0.0 
1.0 1:3.0 2:0.0 3:0.0 4:0.0 
1.0 1:5.0 2:0.0 3:0.0 4:0.0 
1.0 1:13.0 2:0.0 3:0.0 4:0.0 
1.0 1:13.0 2:0.0 3:0.0 4:0.0 
1.0 1:3.0 2:0.0 3:0.0 4:0.0 
1.0 1:4.0 2:0.0 3:0.0 4:0.0 
1.0 1:3.0 2:0.0 3:0.0 4:0.0 
1.0 1:11.0 2:0.0 3:0.0 4:0.0 
1.0 1:4.0 2:0.0 3:0.0 4:0.0 
1.0 1:20.0 2:0.0 3:0.0 4:0.0 
1.0 1:3.0 2:0.0 3:0.0 4:0.0 
1.0 1:4.0 2:0.0 3:0.0 4:0.0 
1.0 1:11.0 2:0.0 3:0.0 4:0.0 
1.0 1:4.0 2:0.0 3:0.0 4:0.0 
1.0 1:4.0 2:0.0 3:0.0 4:0.0 
1.0 1:3.0 2:0.0 3:0.0 4:0.0 
1.0 1:4.0 2:0.0 3:0.0 4:0.0 
1.0 1:25.0 2:0.0 3:0.0 4:0.0 
1.0 1:3.0 2:0.0 3:0.0 4:0.0 
0.9924551034533345 1:3.0 2:0.0 3:1.0 4:0.0 
1.0 1:3.0 2:0.0 3:0.0 4:0.0 
1.0 1:4.0 2:0.0 3:0.0 4:0.0 
1.0 1:4.0 2:0.0 3:0.0 4:0.0 
1.0 1:7.0 2:0.0 3:0.0 4:0.0 
1.0 1:7.0 2:0.0 3:0.0 4:0.0 
1.0 1:6.0 2:0.0 3:0.0 4:0.0 
1.0 1:5.0 2:0.0 3:0.0 4:0.0 
1.0 1:3.0 2:0.0 3:0.0 4:0.0 
1.0 1:3.0 2:0.0 3:0.0 4:0.0 
1.0 1:15.0 2:0.0 3:0.0 4:0.0 
1.0 1:15.0 2:0.0 3:0.0 4:0.0 
1.0 1:26.0 2:0.0 3:0.0 4:0.0 
1.0 1:3.0 2:0.0 3:0.0 4:0.0 
1.0 1:3.0 2:0.0 3:0.0 4:0.0 
1.0 1:4.0 2:0.0 3:0.0 4:0.0 
1.0 1:7.0 2:0.0 3:0.0 4:0.0 
1.0 1:4.0 2:0.0 3:0.0 4:0.0 
1.0 1:3.0 2:0.0 3:0.0 4:0.0 
1.0 1:9.0 2:0.0 3:0.0 4:0.0 
1.0 1:4.0 2:0.0 3:0.0 4:0.0 
1.0 1:6.0 2:0.0 3:0.0 4:0.0 
1.0 1:3.0 2:0.0 3:0.0 4:0.0 
1.0 1:4.0 2:0.0 3:0.0 4:0.0 
1.0 1:9.0 2:0.0 3:0.0 4:0.0 
1.0 1:5.0 2:0.0 3:0.0 4:0.0 
0.32469057984966215 1:4.0 2:0.0 3:1.0 4:0.0 
1.0 1:22.0 2:0.0 3:0.0 4:0.0 
1.0 1:3.0 2:0.0 3:0.0 4:0.0 
1.0 1:5.0 2:0.0 3:0.0 4:0.0 
1.0 1:4.0 2:0.0 3:0.0 4:0.0 
1.0 1:6.0 2:0.0 3:0.0 4:0.0 
1.0 1:0.0 2:0.0 3:1.0 4:0.0 
1.0 1:3.0 2:0.0 3:0.0 4:0.0 
1.0 1:4.0 2:0.0 3:0.0 4:0.0 
1.0 1:7.0 2:0.0 3:0.0 4:0.0 
1.0 1:15.0 2:0.0 3:0.0 4:0.0 
1.0 1:3.0 2:0.0 3:0.0 4:0.0 
0.6959596801202896 1:16.0 2:0.0 3:0.0 4:0.0 
1.0 1:4.0 2:0.0 3:0.0 4:0.0 
1.0 1:5.0 2:0.0 3:0.0 4:0.0 
1.0 1:5.0 2:0.0 3:0.0 4:0.0 
1.0 1:7.0 2:0.0 3:0.0 4:0.0 
1.0 1:3.0 2:0.0 3:0.0 4:0.0 
1.0 1:13.0 2:0.0 3:0.0 4:0.0 
1.0 1:5.0 2:0.0 3:0.0 4:0.0 
1.0 1:4.0 2:0.0 3:0.0 4:0.0 
1.0 1:14.0 2:0.0 3:0.0 4:0.0 
1.0 1:4.0 2:0.0 3:0.0 4:0.0 
1.0 1:5.0 2:0.0 3:0.0 4:0.0 
1.0 1:29.0 2:0.0 3:0.0 4:0.0 
1.0 1:12.0 2:0.0 3:0.0 4:0.0 
1.0 1:3.0 2:0.0 3:0.0 4:0.0 
1.0 1:3.0 2:0.0 3:0.0 4:0.0 
1.0 1:5.0 2:0.0 3:0.0 4:0.0 
1.0 1:5.0 2:0.0 3:0.0 4:0.0 
1.0 1:4.0 2:0.0 3:0.0 4:0.0 
1.0 1:4.0 2:0.0 3:0.0 4:0.0 
1.0 1:9.0 2:0.0 3:0.0 4:0.0 
1.0 1:3.0 2:0.0 3:0.0 4:0.0 
1.0 1:3.0 2:0.0 3:0.0 4:0.0 
1.0 1:4.0 2:0.0 3:0.0 4:0.0 
1.0 1:7.0 2:0.0 3:0.0 4:0.0 
1.0 1:4.0 2:0.0 3:0.0 4:0.0 
1.0 1:6.0 2:0.0 3:0.0 4:0.0 
1.0 1:11.0 2:0.0 3:0.0 4:0.0 
1.0 1:5.0 2:0.0 3:1.0 4:0.0 
1.0 1:9.0 2:0.0 3:0.0 4:0.0 
1.0 1:6.0 2:0.0 3:0.0 4:0.0 
1.0 1:4.0 2:0.0 3:0.0 4:0.0 
1.0 1:3.0 2:0.0 3:0.0 4:0.0 
1.0 1:5.0 2:0.0 3:0.0 4:0.0 
1.0 1:3.0 2:0.0 3:0.0 4:0.0 
1.0 1:29.0 2:0.0 3:0.0 4:0.0 
1.0 1:3.0 2:0.0 3:0.0 4:0.0 
1.0 1:3.0 2:0.0 3:0.0 4:0.0 
1.0 1:3.0 2:0.0 3:0.0 4:0.0 
1.0 1:3.0 2:0.0 3:0.0 4:0.0 
1.0 1:4.0 2:0.0 3:0.0 4:0.0 
1.0 1:4.0 2:0.0 3:0.0 4:0.0 
1.0 1:3.0 2:0.0 3:0.0 4:0.0 
1.0 1:3.0 2:0.0 3:0.0 4:0.0 
1.0 1:3.0 2:0.0 3:0.0 4:0.0 
1.0 1:7.0 2:0.0 3:0.0 4:0.0 
1.0 1:4.0 2:0.0 3:0.0 4:0.0 
1.0 1:4.0 2:0.0 3:0.0 4:0.0 
1.0 1:4.0 2:0.0 3:0.0 4:0.0 
1.0 1:3.0 2:0.0 3:0.0 4:0.0 
1.0 1:3.0 2:0.0 3:0.0 4:0.0 
1.0 1:3.0 2:0.0 3:0.0 4:0.0 
1.0 1:3.0 2:0.0 3:0.0 4:0.0 
1.0 1:4.0 2:0.0 3:0.0 4:0.0 
1.0 1:7.0 2:0.0 3:0.0 4:0.0 
1.0 1:4.0 2:0.0 3:0.0 4:0.0 
1.0 1:3.0 2:0.0 3:0.0 4:0.0 
1.0 1:4.0 2:0.0 3:0.0 4:0.0 
1.0 1:3.0 2:0.0 3:0.0 4:0.0 
1.0 1:4.0 2:0.0 3:0.0 4:0.0 
1.0 1:4.0 2:0.0 3:0.0 4:0.0 
1.0 1:3.0 2:0.0 3:0.0 4:0.0 
1.0 1:3.0 2:0.0 3:0.0 4:0.0 
1.0 1:27.0 2:0.0 3:0.0 4:0.0 
1.0 1:4.0 2:0.0 3:0.0 4:0.0 
1.0 1:7.0 2:0.0 3:0.0 4:0.0 
1.0 1:5.0 2:0.0 3:0.0 4:0.0 
1.0 1:11.0 2:0.0 3:0.0 4:0.0 
1.0 1:4.0 2:0.0 3:0.0 4:0.0 
1.0 1:4.0 2:0.0 3:0.0 4:0.0 
1.0 1:4.0 2:0.0 3:0.0 4:0.0 
1.0 1:3.0 2:0.0 3:0.0 4:0.0 
1.0 1:3.0 2:0.0 3:0.0 4:0.0 
1.0 1:4.0 2:0.0 3:0.0 4:0.0 
1.0 1:3.0 2:0.0 3:0.0 4:0.0 
1.0 1:3.0 2:0.0 3:0.0 4:0.0 
1.0 1:7.0 2:0.0 3:0.0 4:0.0 
1.0 1:12.0 2:0.0 3:0.0 4:0.0 
1.0 1:4.0 2:0.0 3:0.0 4:0.0 
1.0 1:4.0 2:0.0 3:0.0 4:0.0 
1.0 1:4.0 2:0.0 3:0.0 4:0.0 
1.0 1:3.0 2:0.0 3:0.0 4:0.0 
1.0 1:4.0 2:0.0 3:0.0 4:0.0 
1.0 1:4.0 2:0.0 3:0.0 4:0.0 
1.0 1:7.0 2:0.0 3:0.0 4:0.0 
1.0 1:3.0 2:0.0 3:0.0 4:0.0 
1.0 1:15.0 2:0.0 3:0.0 4:0.0 
1.0 1:12.0 2:0.0 3:0.0 4:0.0 
1.0 1:3.0 2:0.0 3:0.0 4:0.0 
1.0 1:7.0 2:0.0 3:1.0 4:0.0 
1.0 1:4.0 2:0.0 3:0.0 4:0.0 
0.00818525080113286 1:12.0 2:0.0 3:0.0 4:0.0 
0.5757111535848994 1:6.0 2:0.0 3:0.0 4:0.0 
1.0 1:3.0 2:0.0 3:0.0 4:0.0 
1.0 1:3.0 2:0.0 3:0.0 4:0.0 
1.0 1:5.0 2:0.0 3:0.0 4:0.0 
1.0 1:5.0 2:0.0 3:1.0 4:0.0 
1.0 1:9.0 2:0.0 3:0.0 4:0.0 
1.0 1:4.0 2:0.0 3:0.0 4:0.0 
1.0 1:4.0 2:0.0 3:0.0 4:0.0 
1.0 1:4.0 2:0.0 3:0.0 4:0.0 
1.0 1:3.0 2:0.0 3:0.0 4:0.0 
1.0 1:3.0 2:0.0 3:0.0 4:0.0 
1.0 1:4.0 2:0.0 3:0.0 4:0.0 
1.0 1:4.0 2:0.0 3:0.0 4:0.0 
1.0 1:3.0 2:0.0 3:0.0 4:0.0 
1.0 1:3.0 2:0.0 3:0.0 4:0.0 
1.0 1:4.0 2:0.0 3:0.0 4:0.0 
1.0 1:7.0 2:0.0 3:0.0 4:0.0 
1.0 1:7.0 2:0.0 3:1.0 4:0.0 
1.0 1:5.0 2:0.0 3:0.0 4:0.0 
1.0 1:2.0 2:0.0 3:0.0 4:0.0 
1.0 1:2.0 2:0.0 3:0.0 4:0.0 
1.0 1:2.0 2:0.0 3:0.0 4:0.0 
1.0 1:2.0 2:0.0 3:0.0 4:0.0 
1.0 1:2.0 2:0.0 3:0.0 4:0.0 
1.0 1:2.0 2:0.0 3:0.0 4:0.0 
1.0 1:2.0 2:0.0 3:0.0 4:0.0 
1.0 1:2.0 2:0.0 3:0.0 4:0.0 
1.0 1:3.0 2:0.0 3:0.0 4:0.0 
1.0 1:2.0 2:0.0 3:0.0 4:0.0 
1.0 1:5.0 2:0.0 3:0.0 4:0.0 
1.0 1:2.0 2:0.0 3:0.0 4:0.0 
1.0 1:2.0 2:0.0 3:0.0 4:0.0 
1.0 1:5.0 2:0.0 3:0.0 4:0.0 
1.0 1:2.0 2:0.0 3:0.0 4:0.0 
1.0 1:2.0 2:0.0 3:0.0 4:0.0 
1.0 1:3.0 2:0.0 3:0.0 4:0.0 
1.0 1:4.0 2:0.0 3:0.0 4:0.0 
1.0 1:4.0 2:0.0 3:0.0 4:0.0 
1.0 1:4.0 2:0.0 3:0.0 4:0.0 
1.0 1:3.0 2:0.0 3:0.0 4:0.0 
1.0 1:15.0 2:0.0 3:0.0 4:0.0 
1.0 1:2.0 2:0.0 3:0.0 4:0.0 
1.0 1:2.0 2:0.0 3:0.0 4:0.0 
1.0 1:2.0 2:0.0 3:0.0 4:0.0 
1.0 1:5.0 2:0.0 3:0.0 4:0.0 
1.0 1:3.0 2:0.0 3:0.0 4:0.0 
1.0 1:4.0 2:0.0 3:0.0 4:0.0 
1.0 1:2.0 2:0.0 3:0.0 4:0.0 
1.0 1:4.0 2:0.0 3:0.0 4:0.0 
1.0 1:2.0 2:0.0 3:0.0 4:0.0 
1.0 1:2.0 2:0.0 3:0.0 4:0.0 
1.0 1:3.0 2:0.0 3:0.0 4:0.0 
1.0 1:7.0 2:0.0 3:0.0 4:0.0 
1.0 1:3.0 2:0.0 3:0.0 4:0.0 
1.0 1:4.0 2:0.0 3:0.0 4:0.0 
1.0 1:2.0 2:0.0 3:0.0 4:0.0 
1.0 1:2.0 2:0.0 3:0.0 4:0.0 
1.0 1:4.0 2:0.0 3:0.0 4:0.0 
1.0 1:2.0 2:0.0 3:0.0 4:0.0 
1.0 1:3.0 2:0.0 3:0.0 4:0.0 
1.0 1:2.0 2:0.0 3:0.0 4:0.0 
1.0 1:3.0 2:0.0 3:0.0 4:0.0 
1.0 1:3.0 2:0.0 3:0.0 4:0.0 
1.0 1:2.0 2:0.0 3:0.0 4:0.0 
1.0 1:2.0 2:0.0 3:0.0 4:0.0 
1.0 1:2.0 2:0.0 3:0.0 4:0.0 
1.0 1:7.0 2:0.0 3:0.0 4:0.0 
1.0 1:5.0 2:0.0 3:0.0 4:0.0 
1.0 1:2.0 2:0.0 3:0.0 4:0.0 
1.0 1:2.0 2:0.0 3:0.0 4:0.0 
1.0 1:4.0 2:0.0 3:0.0 4:0.0 
1.0 1:2.0 2:0.0 3:0.0 4:0.0 
1.0 1:2.0 2:0.0 3:0.0 4:0.0 
1.0 1:4.0 2:0.0 3:0.0 4:0.0 
1.0 1:2.0 2:0.0 3:0.0 4:0.0 
1.0 1:3.0 2:0.0 3:0.0 4:0.0 
1.0 1:2.0 2:0.0 3:0.0 4:0.0 
1.0 1:2.0 2:0.0 3:0.0 4:0.0 
1.0 1:3.0 2:0.0 3:0.0 4:0.0 
1.0 1:3.0 2:0.0 3:0.0 4:0.0 
1.0 1:17.0 2:0.0 3:0.0 4:0.0 
1.0 1:4.0 2:0.0 3:0.0 4:0.0 
1.0 1:2.0 2:0.0 3:0.0 4:0.0 
1.0 1:2.0 2:0.0 3:0.0 4:0.0 
1.0 1:2.0 2:0.0 3:0.0 4:0.0 
1.0 1:2.0 2:0.0 3:0.0 4:0.0 
1.0 1:3.0 2:0.0 3:0.0 4:0.0 
1.0 1:2.0 2:0.0 3:0.0 4:0.0 
1.0 1:3.0 2:0.0 3:0.0 4:0.0 
1.0 1:4.0 2:0.0 3:0.0 4:0.0 
1.0 1:3.0 2:0.0 3:0.0 4:0.0 
1.0 1:5.0 2:0.0 3:0.0 4:0.0 
1.0 1:2.0 2:0.0 3:0.0 4:0.0 
1.0 1:2.0 2:0.0 3:0.0 4:0.0 
1.0 1:2.0 2:0.0 3:0.0 4:0.0 
1.0 1:2.0 2:0.0 3:0.0 4:0.0 
1.0 1:2.0 2:0.0 3:0.0 4:0.0 
1.0 1:5.0 2:0.0 3:0.0 4:0.0 
1.0 1:5.0 2:0.0 3:0.0 4:0.0 
1.0 1:2.0 2:0.0 3:0.0 4:0.0 
1.0 1:7.0 2:0.0 3:0.0 4:0.0 
1.0 1:4.0 2:0.0 3:0.0 4:0.0 
1.0 1:2.0 2:0.0 3:0.0 4:0.0 
1.0 1:2.0 2:0.0 3:0.0 4:0.0 
1.0 1:3.0 2:0.0 3:0.0 4:0.0 
1.0 1:2.0 2:0.0 3:0.0 4:0.0 
1.0 1:2.0 2:0.0 3:0.0 4:0.0 
1.0 1:4.0 2:0.0 3:0.0 4:0.0 
1.0 1:5.0 2:0.0 3:0.0 4:0.0 
1.0 1:2.0 2:0.0 3:0.0 4:0.0 
1.0 1:5.0 2:0.0 3:0.0 4:0.0 
1.0 1:4.0 2:0.0 3:0.0 4:0.0 
1.0 1:3.0 2:0.0 3:0.0 4:0.0 
1.0 1:2.0 2:0.0 3:0.0 4:0.0 
1.0 1:3.0 2:0.0 3:0.0 4:0.0 
1.0 1:2.0 2:0.0 3:0.0 4:0.0 
1.0 1:2.0 2:0.0 3:0.0 4:0.0 
1.0 1:2.0 2:0.0 3:0.0 4:0.0 
1.0 1:4.0 2:0.0 3:0.0 4:0.0 
1.0 1:3.0 2:0.0 3:0.0 4:0.0 
1.0 1:5.0 2:0.0 3:0.0 4:0.0 
0.55395431468937 1:0.0 2:0.0 3:1.0 4:0.0 
1.0 1:5.0 2:0.0 3:0.0 4:0.0 
1.0 1:2.0 2:0.0 3:0.0 4:0.0 
1.0 1:5.0 2:0.0 3:0.0 4:0.0 
1.0 1:5.0 2:0.0 3:0.0 4:0.0 
1.0 1:3.0 2:0.0 3:0.0 4:0.0 
1.0 1:3.0 2:0.0 3:0.0 4:0.0 
1.0 1:3.0 2:0.0 3:0.0 4:0.0 
1.0 1:14.0 2:0.0 3:0.0 4:0.0 
1.0 1:3.0 2:0.0 3:0.0 4:0.0 
1.0 1:2.0 2:0.0 3:0.0 4:0.0 
1.0 1:4.0 2:0.0 3:0.0 4:0.0 
1.0 1:2.0 2:0.0 3:0.0 4:0.0 
1.0 1:2.0 2:0.0 3:0.0 4:0.0 
1.0 1:3.0 2:0.0 3:0.0 4:0.0 
1.0 1:2.0 2:0.0 3:0.0 4:0.0 
1.0 1:2.0 2:0.0 3:0.0 4:0.0 
1.0 1:4.0 2:0.0 3:0.0 4:0.0 
1.0 1:2.0 2:0.0 3:0.0 4:0.0 
1.0 1:4.0 2:0.0 3:0.0 4:0.0 
1.0 1:2.0 2:0.0 3:0.0 4:0.0 
1.0 1:2.0 2:0.0 3:0.0 4:0.0 
1.0 1:2.0 2:0.0 3:0.0 4:0.0 
1.0 1:7.0 2:0.0 3:0.0 4:0.0 
1.0 1:4.0 2:0.0 3:0.0 4:0.0 
1.0 1:2.0 2:0.0 3:0.0 4:0.0 
1.0 1:2.0 2:0.0 3:0.0 4:0.0 
1.0 1:4.0 2:0.0 3:0.0 4:0.0 
1.0 1:4.0 2:0.0 3:0.0 4:0.0 
1.0 1:5.0 2:0.0 3:0.0 4:0.0 
1.0 1:2.0 2:0.0 3:0.0 4:0.0 
1.0 1:2.0 2:0.0 3:0.0 4:0.0 
1.0 1:2.0 2:0.0 3:0.0 4:0.0 
1.0 1:2.0 2:0.0 3:0.0 4:0.0 
1.0 1:2.0 2:0.0 3:0.0 4:0.0 
1.0 1:4.0 2:0.0 3:0.0 4:0.0 
1.0 1:2.0 2:0.0 3:0.0 4:0.0 
1.0 1:2.0 2:0.0 3:0.0 4:0.0 
1.0 1:2.0 2:0.0 3:0.0 4:0.0 
1.0 1:4.0 2:0.0 3:0.0 4:0.0 
1.0 1:2.0 2:0.0 3:0.0 4:0.0 
1.0 1:3.0 2:0.0 3:0.0 4:0.0 
1.0 1:2.0 2:0.0 3:0.0 4:0.0 
1.0 1:2.0 2:0.0 3:0.0 4:0.0 
1.0 1:2.0 2:0.0 3:0.0 4:0.0 
1.0 1:2.0 2:0.0 3:1.0 4:0.0 
1.0 1:3.0 2:0.0 3:0.0 4:0.0 
1.0 1:9.0 2:0.0 3:0.0 4:0.0 
1.0 1:2.0 2:0.0 3:0.0 4:0.0 
1.0 1:2.0 2:0.0 3:0.0 4:0.0 
1.0 1:2.0 2:0.0 3:0.0 4:0.0 
1.0 1:5.0 2:0.0 3:0.0 4:0.0 
1.0 1:2.0 2:0.0 3:0.0 4:0.0 
1.0 1:4.0 2:0.0 3:0.0 4:0.0 
1.0 1:4.0 2:0.0 3:0.0 4:0.0 
1.0 1:3.0 2:0.0 3:0.0 4:0.0 
1.0 1:2.0 2:0.0 3:0.0 4:0.0 
1.0 1:2.0 2:0.0 3:0.0 4:0.0 
1.0 1:2.0 2:0.0 3:0.0 4:0.0 
1.0 1:5.0 2:0.0 3:0.0 4:0.0 
1.0 1:2.0 2:0.0 3:0.0 4:0.0 
1.0 1:9.0 2:0.0 3:0.0 4:0.0 
1.0 1:2.0 2:0.0 3:0.0 4:0.0 
1.0 1:4.0 2:0.0 3:0.0 4:0.0 
1.0 1:3.0 2:0.0 3:0.0 4:0.0 
1.0 1:2.0 2:0.0 3:0.0 4:0.0 
1.0 1:3.0 2:0.0 3:0.0 4:0.0 
1.0 1:7.0 2:0.0 3:0.0 4:0.0 
1.0 1:4.0 2:0.0 3:0.0 4:0.0 
1.0 1:2.0 2:0.0 3:0.0 4:0.0 
1.0 1:4.0 2:0.0 3:0.0 4:0.0 
1.0 1:3.0 2:0.0 3:0.0 4:0.0 
1.0 1:2.0 2:0.0 3:0.0 4:0.0 
1.0 1:2.0 2:0.0 3:0.0 4:0.0 
1.0 1:2.0 2:0.0 3:0.0 4:0.0 
1.0 1:2.0 2:0.0 3:0.0 4:0.0 
1.0 1:2.0 2:0.0 3:0.0 4:0.0 
1.0 1:3.0 2:0.0 3:0.0 4:0.0 
1.0 1:2.0 2:0.0 3:0.0 4:0.0 
1.0 1:3.0 2:0.0 3:0.0 4:0.0 
1.0 1:3.0 2:0.0 3:0.0 4:0.0 
1.0 1:3.0 2:0.0 3:0.0 4:0.0 
1.0 1:2.0 2:0.0 3:0.0 4:0.0 
1.0 1:3.0 2:0.0 3:0.0 4:0.0 
1.0 1:2.0 2:0.0 3:0.0 4:0.0 
1.0 1:2.0 2:0.0 3:0.0 4:0.0 
1.0 1:3.0 2:0.0 3:0.0 4:0.0 
1.0 1:3.0 2:0.0 3:0.0 4:0.0 
1.0 1:3.0 2:0.0 3:0.0 4:0.0 
1.0 1:3.0 2:0.0 3:0.0 4:0.0 
1.0 1:2.0 2:0.0 3:0.0 4:0.0 
0.5326936648590351 1:4.0 2:0.0 3:0.0 4:0.0 
1.0 1:36.0 2:0.0 3:0.0 4:0.0 
1.0 1:2.0 2:0.0 3:0.0 4:0.0 
1.0 1:5.0 2:0.0 3:0.0 4:0.0 
1.0 1:2.0 2:0.0 3:0.0 4:0.0 
1.0 1:2.0 2:0.0 3:0.0 4:0.0 
1.0 1:2.0 2:0.0 3:0.0 4:0.0 
1.0 1:7.0 2:0.0 3:0.0 4:0.0 
1.0 1:5.0 2:0.0 3:0.0 4:0.0 
1.0 1:2.0 2:0.0 3:0.0 4:0.0 
1.0 1:15.0 2:0.0 3:0.0 4:0.0 
1.0 1:2.0 2:0.0 3:0.0 4:0.0 
1.0 1:3.0 2:0.0 3:0.0 4:0.0 
1.0 1:2.0 2:0.0 3:0.0 4:0.0 
1.0 1:2.0 2:0.0 3:0.0 4:0.0 
1.0 1:2.0 2:0.0 3:0.0 4:0.0 
1.0 1:3.0 2:0.0 3:0.0 4:0.0 
1.0 1:3.0 2:0.0 3:0.0 4:0.0 
1.0 1:5.0 2:0.0 3:0.0 4:0.0 
1.0 1:2.0 2:0.0 3:0.0 4:0.0 
1.0 1:2.0 2:0.0 3:1.0 4:0.0 
1.0 1:2.0 2:0.0 3:0.0 4:0.0 
1.0 1:3.0 2:0.0 3:0.0 4:0.0 
1.0 1:14.0 2:0.0 3:0.0 4:0.0 
1.0 1:3.0 2:0.0 3:0.0 4:0.0 
1.0 1:7.0 2:0.0 3:0.0 4:0.0 
1.0 1:2.0 2:0.0 3:0.0 4:0.0 
1.0 1:2.0 2:0.0 3:0.0 4:0.0 
1.0 1:2.0 2:0.0 3:0.0 4:0.0 
1.0 1:2.0 2:0.0 3:0.0 4:0.0 
1.0 1:2.0 2:0.0 3:0.0 4:0.0 
1.0 1:2.0 2:0.0 3:0.0 4:0.0 
1.0 1:3.0 2:0.0 3:0.0 4:0.0 
1.0 1:5.0 2:0.0 3:0.0 4:0.0 
0.9099357571881672 1:24.0 2:0.0 3:0.0 4:0.0 
1.0 1:3.0 2:0.0 3:0.0 4:0.0 
1.0 1:2.0 2:0.0 3:0.0 4:0.0 
1.0 1:3.0 2:0.0 3:0.0 4:0.0 
0.9431109415654806 1:5.0 2:0.0 3:1.0 4:0.0 
1.0 1:3.0 2:0.0 3:0.0 4:0.0 
1.0 1:3.0 2:0.0 3:0.0 4:0.0 
1.0 1:9.0 2:0.0 3:0.0 4:0.0 
1.0 1:3.0 2:0.0 3:0.0 4:0.0 
1.0 1:3.0 2:0.0 3:0.0 4:0.0 
1.0 1:2.0 2:0.0 3:0.0 4:0.0 
1.0 1:2.0 2:0.0 3:0.0 4:0.0 
1.0 1:3.0 2:0.0 3:0.0 4:0.0 
1.0 1:2.0 2:0.0 3:0.0 4:0.0 
1.0 1:2.0 2:0.0 3:0.0 4:0.0 
1.0 1:7.0 2:0.0 3:0.0 4:0.0 
1.0 1:2.0 2:0.0 3:0.0 4:0.0 
1.0 1:2.0 2:0.0 3:0.0 4:0.0 
1.0 1:5.0 2:0.0 3:0.0 4:0.0 
1.0 1:3.0 2:0.0 3:0.0 4:0.0 
1.0 1:3.0 2:0.0 3:0.0 4:0.0 
1.0 1:2.0 2:0.0 3:0.0 4:0.0 
1.0 1:2.0 2:0.0 3:0.0 4:0.0 
1.0 1:2.0 2:0.0 3:0.0 4:0.0 
1.0 1:2.0 2:0.0 3:0.0 4:0.0 
1.0 1:2.0 2:0.0 3:0.0 4:0.0 
1.0 1:2.0 2:0.0 3:0.0 4:0.0 
1.0 1:5.0 2:0.0 3:0.0 4:0.0 
1.0 1:2.0 2:0.0 3:0.0 4:0.0 
1.0 1:2.0 2:0.0 3:0.0 4:0.0 
1.0 1:7.0 2:0.0 3:0.0 4:0.0 
1.0 1:2.0 2:0.0 3:0.0 4:0.0 
1.0 1:3.0 2:0.0 3:0.0 4:0.0 
0.6833578873571976 1:1.0 2:0.0 3:0.0 4:0.0 
1.0 1:1.0 2:0.0 3:0.0 4:0.0 
1.0 1:9.0 2:0.0 3:0.0 4:0.0 
1.0 1:2.0 2:0.0 3:0.0 4:0.0 
1.0 1:1.0 2:0.0 3:0.0 4:0.0 
1.0 1:2.0 2:0.0 3:0.0 4:0.0 
1.0 1:3.0 2:0.0 3:0.0 4:0.0 
0.6802988021798779 1:7.0 2:0.0 3:1.0 4:0.0 
1.0 1:1.0 2:0.0 3:0.0 4:0.0 
1.0 1:1.0 2:0.0 3:0.0 4:0.0 
1.0 1:1.0 2:0.0 3:0.0 4:0.0 
1.0 1:1.0 2:0.0 3:0.0 4:0.0 
1.0 1:5.0 2:0.0 3:0.0 4:0.0 
1.0 1:2.0 2:0.0 3:0.0 4:0.0 
1.0 1:1.0 2:0.0 3:0.0 4:0.0 
1.0 1:2.0 2:0.0 3:0.0 4:0.0 
1.0 1:2.0 2:0.0 3:0.0 4:0.0 
1.0 1:2.0 2:0.0 3:0.0 4:0.0 
1.0 1:1.0 2:0.0 3:0.0 4:0.0 
1.0 1:1.0 2:0.0 3:0.0 4:0.0 
1.0 1:1.0 2:0.0 3:0.0 4:0.0 
1.0 1:2.0 2:0.0 3:0.0 4:0.0 
1.0 1:1.0 2:0.0 3:0.0 4:0.0 
1.0 1:1.0 2:0.0 3:0.0 4:0.0 
1.0 1:1.0 2:0.0 3:0.0 4:0.0 
1.0 1:2.0 2:0.0 3:0.0 4:0.0 
1.0 1:1.0 2:0.0 3:0.0 4:0.0 
1.0 1:2.0 2:0.0 3:0.0 4:0.0 
1.0 1:3.0 2:0.0 3:0.0 4:0.0 
1.0 1:1.0 2:0.0 3:0.0 4:0.0 
1.0 1:1.0 2:0.0 3:0.0 4:0.0 
1.0 1:1.0 2:0.0 3:0.0 4:0.0 
1.0 1:1.0 2:0.0 3:0.0 4:0.0 
1.0 1:2.0 2:0.0 3:0.0 4:0.0 
1.0 1:3.0 2:0.0 3:0.0 4:0.0 
1.0 1:3.0 2:0.0 3:0.0 4:0.0 
1.0 1:2.0 2:0.0 3:0.0 4:0.0 
1.0 1:1.0 2:0.0 3:0.0 4:0.0 
1.0 1:1.0 2:0.0 3:0.0 4:0.0 
1.0 1:1.0 2:0.0 3:0.0 4:0.0 
1.0 1:1.0 2:0.0 3:0.0 4:0.0 
1.0 1:1.0 2:0.0 3:0.0 4:0.0 
1.0 1:2.0 2:0.0 3:0.0 4:0.0 
1.0 1:1.0 2:0.0 3:0.0 4:0.0 
1.0 1:1.0 2:0.0 3:0.0 4:0.0 
1.0 1:1.0 2:0.0 3:0.0 4:0.0 
1.0 1:5.0 2:0.0 3:0.0 4:0.0 
1.0 1:3.0 2:0.0 3:0.0 4:0.0 
1.0 1:1.0 2:0.0 3:0.0 4:0.0 
1.0 1:1.0 2:0.0 3:0.0 4:0.0 
1.0 1:1.0 2:0.0 3:0.0 4:0.0 
1.0 1:1.0 2:0.0 3:0.0 4:0.0 
1.0 1:7.0 2:0.0 3:0.0 4:0.0 
1.0 1:1.0 2:0.0 3:0.0 4:0.0 
1.0 1:3.0 2:0.0 3:0.0 4:0.0 
1.0 1:2.0 2:0.0 3:0.0 4:0.0 
1.0 1:1.0 2:0.0 3:0.0 4:0.0 
1.0 1:1.0 2:0.0 3:0.0 4:0.0 
1.0 1:2.0 2:0.0 3:0.0 4:0.0 
1.0 1:1.0 2:0.0 3:0.0 4:0.0 
1.0 1:1.0 2:0.0 3:0.0 4:0.0 
1.0 1:2.0 2:0.0 3:0.0 4:0.0 
1.0 1:1.0 2:0.0 3:0.0 4:0.0 
0.41763355076834546 1:27.0 2:0.0 3:0.0 4:0.0 
1.0 1:1.0 2:0.0 3:0.0 4:0.0 
1.0 1:1.0 2:0.0 3:0.0 4:0.0 
1.0 1:1.0 2:0.0 3:0.0 4:0.0 
1.0 1:1.0 2:0.0 3:0.0 4:0.0 
1.0 1:1.0 2:0.0 3:0.0 4:0.0 
1.0 1:1.0 2:0.0 3:0.0 4:0.0 
1.0 1:2.0 2:0.0 3:0.0 4:0.0 
1.0 1:1.0 2:0.0 3:0.0 4:0.0 
1.0 1:1.0 2:0.0 3:0.0 4:0.0 
1.0 1:3.0 2:0.0 3:0.0 4:0.0 
1.0 1:2.0 2:0.0 3:0.0 4:0.0 
1.0 1:1.0 2:0.0 3:0.0 4:0.0 
1.0 1:1.0 2:0.0 3:0.0 4:0.0 
1.0 1:1.0 2:0.0 3:0.0 4:0.0 
1.0 1:1.0 2:0.0 3:0.0 4:0.0 
1.0 1:1.0 2:0.0 3:0.0 4:0.0 
1.0 1:2.0 2:0.0 3:0.0 4:0.0 
1.0 1:1.0 2:0.0 3:0.0 4:0.0 
1.0 1:1.0 2:0.0 3:0.0 4:0.0 
1.0 1:1.0 2:0.0 3:0.0 4:0.0 
1.0 1:1.0 2:0.0 3:0.0 4:0.0 
1.0 1:1.0 2:0.0 3:0.0 4:0.0 
1.0 1:1.0 2:0.0 3:0.0 4:0.0 
1.0 1:5.0 2:0.0 3:0.0 4:0.0 
1.0 1:1.0 2:0.0 3:0.0 4:0.0 
1.0 1:3.0 2:0.0 3:0.0 4:0.0 
1.0 1:1.0 2:0.0 3:0.0 4:0.0 
1.0 1:1.0 2:0.0 3:0.0 4:0.0 
1.0 1:1.0 2:0.0 3:0.0 4:0.0 
1.0 1:1.0 2:0.0 3:0.0 4:0.0 
1.0 1:1.0 2:0.0 3:0.0 4:0.0 
1.0 1:1.0 2:0.0 3:0.0 4:0.0 
1.0 1:1.0 2:0.0 3:0.0 4:0.0 
1.0 1:3.0 2:0.0 3:0.0 4:0.0 
1.0 1:1.0 2:0.0 3:0.0 4:0.0 
1.0 1:9.0 2:0.0 3:0.0 4:0.0 
1.0 1:1.0 2:0.0 3:0.0 4:0.0 
1.0 1:2.0 2:0.0 3:0.0 4:0.0 
1.0 1:1.0 2:0.0 3:0.0 4:0.0 
1.0 1:1.0 2:0.0 3:0.0 4:0.0 
1.0 1:2.0 2:0.0 3:0.0 4:0.0 
1.0 1:3.0 2:0.0 3:0.0 4:0.0 
1.0 1:2.0 2:0.0 3:0.0 4:0.0 
1.0 1:2.0 2:0.0 3:0.0 4:0.0 
1.0 1:1.0 2:0.0 3:0.0 4:0.0 
1.0 1:3.0 2:0.0 3:0.0 4:0.0 
1.0 1:1.0 2:0.0 3:0.0 4:0.0 
1.0 1:1.0 2:0.0 3:0.0 4:0.0 
1.0 1:1.0 2:0.0 3:0.0 4:0.0 
1.0 1:1.0 2:0.0 3:0.0 4:0.0 
1.0 1:2.0 2:0.0 3:0.0 4:0.0 
1.0 1:1.0 2:0.0 3:0.0 4:0.0 
1.0 1:2.0 2:0.0 3:0.0 4:0.0 
1.0 1:1.0 2:0.0 3:0.0 4:0.0 
1.0 1:1.0 2:0.0 3:0.0 4:0.0 
1.0 1:2.0 2:0.0 3:0.0 4:0.0 
1.0 1:1.0 2:0.0 3:0.0 4:0.0 
1.0 1:2.0 2:0.0 3:0.0 4:0.0 
1.0 1:1.0 2:0.0 3:0.0 4:0.0 
1.0 1:2.0 2:0.0 3:0.0 4:0.0 
1.0 1:1.0 2:0.0 3:0.0 4:0.0 
1.0 1:1.0 2:0.0 3:0.0 4:0.0 
1.0 1:2.0 2:0.0 3:1.0 4:0.0 
1.0 1:1.0 2:0.0 3:0.0 4:0.0 
1.0 1:1.0 2:0.0 3:0.0 4:0.0 
1.0 1:3.0 2:0.0 3:0.0 4:0.0 
1.0 1:1.0 2:0.0 3:0.0 4:0.0 
1.0 1:1.0 2:0.0 3:0.0 4:0.0 
1.0 1:7.0 2:0.0 3:0.0 4:0.0 
1.0 1:1.0 2:0.0 3:0.0 4:0.0 
1.0 1:1.0 2:0.0 3:0.0 4:0.0 
1.0 1:1.0 2:0.0 3:0.0 4:0.0 
1.0 1:2.0 2:0.0 3:0.0 4:0.0 
1.0 1:1.0 2:0.0 3:0.0 4:0.0 
1.0 1:3.0 2:0.0 3:0.0 4:0.0 
1.0 1:1.0 2:0.0 3:0.0 4:0.0 
1.0 1:1.0 2:0.0 3:0.0 4:0.0 
1.0 1:3.0 2:0.0 3:0.0 4:0.0 
1.0 1:1.0 2:0.0 3:0.0 4:0.0 
1.0 1:1.0 2:0.0 3:0.0 4:0.0 
1.0 1:1.0 2:0.0 3:0.0 4:0.0 
1.0 1:1.0 2:0.0 3:0.0 4:0.0 
1.0 1:1.0 2:0.0 3:0.0 4:0.0 
1.0 1:1.0 2:0.0 3:0.0 4:0.0 
1.0 1:1.0 2:0.0 3:0.0 4:0.0 
1.0 1:2.0 2:0.0 3:0.0 4:0.0 
1.0 1:1.0 2:0.0 3:0.0 4:0.0 
1.0 1:1.0 2:0.0 3:0.0 4:0.0 
1.0 1:1.0 2:0.0 3:0.0 4:0.0 
1.0 1:1.0 2:0.0 3:0.0 4:0.0 
1.0 1:2.0 2:0.0 3:0.0 4:0.0 
1.0 1:1.0 2:0.0 3:0.0 4:0.0 
1.0 1:1.0 2:0.0 3:0.0 4:0.0 
1.0 1:3.0 2:0.0 3:0.0 4:0.0 
1.0 1:1.0 2:0.0 3:0.0 4:0.0 
1.0 1:1.0 2:0.0 3:0.0 4:0.0 
1.0 1:3.0 2:0.0 3:0.0 4:0.0 
1.0 1:2.0 2:0.0 3:0.0 4:0.0 
1.0 1:2.0 2:0.0 3:0.0 4:0.0 
1.0 1:1.0 2:0.0 3:0.0 4:0.0 
1.0 1:1.0 2:0.0 3:0.0 4:0.0 
1.0 1:1.0 2:0.0 3:0.0 4:0.0 
1.0 1:1.0 2:0.0 3:0.0 4:0.0 
1.0 1:2.0 2:0.0 3:0.0 4:0.0 
1.0 1:3.0 2:0.0 3:0.0 4:0.0 
1.0 1:2.0 2:0.0 3:0.0 4:0.0 
1.0 1:1.0 2:0.0 3:0.0 4:0.0 
1.0 1:3.0 2:0.0 3:0.0 4:0.0 
1.0 1:1.0 2:0.0 3:0.0 4:0.0 
1.0 1:1.0 2:0.0 3:0.0 4:0.0 
1.0 1:1.0 2:0.0 3:0.0 4:0.0 
1.0 1:3.0 2:0.0 3:0.0 4:0.0 
1.0 1:1.0 2:0.0 3:0.0 4:0.0 
1.0 1:1.0 2:0.0 3:0.0 4:0.0 
1.0 1:1.0 2:0.0 3:0.0 4:0.0 
1.0 1:1.0 2:0.0 3:0.0 4:0.0 
1.0 1:2.0 2:0.0 3:0.0 4:0.0 
1.0 1:1.0 2:0.0 3:0.0 4:0.0 
1.0 1:3.0 2:0.0 3:0.0 4:0.0 
1.0 1:1.0 2:0.0 3:0.0 4:0.0 
1.0 1:1.0 2:0.0 3:0.0 4:0.0 
1.0 1:3.0 2:0.0 3:0.0 4:0.0 
1.0 1:2.0 2:0.0 3:0.0 4:0.0 
1.0 1:1.0 2:0.0 3:0.0 4:0.0 
1.0 1:3.0 2:0.0 3:0.0 4:0.0 
1.0 1:2.0 2:0.0 3:0.0 4:0.0 
1.0 1:1.0 2:0.0 3:0.0 4:0.0 
1.0 1:35.0 2:0.0 3:0.0 4:0.0 
1.0 1:2.0 2:0.0 3:0.0 4:0.0 
1.0 1:1.0 2:0.0 3:0.0 4:0.0 
1.0 1:1.0 2:0.0 3:0.0 4:0.0 
1.0 1:1.0 2:0.0 3:0.0 4:0.0 
1.0 1:1.0 2:0.0 3:0.0 4:0.0 
1.0 1:1.0 2:0.0 3:0.0 4:0.0 
1.0 1:1.0 2:0.0 3:0.0 4:0.0 
1.0 1:1.0 2:0.0 3:0.0 4:0.0 
1.0 1:14.0 2:0.0 3:0.0 4:0.0 
1.0 1:1.0 2:0.0 3:0.0 4:0.0 
1.0 1:1.0 2:0.0 3:0.0 4:0.0 
1.0 1:2.0 2:0.0 3:0.0 4:0.0 
1.0 1:1.0 2:0.0 3:0.0 4:0.0 
1.0 1:1.0 2:0.0 3:0.0 4:0.0 
1.0 1:1.0 2:0.0 3:0.0 4:0.0 
1.0 1:1.0 2:0.0 3:0.0 4:0.0 
1.0 1:1.0 2:0.0 3:0.0 4:0.0 
1.0 1:2.0 2:0.0 3:0.0 4:0.0 
1.0 1:1.0 2:0.0 3:0.0 4:0.0 
1.0 1:1.0 2:0.0 3:0.0 4:0.0 
1.0 1:2.0 2:0.0 3:0.0 4:0.0 
1.0 1:1.0 2:0.0 3:0.0 4:0.0 
1.0 1:2.0 2:0.0 3:0.0 4:0.0 
1.0 1:1.0 2:0.0 3:0.0 4:0.0 
1.0 1:1.0 2:0.0 3:0.0 4:0.0 
1.0 1:1.0 2:0.0 3:0.0 4:0.0 
1.0 1:1.0 2:0.0 3:0.0 4:0.0 
1.0 1:1.0 2:0.0 3:0.0 4:0.0 
1.0 1:1.0 2:0.0 3:0.0 4:0.0 
1.0 1:2.0 2:0.0 3:0.0 4:0.0 
1.0 1:1.0 2:0.0 3:0.0 4:0.0 
1.0 1:1.0 2:0.0 3:0.0 4:0.0 
1.0 1:3.0 2:0.0 3:0.0 4:0.0 
1.0 1:1.0 2:0.0 3:0.0 4:0.0 
1.0 1:1.0 2:0.0 3:0.0 4:0.0 
1.0 1:1.0 2:0.0 3:0.0 4:0.0 
1.0 1:1.0 2:0.0 3:0.0 4:0.0 
1.0 1:2.0 2:0.0 3:0.0 4:0.0 
1.0 1:2.0 2:0.0 3:0.0 4:0.0 
1.0 1:1.0 2:0.0 3:0.0 4:0.0 
1.0 1:1.0 2:0.0 3:0.0 4:0.0 
1.0 1:2.0 2:0.0 3:0.0 4:0.0 
1.0 1:1.0 2:0.0 3:0.0 4:0.0 
1.0 1:1.0 2:0.0 3:0.0 4:0.0 
1.0 1:1.0 2:0.0 3:0.0 4:0.0 
1.0 1:1.0 2:0.0 3:0.0 4:0.0 
1.0 1:1.0 2:0.0 3:0.0 4:0.0 
1.0 1:7.0 2:0.0 3:0.0 4:0.0 
1.0 1:2.0 2:0.0 3:0.0 4:0.0 
1.0 1:1.0 2:0.0 3:0.0 4:0.0 
1.0 1:1.0 2:0.0 3:0.0 4:0.0 
1.0 1:3.0 2:0.0 3:0.0 4:0.0 
1.0 1:1.0 2:0.0 3:0.0 4:0.0 
1.0 1:1.0 2:0.0 3:0.0 4:0.0 
1.0 1:1.0 2:0.0 3:0.0 4:0.0 
1.0 1:1.0 2:0.0 3:0.0 4:0.0 
1.0 1:2.0 2:0.0 3:0.0 4:0.0 
1.0 1:1.0 2:0.0 3:0.0 4:0.0 
1.0 1:1.0 2:0.0 3:0.0 4:0.0 
1.0 1:1.0 2:0.0 3:0.0 4:0.0 
1.0 1:1.0 2:0.0 3:0.0 4:0.0 
1.0 1:1.0 2:0.0 3:0.0 4:0.0 
1.0 1:1.0 2:0.0 3:0.0 4:0.0 
1.0 1:2.0 2:0.0 3:0.0 4:0.0 
1.0 1:1.0 2:0.0 3:0.0 4:0.0 
1.0 1:1.0 2:0.0 3:0.0 4:0.0 
1.0 1:1.0 2:0.0 3:0.0 4:0.0 
1.0 1:1.0 2:0.0 3:0.0 4:0.0 
1.0 1:1.0 2:0.0 3:0.0 4:0.0 
1.0 1:2.0 2:0.0 3:0.0 4:0.0 
1.0 1:1.0 2:0.0 3:0.0 4:0.0 
1.0 1:1.0 2:0.0 3:0.0 4:0.0 
1.0 1:1.0 2:0.0 3:0.0 4:0.0 
1.0 1:1.0 2:0.0 3:0.0 4:0.0 
1.0 1:2.0 2:0.0 3:0.0 4:0.0 
1.0 1:1.0 2:0.0 3:0.0 4:0.0 
1.0 1:1.0 2:0.0 3:0.0 4:0.0 
1.0 1:2.0 2:0.0 3:0.0 4:0.0 
1.0 1:1.0 2:0.0 3:0.0 4:0.0 
1.0 1:1.0 2:0.0 3:0.0 4:0.0 
1.0 1:1.0 2:0.0 3:0.0 4:0.0 
1.0 1:1.0 2:0.0 3:0.0 4:0.0 
1.0 1:1.0 2:0.0 3:0.0 4:0.0 
1.0 1:1.0 2:0.0 3:0.0 4:0.0 
1.0 1:2.0 2:0.0 3:0.0 4:0.0 
1.0 1:1.0 2:0.0 3:0.0 4:0.0 
1.0 1:1.0 2:0.0 3:0.0 4:0.0 
1.0 1:3.0 2:0.0 3:0.0 4:0.0 
1.0 1:1.0 2:0.0 3:0.0 4:0.0 
1.0 1:2.0 2:0.0 3:0.0 4:0.0 
1.0 1:1.0 2:0.0 3:0.0 4:0.0 
1.0 1:2.0 2:0.0 3:1.0 4:0.0 
1.0 1:2.0 2:0.0 3:0.0 4:0.0 
1.0 1:1.0 2:0.0 3:0.0 4:0.0 
1.0 1:2.0 2:0.0 3:0.0 4:0.0 
1.0 1:1.0 2:0.0 3:0.0 4:0.0 
1.0 1:1.0 2:0.0 3:0.0 4:0.0 
1.0 1:1.0 2:0.0 3:0.0 4:0.0 
1.0 1:26.0 2:0.0 3:0.0 4:0.0 
1.0 1:1.0 2:0.0 3:0.0 4:0.0 
1.0 1:2.0 2:0.0 3:0.0 4:0.0 
1.0 1:2.0 2:0.0 3:0.0 4:0.0 
1.0 1:3.0 2:0.0 3:0.0 4:0.0 
1.0 1:2.0 2:0.0 3:0.0 4:0.0 
1.0 1:3.0 2:0.0 3:0.0 4:0.0 
1.0 1:1.0 2:0.0 3:0.0 4:0.0 
1.0 1:1.0 2:0.0 3:0.0 4:0.0 
1.0 1:1.0 2:0.0 3:0.0 4:0.0 
1.0 1:2.0 2:0.0 3:0.0 4:0.0 
1.0 1:1.0 2:0.0 3:0.0 4:0.0 
1.0 1:1.0 2:0.0 3:0.0 4:0.0 
1.0 1:1.0 2:0.0 3:0.0 4:0.0 
1.0 1:1.0 2:0.0 3:0.0 4:0.0 
1.0 1:1.0 2:0.0 3:0.0 4:0.0 
1.0 1:1.0 2:0.0 3:0.0 4:0.0 
1.0 1:1.0 2:0.0 3:0.0 4:0.0 
1.0 1:2.0 2:0.0 3:1.0 4:0.0 
1.0 1:1.0 2:0.0 3:0.0 4:0.0 
1.0 1:1.0 2:0.0 3:0.0 4:0.0 
0.014872960834150474 1:14.0 2:0.0 3:0.0 4:0.0 
1.0 1:1.0 2:0.0 3:0.0 4:0.0 
1.0 1:1.0 2:0.0 3:0.0 4:0.0 
1.0 1:1.0 2:0.0 3:0.0 4:0.0 
1.0 1:1.0 2:0.0 3:0.0 4:0.0 
1.0 1:2.0 2:0.0 3:0.0 4:0.0 
1.0 1:1.0 2:0.0 3:0.0 4:0.0 
1.0 1:1.0 2:0.0 3:0.0 4:0.0 
1.0 1:1.0 2:0.0 3:0.0 4:0.0 
1.0 1:1.0 2:0.0 3:0.0 4:0.0 
1.0 1:2.0 2:0.0 3:0.0 4:0.0 
1.0 1:1.0 2:0.0 3:0.0 4:0.0 
1.0 1:2.0 2:0.0 3:0.0 4:0.0 
1.0 1:1.0 2:0.0 3:0.0 4:0.0 
1.0 1:2.0 2:0.0 3:0.0 4:0.0 
1.0 1:1.0 2:0.0 3:0.0 4:0.0 
1.0 1:2.0 2:0.0 3:0.0 4:0.0 
1.0 1:1.0 2:0.0 3:0.0 4:0.0 
1.0 1:2.0 2:0.0 3:0.0 4:0.0 
1.0 1:1.0 2:0.0 3:0.0 4:0.0 
0.5303791859246902 1:17.0 2:0.0 3:0.0 4:0.0 
1.0 1:1.0 2:0.0 3:0.0 4:0.0 
1.0 1:1.0 2:0.0 3:0.0 4:0.0 
1.0 1:3.0 2:0.0 3:0.0 4:0.0 
1.0 1:2.0 2:0.0 3:0.0 4:0.0 
1.0 1:1.0 2:0.0 3:0.0 4:0.0 
1.0 1:1.0 2:0.0 3:0.0 4:0.0 
1.0 1:2.0 2:0.0 3:0.0 4:0.0 
1.0 1:2.0 2:0.0 3:0.0 4:0.0 
1.0 1:1.0 2:0.0 3:0.0 4:0.0 
1.0 1:1.0 2:0.0 3:0.0 4:0.0 
1.0 1:1.0 2:0.0 3:0.0 4:0.0 
1.0 1:2.0 2:0.0 3:0.0 4:0.0 
1.0 1:1.0 2:0.0 3:0.0 4:0.0 
1.0 1:1.0 2:0.0 3:0.0 4:0.0 
1.0 1:1.0 2:0.0 3:0.0 4:0.0 
1.0 1:1.0 2:0.0 3:0.0 4:0.0 
0.9406997053818221 1:2.0 2:0.0 3:0.0 4:0.0 
1.0 1:3.0 2:0.0 3:0.0 4:0.0 
1.0 1:1.0 2:0.0 3:0.0 4:0.0 
1.0 1:1.0 2:0.0 3:0.0 4:0.0 
1.0 1:1.0 2:0.0 3:0.0 4:0.0 
1.0 1:1.0 2:0.0 3:0.0 4:0.0 
1.0 1:1.0 2:0.0 3:0.0 4:0.0 
1.0 1:1.0 2:0.0 3:0.0 4:0.0 
1.0 1:1.0 2:0.0 3:0.0 4:0.0 
1.0 1:1.0 2:0.0 3:0.0 4:0.0 
1.0 1:1.0 2:0.0 3:0.0 4:0.0 
1.0 1:1.0 2:0.0 3:0.0 4:0.0 
1.0 1:1.0 2:0.0 3:0.0 4:0.0 
1.0 1:1.0 2:0.0 3:0.0 4:0.0 
1.0 1:1.0 2:0.0 3:0.0 4:0.0 
1.0 1:1.0 2:0.0 3:0.0 4:0.0 
1.0 1:1.0 2:0.0 3:0.0 4:0.0 
1.0 1:1.0 2:0.0 3:0.0 4:0.0 
1.0 1:1.0 2:0.0 3:0.0 4:0.0 
1.0 1:1.0 2:0.0 3:0.0 4:0.0 
1.0 1:1.0 2:0.0 3:0.0 4:0.0 
1.0 1:1.0 2:0.0 3:0.0 4:0.0 
1.0 1:1.0 2:0.0 3:0.0 4:0.0 
1.0 1:3.0 2:0.0 3:0.0 4:0.0 
1.0 1:1.0 2:0.0 3:0.0 4:0.0 
1.0 1:3.0 2:0.0 3:0.0 4:0.0 
1.0 1:1.0 2:0.0 3:0.0 4:0.0 
1.0 1:1.0 2:0.0 3:0.0 4:0.0 
1.0 1:1.0 2:0.0 3:0.0 4:0.0 
1.0 1:1.0 2:0.0 3:0.0 4:0.0 
1.0 1:1.0 2:0.0 3:0.0 4:0.0 
1.0 1:1.0 2:0.0 3:0.0 4:0.0 
1.0 1:1.0 2:0.0 3:0.0 4:0.0 
1.0 1:1.0 2:0.0 3:0.0 4:0.0 
1.0 1:1.0 2:0.0 3:0.0 4:0.0 
1.0 1:1.0 2:0.0 3:0.0 4:0.0 
1.0 1:1.0 2:0.0 3:0.0 4:0.0 
1.0 1:1.0 2:0.0 3:0.0 4:0.0 
1.0 1:1.0 2:0.0 3:0.0 4:0.0 
1.0 1:1.0 2:0.0 3:0.0 4:0.0 
1.0 1:3.0 2:0.0 3:0.0 4:0.0 
1.0 1:3.0 2:0.0 3:0.0 4:0.0 
1.0 1:1.0 2:0.0 3:0.0 4:0.0 
1.0 1:1.0 2:0.0 3:0.0 4:0.0 
1.0 1:3.0 2:0.0 3:0.0 4:0.0 
1.0 1:5.0 2:0.0 3:0.0 4:0.0 
1.0 1:1.0 2:0.0 3:0.0 4:0.0 
1.0 1:1.0 2:0.0 3:0.0 4:0.0 
1.0 1:1.0 2:0.0 3:0.0 4:0.0 
1.0 1:1.0 2:0.0 3:0.0 4:0.0 
1.0 1:9.0 2:0.0 3:0.0 4:0.0 
1.0 1:1.0 2:0.0 3:0.0 4:0.0 
1.0 1:1.0 2:0.0 3:0.0 4:0.0 
1.0 1:1.0 2:0.0 3:0.0 4:0.0 
1.0 1:1.0 2:0.0 3:0.0 4:0.0 
1.0 1:1.0 2:0.0 3:0.0 4:0.0 
1.0 1:1.0 2:0.0 3:0.0 4:0.0 
1.0 1:1.0 2:0.0 3:0.0 4:0.0 
1.0 1:3.0 2:0.0 3:0.0 4:0.0 
1.0 1:1.0 2:0.0 3:0.0 4:0.0 
1.0 1:1.0 2:0.0 3:0.0 4:0.0 
1.0 1:7.0 2:0.0 3:0.0 4:0.0 
1.0 1:1.0 2:0.0 3:0.0 4:0.0 
1.0 1:1.0 2:0.0 3:0.0 4:0.0 
1.0 1:1.0 2:0.0 3:0.0 4:0.0 
1.0 1:2.0 2:0.0 3:1.0 4:0.0 
1.0 1:1.0 2:0.0 3:0.0 4:0.0 
1.0 1:1.0 2:0.0 3:0.0 4:0.0 
1.0 1:1.0 2:0.0 3:0.0 4:0.0 
1.0 1:1.0 2:0.0 3:0.0 4:0.0 
1.0 1:5.0 2:0.0 3:0.0 4:0.0 
1.0 1:1.0 2:0.0 3:0.0 4:0.0 
1.0 1:1.0 2:0.0 3:0.0 4:0.0 
1.0 1:1.0 2:0.0 3:0.0 4:0.0 
1.0 1:1.0 2:0.0 3:0.0 4:0.0 
1.0 1:1.0 2:0.0 3:0.0 4:0.0 
1.0 1:1.0 2:0.0 3:0.0 4:0.0 
1.0 1:1.0 2:0.0 3:0.0 4:0.0 
1.0 1:1.0 2:0.0 3:0.0 4:0.0 
1.0 1:1.0 2:0.0 3:0.0 4:0.0 
1.0 1:1.0 2:0.0 3:0.0 4:0.0 
1.0 1:1.0 2:0.0 3:0.0 4:0.0 
1.0 1:1.0 2:0.0 3:0.0 4:0.0 
1.0 1:1.0 2:0.0 3:0.0 4:0.0 
1.0 1:1.0 2:0.0 3:0.0 4:0.0 
1.0 1:1.0 2:0.0 3:0.0 4:0.0 
1.0 1:1.0 2:0.0 3:0.0 4:0.0 
1.0 1:1.0 2:0.0 3:0.0 4:0.0 
1.0 1:1.0 2:0.0 3:0.0 4:0.0 
1.0 1:1.0 2:0.0 3:0.0 4:0.0 
1.0 1:1.0 2:0.0 3:0.0 4:0.0 
1.0 1:1.0 2:0.0 3:0.0 4:0.0 
1.0 1:1.0 2:0.0 3:0.0 4:0.0 
1.0 1:1.0 2:0.0 3:0.0 4:0.0 
1.0 1:1.0 2:0.0 3:0.0 4:0.0 
1.0 1:1.0 2:0.0 3:0.0 4:0.0 
1.0 1:1.0 2:0.0 3:0.0 4:0.0 
1.0 1:1.0 2:0.0 3:0.0 4:0.0 
1.0 1:1.0 2:0.0 3:0.0 4:0.0 
1.0 1:1.0 2:0.0 3:0.0 4:0.0 
1.0 1:1.0 2:0.0 3:0.0 4:0.0 
1.0 1:3.0 2:0.0 3:0.0 4:0.0 
1.0 1:1.0 2:0.0 3:0.0 4:0.0 
1.0 1:1.0 2:0.0 3:0.0 4:0.0 
1.0 1:1.0 2:0.0 3:0.0 4:0.0 
1.0 1:1.0 2:0.0 3:0.0 4:0.0 
1.0 1:1.0 2:0.0 3:0.0 4:0.0 
1.0 1:1.0 2:0.0 3:0.0 4:0.0 
1.0 1:1.0 2:0.0 3:0.0 4:0.0 
1.0 1:1.0 2:0.0 3:0.0 4:0.0 
1.0 1:1.0 2:0.0 3:0.0 4:0.0 
0.0011854797958468952 1:19.0 2:0.0 3:0.0 4:0.0 
1.0 1:3.0 2:0.0 3:0.0 4:0.0 
1.0 1:1.0 2:0.0 3:0.0 4:0.0 
1.0 1:1.0 2:0.0 3:0.0 4:0.0 
1.0 1:1.0 2:0.0 3:0.0 4:0.0 
1.0 1:1.0 2:0.0 3:0.0 4:0.0 
1.0 1:1.0 2:0.0 3:0.0 4:0.0 
1.0 1:1.0 2:0.0 3:0.0 4:0.0 
1.0 1:1.0 2:0.0 3:0.0 4:0.0 
1.0 1:1.0 2:0.0 3:0.0 4:0.0 
1.0 1:1.0 2:0.0 3:0.0 4:0.0 
1.0 1:1.0 2:0.0 3:0.0 4:0.0 
1.0 1:1.0 2:0.0 3:0.0 4:0.0 
1.0 1:3.0 2:0.0 3:0.0 4:0.0 
1.0 1:1.0 2:0.0 3:0.0 4:0.0 
1.0 1:2.0 2:0.0 3:1.0 4:0.0 
1.0 1:1.0 2:0.0 3:0.0 4:0.0 
1.0 1:1.0 2:0.0 3:0.0 4:0.0 
1.0 1:1.0 2:0.0 3:0.0 4:0.0 
1.0 1:1.0 2:0.0 3:0.0 4:0.0 
1.0 1:1.0 2:0.0 3:0.0 4:0.0 
1.0 1:1.0 2:0.0 3:0.0 4:0.0 
1.0 1:1.0 2:0.0 3:0.0 4:0.0 
1.0 1:3.0 2:0.0 3:0.0 4:0.0 
1.0 1:1.0 2:0.0 3:0.0 4:0.0 
1.0 1:1.0 2:0.0 3:0.0 4:0.0 
1.0 1:7.0 2:0.0 3:0.0 4:0.0 
1.0 1:1.0 2:0.0 3:0.0 4:0.0 
1.0 1:5.0 2:0.0 3:0.0 4:0.0 
1.0 1:1.0 2:0.0 3:0.0 4:0.0 
1.0 1:1.0 2:0.0 3:0.0 4:0.0 
1.0 1:1.0 2:0.0 3:0.0 4:0.0 
1.0 1:1.0 2:0.0 3:0.0 4:0.0 
1.0 1:9.0 2:0.0 3:0.0 4:0.0 
1.0 1:1.0 2:0.0 3:0.0 4:0.0 
1.0 1:1.0 2:0.0 3:0.0 4:0.0 
1.0 1:1.0 2:0.0 3:0.0 4:0.0 
1.0 1:1.0 2:0.0 3:0.0 4:0.0 
1.0 1:1.0 2:0.0 3:0.0 4:0.0 
1.0 1:1.0 2:0.0 3:0.0 4:0.0 
1.0 1:1.0 2:0.0 3:0.0 4:0.0 
1.0 1:1.0 2:0.0 3:0.0 4:0.0 
1.0 1:1.0 2:0.0 3:0.0 4:0.0 
1.0 1:1.0 2:0.0 3:0.0 4:0.0 
1.0 1:1.0 2:0.0 3:0.0 4:0.0 
1.0 1:1.0 2:0.0 3:0.0 4:0.0 
1.0 1:1.0 2:0.0 3:0.0 4:0.0 
1.0 1:9.0 2:0.0 3:0.0 4:0.0 
1.0 1:1.0 2:0.0 3:0.0 4:0.0 
1.0 1:1.0 2:0.0 3:0.0 4:0.0 
1.0 1:1.0 2:0.0 3:0.0 4:0.0 
1.0 1:1.0 2:0.0 3:0.0 4:0.0 
1.0 1:1.0 2:0.0 3:0.0 4:0.0 
1.0 1:1.0 2:0.0 3:0.0 4:0.0 
1.0 1:1.0 2:0.0 3:0.0 4:0.0 
1.0 1:1.0 2:0.0 3:0.0 4:0.0 
1.0 1:1.0 2:0.0 3:0.0 4:0.0 
1.0 1:1.0 2:0.0 3:0.0 4:0.0 
1.0 1:1.0 2:0.0 3:0.0 4:0.0 
1.0 1:1.0 2:0.0 3:0.0 4:0.0 
1.0 1:1.0 2:0.0 3:0.0 4:0.0 
1.0 1:1.0 2:0.0 3:0.0 4:0.0 
1.0 1:5.0 2:0.0 3:0.0 4:0.0 
0.9929832127989233 1:10.0 2:0.0 3:2.0 4:0.0 
1.0 1:1.0 2:0.0 3:0.0 4:0.0 
1.0 1:1.0 2:0.0 3:0.0 4:0.0 
1.0 1:1.0 2:0.0 3:0.0 4:0.0 
1.0 1:3.0 2:0.0 3:0.0 4:0.0 
1.0 1:1.0 2:0.0 3:0.0 4:0.0 
1.0 1:1.0 2:0.0 3:0.0 4:0.0 
1.0 1:7.0 2:0.0 3:0.0 4:0.0 
1.0 1:1.0 2:0.0 3:0.0 4:0.0 
1.0 1:1.0 2:0.0 3:0.0 4:0.0 
1.0 1:3.0 2:0.0 3:0.0 4:0.0 
1.0 1:1.0 2:0.0 3:0.0 4:0.0 
1.0 1:1.0 2:0.0 3:0.0 4:0.0 
1.0 1:1.0 2:0.0 3:0.0 4:0.0 
1.0 1:1.0 2:0.0 3:0.0 4:0.0 
1.0 1:1.0 2:0.0 3:0.0 4:0.0 
1.0 1:1.0 2:0.0 3:0.0 4:0.0 
1.0 1:1.0 2:0.0 3:0.0 4:0.0 
1.0 1:1.0 2:0.0 3:0.0 4:0.0 
1.0 1:1.0 2:0.0 3:0.0 4:0.0 
1.0 1:1.0 2:0.0 3:0.0 4:0.0 
1.0 1:1.0 2:0.0 3:0.0 4:0.0 
1.0 1:3.0 2:0.0 3:0.0 4:0.0 
1.0 1:1.0 2:0.0 3:0.0 4:0.0 
1.0 1:1.0 2:0.0 3:0.0 4:0.0 
1.0 1:1.0 2:0.0 3:0.0 4:0.0 
1.0 1:1.0 2:0.0 3:0.0 4:0.0 
1.0 1:1.0 2:0.0 3:0.0 4:0.0 
1.0 1:1.0 2:0.0 3:0.0 4:0.0 
1.0 1:3.0 2:0.0 3:0.0 4:0.0 
1.0 1:3.0 2:0.0 3:0.0 4:0.0 
1.0 1:1.0 2:0.0 3:0.0 4:0.0 
1.0 1:1.0 2:0.0 3:0.0 4:0.0 
1.0 1:1.0 2:0.0 3:0.0 4:0.0 
1.0 1:3.0 2:0.0 3:0.0 4:0.0 
1.0 1:1.0 2:0.0 3:0.0 4:0.0 
1.0 1:5.0 2:0.0 3:0.0 4:0.0 
1.0 1:1.0 2:0.0 3:0.0 4:0.0 
1.0 1:1.0 2:0.0 3:0.0 4:0.0 
0.7911803551684115 1:26.0 2:0.0 3:0.0 4:0.0 
1.0 1:3.0 2:0.0 3:0.0 4:0.0 
1.0 1:1.0 2:0.0 3:0.0 4:0.0 
1.0 1:1.0 2:0.0 3:0.0 4:0.0 
1.0 1:1.0 2:0.0 3:0.0 4:0.0 
1.0 1:1.0 2:0.0 3:0.0 4:0.0 
1.0 1:1.0 2:0.0 3:0.0 4:0.0 
1.0 1:11.0 2:0.0 3:0.0 4:0.0 
1.0 1:3.0 2:0.0 3:0.0 4:0.0 
1.0 1:1.0 2:0.0 3:0.0 4:0.0 
1.0 1:1.0 2:0.0 3:0.0 4:0.0 
1.0 1:1.0 2:0.0 3:0.0 4:0.0 
1.0 1:1.0 2:0.0 3:0.0 4:0.0 
1.0 1:1.0 2:0.0 3:0.0 4:0.0 
1.0 1:1.0 2:0.0 3:0.0 4:0.0 
1.0 1:1.0 2:0.0 3:0.0 4:0.0 
1.0 1:1.0 2:0.0 3:0.0 4:0.0 
1.0 1:1.0 2:0.0 3:0.0 4:0.0 
1.0 1:1.0 2:0.0 3:0.0 4:0.0 
1.0 1:1.0 2:0.0 3:0.0 4:0.0 
-1.0 1:2.0 2:0.0 3:0.0 4:0.0 
-1.0 1:3.0 2:0.0 3:0.0 4:0.0 
-1.0 1:3.0 2:0.0 3:0.0 4:0.0 
-1.0 1:3.0 2:0.0 3:0.0 4:0.0 
-1.0 1:2.0 2:0.0 3:0.0 4:0.0 
-1.0 1:7.0 2:0.0 3:0.0 4:0.0 
-1.0 1:7.0 2:0.0 3:0.0 4:0.0 
-1.0 1:4.0 2:0.0 3:0.0 4:0.0 
-1.0 1:3.0 2:0.0 3:0.0 4:0.0 
-1.0 1:28.0 2:0.0 3:0.0 4:0.0 
-1.0 1:28.0 2:0.0 3:0.0 4:0.0 
-1.0 1:28.0 2:0.0 3:0.0 4:0.0 
-1.0 1:28.0 2:0.0 3:0.0 4:0.0 
-1.0 1:1.0 2:0.0 3:0.0 4:0.0 
-1.0 1:1.0 2:0.0 3:0.0 4:0.0 
-1.0 1:1.0 2:0.0 3:0.0 4:0.0 
-1.0 1:8.0 2:0.0 3:0.0 4:0.0 
-1.0 1:10.0 2:0.0 3:0.0 4:0.0 
-1.0 1:6.0 2:0.0 3:0.0 4:0.0 
-1.0 1:6.0 2:0.0 3:0.0 4:0.0 
-1.0 1:4.0 2:0.0 3:0.0 4:0.0 
-1.0 1:1.0 2:0.0 3:0.0 4:0.0 
-1.0 1:1.0 2:0.0 3:0.0 4:0.0 
-1.0 1:7.0 2:0.0 3:0.0 4:0.0 
-1.0 1:25.0 2:0.0 3:0.0 4:0.0 
-1.0 1:27.0 2:0.0 3:0.0 4:0.0 
-1.0 1:27.0 2:0.0 3:0.0 4:0.0 
-1.0 1:27.0 2:0.0 3:0.0 4:0.0 
-1.0 1:27.0 2:0.0 3:0.0 4:0.0 
-1.0 1:23.0 2:0.0 3:0.0 4:0.0 
-1.0 1:23.0 2:0.0 3:0.0 4:0.0 
-1.0 1:23.0 2:0.0 3:0.0 4:0.0 
-1.0 1:23.0 2:0.0 3:0.0 4:0.0 
-1.0 1:3.0 2:0.0 3:0.0 4:0.0 
-1.0 1:38.0 2:0.0 3:0.0 4:0.0 
-1.0 1:38.0 2:0.0 3:0.0 4:0.0 
-1.0 1:7.0 2:0.0 3:0.0 4:0.0 
-1.0 1:7.0 2:0.0 3:0.0 4:0.0 
-1.0 1:3.0 2:0.0 3:0.0 4:0.0 
-1.0 1:7.0 2:0.0 3:0.0 4:0.0 
-1.0 1:3.0 2:0.0 3:1.0 4:0.0 
-1.0 1:2.0 2:0.0 3:0.0 4:0.0 
-1.0 1:5.0 2:1.0 3:0.0 4:1.0 
-1.0 1:5.0 2:0.0 3:0.0 4:0.0 
-1.0 1:2.0 2:0.0 3:0.0 4:0.0 
-1.0 1:10.0 2:0.0 3:0.0 4:0.0 
-1.0 1:1.0 2:0.0 3:0.0 4:0.0 
-1.0 1:12.0 2:0.0 3:0.0 4:0.0 
-1.0 1:12.0 2:0.0 3:0.0 4:0.0 
-1.0 1:1.0 2:0.0 3:0.0 4:0.0 
-1.0 1:3.0 2:0.0 3:1.0 4:0.0 
-1.0 1:26.0 2:1.0 3:0.0 4:0.0 
-1.0 1:1.0 2:0.0 3:0.0 4:0.0 
-1.0 1:6.0 2:0.0 3:0.0 4:0.0 
-1.0 1:2.0 2:0.0 3:0.0 4:0.0 
-1.0 1:2.0 2:0.0 3:0.0 4:0.0 
-1.0 1:2.0 2:0.0 3:0.0 4:0.0 
-1.0 1:2.0 2:0.0 3:0.0 4:0.0 
-1.0 1:1.0 2:0.0 3:0.0 4:0.0 
-1.0 1:13.0 2:0.0 3:0.0 4:0.0 
-1.0 1:2.0 2:0.0 3:0.0 4:0.0 
-0.1816432270642117 1:127.0 2:0.0 3:0.0 4:0.0 
-0.6520240975636933 1:74.0 2:0.0 3:0.0 4:0.0 
-0.3345962381289015 1:145.0 2:1.0 3:0.0 4:0.0 
-1.0 1:5.0 2:0.0 3:0.0 4:0.0 
-1.0 1:1.0 2:0.0 3:0.0 4:0.0 
-1.0 1:6.0 2:0.0 3:0.0 4:0.0 
-1.0 1:23.0 2:1.0 3:0.0 4:0.0 
-1.0 1:1.0 2:0.0 3:0.0 4:0.0 
-1.0 1:0.0 2:0.0 3:0.0 4:1.0 
-1.0 1:3.0 2:0.0 3:0.0 4:0.0 
-1.0 1:5.0 2:0.0 3:0.0 4:0.0 
-1.0 1:5.0 2:0.0 3:0.0 4:0.0 
-1.0 1:2.0 2:0.0 3:0.0 4:0.0 
-1.0 1:5.0 2:0.0 3:0.0 4:0.0 
-1.0 1:1.0 2:0.0 3:0.0 4:0.0 
-1.0 1:1.0 2:0.0 3:0.0 4:0.0 
-1.0 1:6.0 2:0.0 3:0.0 4:0.0 
-1.0 1:4.0 2:0.0 3:0.0 4:0.0 
-1.0 1:15.0 2:0.0 3:0.0 4:0.0 
-1.0 1:15.0 2:0.0 3:0.0 4:0.0 
-1.0 1:15.0 2:0.0 3:0.0 4:0.0 
-1.0 1:15.0 2:0.0 3:0.0 4:0.0 
-1.0 1:15.0 2:0.0 3:0.0 4:0.0 
-1.0 1:15.0 2:0.0 3:0.0 4:0.0 
-1.0 1:15.0 2:0.0 3:0.0 4:0.0 
-1.0 1:15.0 2:0.0 3:0.0 4:0.0 
-1.0 1:1.0 2:0.0 3:0.0 4:0.0 
-1.0 1:1.0 2:0.0 3:0.0 4:0.0 
-1.0 1:35.0 2:0.0 3:0.0 4:0.0 
-1.0 1:35.0 2:0.0 3:0.0 4:0.0 
-0.18726671225435082 1:57.0 2:2.0 3:0.0 4:0.0 
-1.0 1:2.0 2:0.0 3:0.0 4:0.0 
-1.0 1:2.0 2:0.0 3:0.0 4:0.0 
-1.0 1:15.0 2:0.0 3:0.0 4:0.0 
-1.0 1:2.0 2:0.0 3:0.0 4:0.0 
-1.0 1:1.0 2:0.0 3:0.0 4:0.0 
-1.0 1:4.0 2:0.0 3:0.0 4:0.0 
-1.0 1:2.0 2:0.0 3:0.0 4:0.0 
-1.0 1:3.0 2:0.0 3:0.0 4:0.0 
-1.0 1:1.0 2:0.0 3:0.0 4:0.0 
-1.0 1:8.0 2:0.0 3:0.0 4:0.0 
-1.0 1:4.0 2:0.0 3:0.0 4:0.0 
-1.0 1:1.0 2:0.0 3:0.0 4:0.0 
-1.0 1:6.0 2:0.0 3:0.0 4:0.0 
-1.0 1:8.0 2:0.0 3:0.0 4:0.0 
-1.0 1:8.0 2:0.0 3:0.0 4:0.0 
-1.0 1:8.0 2:0.0 3:0.0 4:0.0 
-1.0 1:2.0 2:0.0 3:0.0 4:0.0 
-1.0 1:1.0 2:0.0 3:0.0 4:0.0 
-1.0 1:1.0 2:0.0 3:0.0 4:0.0 
-1.0 1:2.0 2:0.0 3:0.0 4:0.0 
-1.0 1:4.0 2:0.0 3:0.0 4:0.0 
-1.0 1:4.0 2:0.0 3:0.0 4:0.0 
-1.0 1:4.0 2:0.0 3:0.0 4:0.0 
-1.0 1:8.0 2:1.0 3:1.0 4:0.0 
-1.0 1:8.0 2:1.0 3:1.0 4:0.0 
-1.0 1:9.0 2:0.0 3:0.0 4:0.0 
-1.0 1:12.0 2:0.0 3:0.0 4:0.0 
-1.0 1:2.0 2:0.0 3:0.0 4:0.0 
-1.0 1:2.0 2:0.0 3:0.0 4:0.0 
-1.0 1:1.0 2:0.0 3:0.0 4:0.0 
-1.0 1:1.0 2:0.0 3:0.0 4:0.0 
-1.0 1:1.0 2:0.0 3:0.0 4:0.0 
-1.0 1:1.0 2:0.0 3:0.0 4:0.0 
-1.0 1:1.0 2:0.0 3:0.0 4:0.0 
-1.0 1:1.0 2:0.0 3:0.0 4:0.0 
-1.0 1:1.0 2:0.0 3:0.0 4:0.0 
-1.0 1:1.0 2:0.0 3:0.0 4:0.0 
-1.0 1:1.0 2:0.0 3:0.0 4:0.0 
-1.0 1:1.0 2:0.0 3:0.0 4:0.0 
-1.0 1:1.0 2:0.0 3:0.0 4:0.0 
-1.0 1:6.0 2:0.0 3:0.0 4:0.0 
-1.0 1:3.0 2:0.0 3:0.0 4:0.0 
-1.0 1:1.0 2:0.0 3:0.0 4:0.0 
-1.0 1:1.0 2:0.0 3:0.0 4:0.0 
-1.0 1:4.0 2:0.0 3:0.0 4:0.0 
-1.0 1:1.0 2:0.0 3:0.0 4:0.0 
-1.0 1:6.0 2:0.0 3:0.0 4:0.0 
-1.0 1:6.0 2:0.0 3:0.0 4:0.0 
-1.0 1:6.0 2:0.0 3:0.0 4:0.0 
-1.0 1:6.0 2:0.0 3:0.0 4:0.0 
-1.0 1:1.0 2:0.0 3:0.0 4:0.0 
-1.0 1:4.0 2:0.0 3:0.0 4:0.0 
-1.0 1:2.0 2:0.0 3:0.0 4:0.0 
-1.0 1:3.0 2:0.0 3:0.0 4:0.0 
-1.0 1:3.0 2:0.0 3:0.0 4:0.0 
-1.0 1:5.0 2:0.0 3:0.0 4:0.0 
-1.0 1:1.0 2:0.0 3:0.0 4:0.0 
-1.0 1:3.0 2:0.0 3:0.0 4:0.0 
-1.0 1:33.0 2:0.0 3:0.0 4:0.0 
-1.0 1:33.0 2:0.0 3:0.0 4:0.0 
-1.0 1:3.0 2:0.0 3:0.0 4:0.0 
-1.0 1:7.0 2:0.0 3:0.0 4:0.0 
-1.0 1:2.0 2:0.0 3:0.0 4:0.0 
-1.0 1:4.0 2:0.0 3:0.0 4:0.0 
-1.0 1:1.0 2:0.0 3:0.0 4:0.0 
-0.36994775085938436 1:62.0 2:1.0 3:7.0 4:0.0 
-0.1253936972833876 1:36.0 2:0.0 3:4.0 4:0.0 
-1.0 1:14.0 2:0.0 3:0.0 4:0.0 
-1.0 1:14.0 2:0.0 3:0.0 4:0.0 
-1.0 1:2.0 2:0.0 3:0.0 4:0.0 
-1.0 1:1.0 2:0.0 3:0.0 4:0.0 
-1.0 1:6.0 2:0.0 3:0.0 4:0.0 
-1.0 1:4.0 2:0.0 3:0.0 4:0.0 
-1.0 1:13.0 2:0.0 3:0.0 4:0.0 
-1.0 1:4.0 2:0.0 3:0.0 4:0.0 
-1.0 1:20.0 2:1.0 3:0.0 4:0.0 
-1.0 1:19.0 2:0.0 3:0.0 4:0.0 
-1.0 1:16.0 2:0.0 3:0.0 4:0.0 
-1.0 1:16.0 2:0.0 3:0.0 4:0.0 
-1.0 1:14.0 2:0.0 3:0.0 4:0.0 
-1.0 1:14.0 2:0.0 3:0.0 4:0.0 
-1.0 1:5.0 2:0.0 3:0.0 4:0.0 
-1.0 1:1.0 2:0.0 3:0.0 4:0.0 
-1.0 1:2.0 2:0.0 3:0.0 4:0.0 
-1.0 1:24.0 2:0.0 3:0.0 4:0.0 
-1.0 1:24.0 2:0.0 3:0.0 4:0.0 
-1.0 1:6.0 2:0.0 3:0.0 4:0.0 
-1.0 1:6.0 2:0.0 3:0.0 4:0.0 
-1.0 1:6.0 2:0.0 3:0.0 4:0.0 
-1.0 1:1.0 2:0.0 3:0.0 4:0.0 
-1.0 1:1.0 2:0.0 3:0.0 4:0.0 
-1.0 1:42.0 2:0.0 3:0.0 4:0.0 
-1.0 1:1.0 2:0.0 3:0.0 4:0.0 
-1.0 1:1.0 2:0.0 3:0.0 4:0.0 
-1.0 1:3.0 2:0.0 3:0.0 4:0.0 
-1.0 1:2.0 2:0.0 3:0.0 4:0.0 
-1.0 1:18.0 2:0.0 3:0.0 4:0.0 
-1.0 1:18.0 2:0.0 3:0.0 4:0.0 
-1.0 1:18.0 2:0.0 3:0.0 4:0.0 
-1.0 1:17.0 2:0.0 3:0.0 4:0.0 
-1.0 1:11.0 2:0.0 3:0.0 4:0.0 
-1.0 1:1.0 2:0.0 3:0.0 4:0.0 
-1.0 1:14.0 2:0.0 3:0.0 4:0.0 
-1.0 1:14.0 2:0.0 3:0.0 4:0.0 
-1.0 1:7.0 2:0.0 3:0.0 4:0.0 
-1.0 1:6.0 2:0.0 3:0.0 4:0.0 
-1.0 1:11.0 2:0.0 3:0.0 4:0.0 
-1.0 1:11.0 2:0.0 3:0.0 4:0.0 
-1.0 1:1.0 2:0.0 3:0.0 4:0.0 
-1.0 1:1.0 2:0.0 3:0.0 4:0.0 
-1.0 1:1.0 2:0.0 3:0.0 4:0.0 
-1.0 1:1.0 2:0.0 3:0.0 4:0.0 
-1.0 1:2.0 2:0.0 3:0.0 4:0.0 
-1.0 1:2.0 2:0.0 3:0.0 4:0.0 
-1.0 1:2.0 2:0.0 3:0.0 4:0.0 
-1.0 1:2.0 2:0.0 3:0.0 4:0.0 
-1.0 1:3.0 2:0.0 3:0.0 4:0.0 
-1.0 1:10.0 2:0.0 3:0.0 4:0.0 
-1.0 1:7.0 2:0.0 3:0.0 4:0.0 
-1.0 1:2.0 2:0.0 3:0.0 4:0.0 
-1.0 1:2.0 2:0.0 3:0.0 4:0.0 
-1.0 1:1.0 2:0.0 3:0.0 4:0.0 
-1.0 1:1.0 2:0.0 3:0.0 4:0.0 
-1.0 1:9.0 2:0.0 3:0.0 4:0.0 
-1.0 1:9.0 2:0.0 3:0.0 4:0.0 
-1.0 1:6.0 2:0.0 3:0.0 4:0.0 
-1.0 1:3.0 2:0.0 3:0.0 4:0.0 
-1.0 1:3.0 2:0.0 3:0.0 4:0.0 
-1.0 1:3.0 2:0.0 3:0.0 4:0.0 
-1.0 1:3.0 2:0.0 3:0.0 4:0.0 
-1.0 1:8.0 2:0.0 3:0.0 4:0.0 
-1.0 1:8.0 2:0.0 3:0.0 4:0.0 
-1.0 1:8.0 2:0.0 3:0.0 4:0.0 
-1.0 1:8.0 2:0.0 3:0.0 4:0.0 
-1.0 1:8.0 2:0.0 3:0.0 4:0.0 
-1.0 1:1.0 2:0.0 3:0.0 4:0.0 
-1.0 1:3.0 2:0.0 3:0.0 4:0.0 
-1.0 1:1.0 2:0.0 3:0.0 4:0.0 
-1.0 1:3.0 2:0.0 3:0.0 4:0.0 
-1.0 1:13.0 2:0.0 3:0.0 4:0.0 
-1.0 1:1.0 2:0.0 3:0.0 4:0.0 
-1.0 1:1.0 2:0.0 3:0.0 4:0.0 
-1.0 1:1.0 2:0.0 3:0.0 4:0.0 
-1.0 1:1.0 2:0.0 3:0.0 4:0.0 
-1.0 1:1.0 2:0.0 3:0.0 4:0.0 
-1.0 1:42.0 2:0.0 3:0.0 4:0.0 
-1.0 1:1.0 2:0.0 3:0.0 4:0.0 
-1.0 1:6.0 2:0.0 3:0.0 4:0.0 
-1.0 1:6.0 2:0.0 3:0.0 4:0.0 
-1.0 1:8.0 2:0.0 3:0.0 4:0.0 
-1.0 1:8.0 2:0.0 3:0.0 4:0.0 
-1.0 1:8.0 2:0.0 3:0.0 4:0.0 
-1.0 1:2.0 2:0.0 3:0.0 4:0.0 
-1.0 1:2.0 2:0.0 3:0.0 4:0.0 
-1.0 1:2.0 2:0.0 3:0.0 4:0.0 
-1.0 1:1.0 2:0.0 3:0.0 4:0.0 
-1.0 1:1.0 2:0.0 3:0.0 4:0.0 
-1.0 1:30.0 2:0.0 3:0.0 4:0.0 
-1.0 1:30.0 2:0.0 3:0.0 4:0.0 
-1.0 1:30.0 2:0.0 3:0.0 4:0.0 
-1.0 1:30.0 2:0.0 3:0.0 4:0.0 
-1.0 1:6.0 2:0.0 3:0.0 4:0.0 
-1.0 1:12.0 2:0.0 3:1.0 4:0.0 
-1.0 1:4.0 2:0.0 3:0.0 4:0.0 
-1.0 1:6.0 2:0.0 3:0.0 4:0.0 
-1.0 1:6.0 2:0.0 3:0.0 4:0.0 
-1.0 1:6.0 2:0.0 3:0.0 4:0.0 
-1.0 1:6.0 2:0.0 3:0.0 4:0.0 
-1.0 1:6.0 2:0.0 3:0.0 4:0.0 
-1.0 1:2.0 2:0.0 3:0.0 4:0.0 
-1.0 1:2.0 2:0.0 3:0.0 4:0.0 
-1.0 1:1.0 2:0.0 3:0.0 4:0.0 
-1.0 1:2.0 2:0.0 3:0.0 4:0.0 
-1.0 1:1.0 2:0.0 3:0.0 4:0.0 
-1.0 1:1.0 2:0.0 3:0.0 4:0.0 
-1.0 1:6.0 2:0.0 3:0.0 4:0.0 
-1.0 1:1.0 2:0.0 3:0.0 4:0.0 
-1.0 1:6.0 2:0.0 3:0.0 4:0.0 
-1.0 1:1.0 2:0.0 3:1.0 4:0.0 
-1.0 1:1.0 2:0.0 3:0.0 4:0.0 
-0.35857469401809733 1:201.0 2:2.0 3:0.0 4:0.0 
-0.24105851489222352 1:126.0 2:0.0 3:0.0 4:0.0 
-1.0 1:3.0 2:0.0 3:0.0 4:0.0 
-1.0 1:3.0 2:0.0 3:0.0 4:0.0 
-1.0 1:1.0 2:0.0 3:0.0 4:0.0 
-1.0 1:1.0 2:0.0 3:0.0 4:0.0 
-1.0 1:1.0 2:0.0 3:0.0 4:0.0 
-1.0 1:3.0 2:0.0 3:0.0 4:0.0 
-1.0 1:3.0 2:0.0 3:0.0 4:0.0 
-1.0 1:3.0 2:0.0 3:0.0 4:0.0 
-0.19733754703177075 1:49.0 2:9.0 3:0.0 4:0.0 
-1.0 1:2.0 2:0.0 3:0.0 4:0.0 
-1.0 1:2.0 2:0.0 3:0.0 4:0.0 
-1.0 1:2.0 2:0.0 3:0.0 4:0.0 
-1.0 1:2.0 2:0.0 3:0.0 4:0.0 
-1.0 1:3.0 2:0.0 3:0.0 4:0.0 
-1.0 1:4.0 2:0.0 3:0.0 4:0.0 
-1.0 1:12.0 2:0.0 3:0.0 4:0.0 
-1.0 1:1.0 2:0.0 3:0.0 4:0.0 
-1.0 1:1.0 2:0.0 3:0.0 4:0.0 
-1.0 1:1.0 2:0.0 3:0.0 4:0.0 
-1.0 1:1.0 2:0.0 3:0.0 4:0.0 
-1.0 1:1.0 2:0.0 3:0.0 4:0.0 
-1.0 1:1.0 2:0.0 3:0.0 4:0.0 
-1.0 1:2.0 2:0.0 3:0.0 4:0.0 
-1.0 1:1.0 2:0.0 3:0.0 4:0.0 
-1.0 1:1.0 2:0.0 3:0.0 4:0.0 
-1.0 1:2.0 2:0.0 3:0.0 4:0.0 
-1.0 1:6.0 2:0.0 3:0.0 4:0.0 
-1.0 1:20.0 2:1.0 3:0.0 4:0.0 
-1.0 1:15.0 2:0.0 3:0.0 4:0.0 
-0.2524189708959976 1:13.0 2:6.0 3:0.0 4:0.0 
-1.0 1:4.0 2:0.0 3:0.0 4:0.0 
-1.0 1:4.0 2:0.0 3:0.0 4:0.0 
-1.0 1:4.0 2:0.0 3:0.0 4:0.0 
-1.0 1:4.0 2:0.0 3:0.0 4:0.0 
-1.0 1:12.0 2:0.0 3:0.0 4:0.0 
-1.0 1:12.0 2:0.0 3:0.0 4:0.0 
-1.0 1:10.0 2:0.0 3:0.0 4:0.0 
-1.0 1:2.0 2:0.0 3:0.0 4:0.0 
-1.0 1:2.0 2:0.0 3:0.0 4:0.0 
-1.0 1:1.0 2:0.0 3:0.0 4:0.0 
-1.0 1:1.0 2:0.0 3:0.0 4:0.0 
-1.0 1:6.0 2:0.0 3:0.0 4:1.0 
-1.0 1:2.0 2:0.0 3:0.0 4:0.0 
-1.0 1:2.0 2:0.0 3:0.0 4:0.0 
-1.0 1:1.0 2:0.0 3:0.0 4:0.0 
-1.0 1:5.0 2:0.0 3:0.0 4:0.0 
-1.0 1:11.0 2:0.0 3:0.0 4:0.0 
-1.0 1:11.0 2:0.0 3:0.0 4:0.0 
-1.0 1:11.0 2:0.0 3:0.0 4:0.0 
-1.0 1:6.0 2:0.0 3:0.0 4:0.0 
-1.0 1:7.0 2:0.0 3:0.0 4:0.0 
-1.0 1:7.0 2:0.0 3:0.0 4:0.0 
-1.0 1:7.0 2:0.0 3:0.0 4:0.0 
-1.0 1:11.0 2:0.0 3:0.0 4:0.0 
-1.0 1:2.0 2:0.0 3:0.0 4:0.0 
-1.0 1:2.0 2:0.0 3:0.0 4:0.0 
-1.0 1:1.0 2:0.0 3:0.0 4:0.0 
-1.0 1:22.0 2:0.0 3:0.0 4:0.0 
-1.0 1:22.0 2:0.0 3:0.0 4:0.0 
-1.0 1:22.0 2:0.0 3:0.0 4:0.0 
-1.0 1:17.0 2:0.0 3:0.0 4:0.0 
-1.0 1:17.0 2:0.0 3:0.0 4:0.0 
-1.0 1:17.0 2:0.0 3:0.0 4:0.0 
-1.0 1:17.0 2:0.0 3:0.0 4:0.0 
-1.0 1:32.0 2:0.0 3:1.0 4:0.0 
-1.0 1:1.0 2:0.0 3:0.0 4:0.0 
-0.337331171360124 1:167.0 2:1.0 3:1.0 4:0.0 
-0.7602711434293985 1:122.0 2:0.0 3:0.0 4:0.0 
-1.0 1:6.0 2:0.0 3:0.0 4:0.0 
-1.0 1:6.0 2:0.0 3:0.0 4:0.0 
-1.0 1:14.0 2:0.0 3:0.0 4:0.0 
-1.0 1:14.0 2:0.0 3:0.0 4:0.0 
-1.0 1:14.0 2:0.0 3:0.0 4:0.0 
-1.0 1:14.0 2:0.0 3:0.0 4:0.0 
-1.0 1:1.0 2:0.0 3:1.0 4:0.0 
-1.0 1:27.0 2:0.0 3:0.0 4:0.0 
-1.0 1:27.0 2:0.0 3:0.0 4:0.0 
-1.0 1:27.0 2:0.0 3:0.0 4:0.0 
-1.0 1:54.0 2:0.0 3:0.0 4:0.0 
-1.0 1:4.0 2:0.0 3:0.0 4:0.0 
-1.0 1:4.0 2:0.0 3:0.0 4:0.0 
-1.0 1:3.0 2:0.0 3:0.0 4:0.0 
-1.0 1:2.0 2:0.0 3:0.0 4:0.0 
-1.0 1:1.0 2:0.0 3:0.0 4:0.0 
-1.0 1:1.0 2:0.0 3:0.0 4:0.0 
-1.0 1:1.0 2:0.0 3:0.0 4:0.0 
-1.0 1:1.0 2:0.0 3:0.0 4:0.0 
-1.0 1:1.0 2:0.0 3:0.0 4:0.0 
-1.0 1:1.0 2:0.0 3:0.0 4:0.0 
-1.0 1:1.0 2:0.0 3:0.0 4:0.0 
-1.0 1:1.0 2:0.0 3:0.0 4:0.0 
-1.0 1:1.0 2:0.0 3:0.0 4:0.0 
-0.25285050482619487 1:15.0 2:6.0 3:0.0 4:0.0 
-1.0 1:1.0 2:0.0 3:0.0 4:0.0 
-1.0 1:1.0 2:0.0 3:0.0 4:0.0 
-1.0 1:5.0 2:0.0 3:1.0 4:0.0 
-1.0 1:2.0 2:0.0 3:0.0 4:0.0 
-1.0 1:2.0 2:0.0 3:0.0 4:0.0 
-1.0 1:7.0 2:0.0 3:0.0 4:0.0 
-1.0 1:3.0 2:0.0 3:0.0 4:0.0 
-1.0 1:3.0 2:0.0 3:0.0 4:0.0 
-1.0 1:1.0 2:0.0 3:0.0 4:0.0 
-1.0 1:1.0 2:0.0 3:0.0 4:0.0 
-1.0 1:1.0 2:0.0 3:0.0 4:0.0 
-1.0 1:1.0 2:0.0 3:0.0 4:0.0 
-1.0 1:1.0 2:0.0 3:0.0 4:0.0 
-1.0 1:1.0 2:0.0 3:0.0 4:0.0 
-1.0 1:1.0 2:0.0 3:0.0 4:0.0 
-1.0 1:1.0 2:0.0 3:0.0 4:0.0 
-1.0 1:2.0 2:0.0 3:0.0 4:0.0 
-1.0 1:3.0 2:0.0 3:0.0 4:0.0 
-1.0 1:17.0 2:0.0 3:0.0 4:0.0 
-1.0 1:2.0 2:0.0 3:0.0 4:0.0 
-1.0 1:3.0 2:0.0 3:0.0 4:0.0 
-1.0 1:2.0 2:0.0 3:0.0 4:0.0 
-1.0 1:1.0 2:0.0 3:0.0 4:0.0 
-1.0 1:1.0 2:0.0 3:0.0 4:0.0 
-1.0 1:3.0 2:0.0 3:0.0 4:0.0 
-1.0 1:13.0 2:0.0 3:0.0 4:0.0 
-1.0 1:13.0 2:0.0 3:0.0 4:0.0 
-1.0 1:13.0 2:0.0 3:0.0 4:0.0 
-1.0 1:2.0 2:0.0 3:0.0 4:0.0 
-1.0 1:7.0 2:0.0 3:0.0 4:0.0 
-1.0 1:1.0 2:0.0 3:0.0 4:0.0 
-1.0 1:6.0 2:0.0 3:0.0 4:0.0 
-1.0 1:6.0 2:0.0 3:0.0 4:0.0 
-1.0 1:6.0 2:0.0 3:0.0 4:0.0 
-1.0 1:4.0 2:0.0 3:0.0 4:0.0 
-1.0 1:2.0 2:0.0 3:0.0 4:0.0 
-1.0 1:2.0 2:0.0 3:0.0 4:0.0 
-1.0 1:4.0 2:0.0 3:0.0 4:0.0 
-1.0 1:1.0 2:0.0 3:0.0 4:0.0 
-1.0 1:2.0 2:0.0 3:0.0 4:0.0 
-1.0 1:1.0 2:0.0 3:0.0 4:0.0 
-1.0 1:1.0 2:0.0 3:0.0 4:0.0 
-1.0 1:8.0 2:0.0 3:0.0 4:0.0 
-1.0 1:6.0 2:0.0 3:0.0 4:0.0 
-1.0 1:6.0 2:0.0 3:0.0 4:0.0 
-1.0 1:6.0 2:0.0 3:0.0 4:0.0 
-1.0 1:6.0 2:0.0 3:0.0 4:0.0 
-1.0 1:6.0 2:0.0 3:0.0 4:0.0 
-1.0 1:6.0 2:0.0 3:0.0 4:0.0 
-1.0 1:1.0 2:0.0 3:0.0 4:0.0 
-1.0 1:14.0 2:0.0 3:0.0 4:0.0 
-1.0 1:9.0 2:0.0 3:0.0 4:0.0 
-1.0 1:9.0 2:0.0 3:0.0 4:0.0 
-1.0 1:2.0 2:0.0 3:0.0 4:0.0 
-1.0 1:2.0 2:0.0 3:0.0 4:0.0 
-1.0 1:2.0 2:0.0 3:0.0 4:0.0 
-1.0 1:1.0 2:0.0 3:0.0 4:0.0 
-1.0 1:1.0 2:0.0 3:0.0 4:0.0 
-1.0 1:1.0 2:0.0 3:0.0 4:0.0 
-1.0 1:1.0 2:0.0 3:0.0 4:0.0 
-0.29852393049086884 1:12.0 2:1.0 3:0.0 4:0.0 
-1.0 1:11.0 2:0.0 3:0.0 4:0.0 
-1.0 1:3.0 2:0.0 3:0.0 4:0.0 
-1.0 1:3.0 2:0.0 3:0.0 4:0.0 
-1.0 1:3.0 2:0.0 3:0.0 4:0.0 
-1.0 1:3.0 2:0.0 3:0.0 4:0.0 
-1.0 1:4.0 2:0.0 3:0.0 4:0.0 
-1.0 1:4.0 2:0.0 3:0.0 4:0.0 
-1.0 1:11.0 2:0.0 3:0.0 4:0.0 
-1.0 1:9.0 2:0.0 3:0.0 4:0.0 
-1.0 1:1.0 2:0.0 3:0.0 4:0.0 
-1.0 1:15.0 2:0.0 3:0.0 4:0.0 
-1.0 1:41.0 2:0.0 3:0.0 4:0.0 
-1.0 1:7.0 2:0.0 3:0.0 4:0.0 
-1.0 1:3.0 2:0.0 3:0.0 4:0.0 
-1.0 1:3.0 2:0.0 3:0.0 4:0.0 
-0.2525440454175508 1:34.0 2:5.0 3:0.0 4:0.0 
-1.0 1:2.0 2:0.0 3:0.0 4:0.0 
-1.0 1:15.0 2:0.0 3:0.0 4:0.0 
-0.16529652796105987 1:38.0 2:1.0 3:0.0 4:0.0 
-0.9770979159788757 1:38.0 2:1.0 3:0.0 4:0.0 
-1.0 1:10.0 2:0.0 3:0.0 4:0.0 
-0.3065396954208306 1:77.0 2:0.0 3:3.0 4:0.0 
-1.0 1:77.0 2:0.0 3:3.0 4:0.0 
-1.0 1:1.0 2:0.0 3:0.0 4:0.0 
-1.0 1:1.0 2:0.0 3:0.0 4:0.0 
-1.0 1:1.0 2:0.0 3:0.0 4:0.0 
-1.0 1:1.0 2:0.0 3:0.0 4:0.0 
-1.0 1:1.0 2:0.0 3:0.0 4:0.0 
-1.0 1:12.0 2:0.0 3:0.0 4:0.0 
-1.0 1:67.0 2:0.0 3:0.0 4:0.0 
-1.0 1:67.0 2:0.0 3:0.0 4:0.0 
-1.0 1:67.0 2:0.0 3:0.0 4:0.0 
-0.3445261595133939 1:63.0 2:0.0 3:0.0 4:0.0 
-1.0 1:63.0 2:0.0 3:0.0 4:0.0 
-0.9990352260805333 1:63.0 2:0.0 3:0.0 4:0.0 
-1.0 1:21.0 2:0.0 3:0.0 4:0.0 
-1.0 1:21.0 2:0.0 3:0.0 4:0.0 
-1.0 1:21.0 2:0.0 3:0.0 4:0.0 
-1.0 1:21.0 2:0.0 3:0.0 4:0.0 
-1.0 1:12.0 2:0.0 3:0.0 4:0.0 
-1.0 1:12.0 2:0.0 3:0.0 4:0.0 
-1.0 1:1.0 2:0.0 3:0.0 4:0.0 
-1.0 1:5.0 2:0.0 3:0.0 4:0.0 
-1.0 1:13.0 2:0.0 3:0.0 4:0.0 
-1.0 1:13.0 2:0.0 3:0.0 4:0.0 
-1.0 1:13.0 2:0.0 3:0.0 4:0.0 
-1.0 1:13.0 2:0.0 3:0.0 4:0.0 
-1.0 1:13.0 2:0.0 3:0.0 4:0.0 
-1.0 1:13.0 2:0.0 3:0.0 4:0.0 
-1.0 1:13.0 2:0.0 3:0.0 4:0.0 
-1.0 1:13.0 2:0.0 3:0.0 4:0.0 
-1.0 1:13.0 2:0.0 3:0.0 4:0.0 
-1.0 1:13.0 2:0.0 3:0.0 4:0.0 
-1.0 1:1.0 2:0.0 3:0.0 4:0.0 
-1.0 1:11.0 2:0.0 3:1.0 4:0.0 
-1.0 1:4.0 2:0.0 3:0.0 4:0.0 
-1.0 1:4.0 2:0.0 3:0.0 4:0.0 
-1.0 1:8.0 2:0.0 3:0.0 4:0.0 
-1.0 1:4.0 2:0.0 3:0.0 4:0.0 
-1.0 1:14.0 2:0.0 3:0.0 4:0.0 
-1.0 1:9.0 2:0.0 3:1.0 4:0.0 
-1.0 1:38.0 2:0.0 3:0.0 4:0.0 
-1.0 1:38.0 2:0.0 3:0.0 4:0.0 
-1.0 1:7.0 2:0.0 3:0.0 4:0.0 
-1.0 1:10.0 2:0.0 3:0.0 4:0.0 
-1.0 1:10.0 2:0.0 3:0.0 4:0.0 
-1.0 1:1.0 2:0.0 3:0.0 4:0.0 
-1.0 1:11.0 2:0.0 3:0.0 4:0.0 
-1.0 1:7.0 2:0.0 3:0.0 4:0.0 
-1.0 1:7.0 2:0.0 3:0.0 4:0.0 
-1.0 1:5.0 2:0.0 3:0.0 4:0.0 
-1.0 1:5.0 2:0.0 3:0.0 4:0.0 
-1.0 1:1.0 2:0.0 3:0.0 4:0.0 
-1.0 1:1.0 2:0.0 3:0.0 4:0.0 
-1.0 1:1.0 2:0.0 3:0.0 4:0.0 
-1.0 1:4.0 2:0.0 3:0.0 4:0.0 
-1.0 1:3.0 2:0.0 3:0.0 4:0.0 
-1.0 1:6.0 2:0.0 3:0.0 4:0.0 
-1.0 1:1.0 2:0.0 3:0.0 4:0.0 
-1.0 1:7.0 2:0.0 3:0.0 4:0.0 
-1.0 1:5.0 2:0.0 3:0.0 4:0.0 
-0.2054520589367731 1:36.0 2:0.0 3:0.0 4:0.0 
-1.0 1:36.0 2:0.0 3:0.0 4:0.0 
-1.0 1:36.0 2:0.0 3:0.0 4:0.0 
-1.0 1:36.0 2:0.0 3:0.0 4:0.0 
-1.0 1:36.0 2:0.0 3:0.0 4:0.0 
-1.0 1:1.0 2:0.0 3:0.0 4:0.0 
-1.0 1:1.0 2:0.0 3:0.0 4:0.0 
-1.0 1:1.0 2:0.0 3:1.0 4:0.0 
-1.0 1:4.0 2:0.0 3:0.0 4:0.0 
-0.29785984748519895 1:10.0 2:1.0 3:0.0 4:0.0 
-0.1763635039656014 1:11.0 2:1.0 3:0.0 4:0.0 
-1.0 1:3.0 2:0.0 3:0.0 4:0.0 
-1.0 1:29.0 2:1.0 3:0.0 4:0.0 
-1.0 1:11.0 2:0.0 3:0.0 4:0.0 
-1.0 1:9.0 2:0.0 3:0.0 4:0.0 
-1.0 1:9.0 2:0.0 3:0.0 4:0.0 
-1.0 1:2.0 2:0.0 3:0.0 4:0.0 
-1.0 1:1.0 2:0.0 3:0.0 4:0.0 
-1.0 1:1.0 2:0.0 3:0.0 4:0.0 
-1.0 1:38.0 2:0.0 3:0.0 4:0.0 
-1.0 1:38.0 2:0.0 3:0.0 4:0.0 
-1.0 1:2.0 2:0.0 3:0.0 4:0.0 
-1.0 1:2.0 2:0.0 3:0.0 4:0.0 
-0.28768881703437776 1:52.0 2:7.0 3:0.0 4:0.0 
-0.2705821896520938 1:37.0 2:5.0 3:0.0 4:0.0 
-0.32395768855890805 1:44.0 2:6.0 3:0.0 4:0.0 
-1.0 1:2.0 2:0.0 3:0.0 4:0.0 
-1.0 1:1.0 2:0.0 3:0.0 4:0.0 
-1.0 1:18.0 2:0.0 3:0.0 4:0.0 
-1.0 1:20.0 2:0.0 3:0.0 4:0.0 
-1.0 1:20.0 2:0.0 3:0.0 4:0.0 
-1.0 1:20.0 2:0.0 3:0.0 4:0.0 
-1.0 1:20.0 2:0.0 3:0.0 4:0.0 
-1.0 1:20.0 2:0.0 3:0.0 4:0.0 
-1.0 1:20.0 2:0.0 3:0.0 4:0.0 
-0.1249275192975619 1:72.0 2:0.0 3:0.0 4:1.0 
-0.3585222768666059 1:294.0 2:14.0 3:0.0 4:2.0 
-0.33921030393853835 1:143.0 2:5.0 3:0.0 4:1.0 
-0.35835564617167237 1:193.0 2:6.0 3:0.0 4:1.0 
-0.3576913637809651 1:249.0 2:9.0 3:0.0 4:1.0 
-1.0 1:15.0 2:0.0 3:0.0 4:0.0 
-1.0 1:1.0 2:0.0 3:0.0 4:0.0 
-1.0 1:1.0 2:0.0 3:0.0 4:0.0 
-0.12350288331310433 1:81.0 2:4.0 3:0.0 4:0.0 
-0.04101819978237041 1:59.0 2:0.0 3:0.0 4:0.0 
-1.0 1:59.0 2:0.0 3:0.0 4:0.0 
-1.0 1:1.0 2:0.0 3:0.0 4:0.0 
-1.0 1:23.0 2:0.0 3:0.0 4:0.0 
-1.0 1:1.0 2:0.0 3:0.0 4:0.0 
-1.0 1:5.0 2:0.0 3:0.0 4:0.0 
-1.0 1:4.0 2:0.0 3:0.0 4:0.0 
-1.0 1:2.0 2:0.0 3:0.0 4:0.0 
-1.0 1:4.0 2:0.0 3:0.0 4:0.0 
-1.0 1:17.0 2:0.0 3:0.0 4:0.0 
-1.0 1:1.0 2:0.0 3:0.0 4:0.0 
-1.0 1:1.0 2:0.0 3:0.0 4:0.0 
-1.0 1:12.0 2:0.0 3:0.0 4:0.0 
-1.0 1:12.0 2:0.0 3:0.0 4:0.0 
-1.0 1:12.0 2:0.0 3:0.0 4:0.0 
-1.0 1:7.0 2:0.0 3:0.0 4:0.0 
-1.0 1:2.0 2:0.0 3:0.0 4:0.0 
-0.38637252583415077 1:33.0 2:1.0 3:0.0 4:0.0 
-1.0 1:36.0 2:0.0 3:0.0 4:0.0 
-1.0 1:1.0 2:0.0 3:0.0 4:0.0 
-1.0 1:1.0 2:0.0 3:0.0 4:0.0 
-1.0 1:8.0 2:0.0 3:0.0 4:0.0 
-1.0 1:1.0 2:0.0 3:0.0 4:0.0 
-1.0 1:5.0 2:0.0 3:0.0 4:0.0 
-1.0 1:5.0 2:0.0 3:0.0 4:0.0 
-1.0 1:19.0 2:0.0 3:0.0 4:0.0 
-1.0 1:3.0 2:0.0 3:0.0 4:0.0 
-1.0 1:3.0 2:0.0 3:0.0 4:0.0 
-1.0 1:3.0 2:0.0 3:0.0 4:0.0 
-1.0 1:3.0 2:0.0 3:0.0 4:0.0 
-1.0 1:3.0 2:0.0 3:0.0 4:0.0 
-1.0 1:3.0 2:0.0 3:0.0 4:0.0 
-1.0 1:3.0 2:0.0 3:0.0 4:0.0 
-1.0 1:3.0 2:0.0 3:0.0 4:0.0 
-1.0 1:3.0 2:0.0 3:0.0 4:0.0 
-1.0 1:3.0 2:0.0 3:0.0 4:0.0 
-0.14072430731659213 1:25.0 2:1.0 3:0.0 4:0.0 
-0.9660429925937124 1:25.0 2:1.0 3:0.0 4:0.0 
-1.0 1:2.0 2:0.0 3:0.0 4:0.0 
-1.0 1:2.0 2:0.0 3:0.0 4:0.0 
-1.0 1:2.0 2:0.0 3:0.0 4:0.0 
-1.0 1:2.0 2:0.0 3:0.0 4:0.0 
-1.0 1:2.0 2:0.0 3:0.0 4:0.0 
-1.0 1:6.0 2:0.0 3:0.0 4:0.0 
-1.0 1:9.0 2:0.0 3:0.0 4:0.0 
-1.0 1:11.0 2:0.0 3:0.0 4:0.0 
-1.0 1:8.0 2:0.0 3:0.0 4:0.0 
-1.0 1:80.0 2:0.0 3:0.0 4:0.0 
-0.9957532857550837 1:80.0 2:0.0 3:0.0 4:0.0 
-0.1451116994924124 1:99.0 2:3.0 3:0.0 4:0.0 
-1.0 1:5.0 2:0.0 3:0.0 4:0.0 
-1.0 1:1.0 2:0.0 3:0.0 4:0.0 
-1.0 1:50.0 2:0.0 3:0.0 4:0.0 
-0.1101697549159377 1:50.0 2:0.0 3:0.0 4:0.0 
-1.0 1:3.0 2:0.0 3:0.0 4:0.0 
-1.0 1:1.0 2:0.0 3:0.0 4:0.0 
-1.0 1:1.0 2:0.0 3:0.0 4:0.0 
-1.0 1:29.0 2:0.0 3:0.0 4:0.0 
-1.0 1:2.0 2:0.0 3:0.0 4:0.0 
-1.0 1:4.0 2:0.0 3:0.0 4:0.0 
-1.0 1:9.0 2:0.0 3:0.0 4:0.0 
-1.0 1:9.0 2:0.0 3:0.0 4:0.0 
-1.0 1:14.0 2:0.0 3:0.0 4:0.0 
-1.0 1:1.0 2:0.0 3:0.0 4:0.0 
-1.0 1:21.0 2:0.0 3:0.0 4:0.0 
-1.0 1:21.0 2:0.0 3:0.0 4:0.0 
-1.0 1:21.0 2:0.0 3:0.0 4:0.0 
-1.0 1:21.0 2:0.0 3:0.0 4:0.0 
-1.0 1:21.0 2:0.0 3:0.0 4:0.0 
-0.35821781989087714 1:76.0 2:13.0 3:0.0 4:0.0 
-0.2738127785321146 1:38.0 2:10.0 3:0.0 4:0.0 
-0.06895100847721726 1:25.0 2:6.0 3:0.0 4:0.0 
-1.0 1:2.0 2:0.0 3:0.0 4:0.0 
-1.0 1:3.0 2:0.0 3:0.0 4:0.0 
-1.0 1:1.0 2:0.0 3:0.0 4:0.0 
-1.0 1:3.0 2:0.0 3:0.0 4:0.0 
-1.0 1:1.0 2:0.0 3:0.0 4:0.0 
-1.0 1:1.0 2:0.0 3:0.0 4:0.0 
-1.0 1:2.0 2:0.0 3:0.0 4:0.0 
-1.0 1:18.0 2:0.0 3:0.0 4:0.0 
-0.3215405917027281 1:41.0 2:11.0 3:0.0 4:0.0 
-1.0 1:4.0 2:0.0 3:0.0 4:0.0 
-1.0 1:3.0 2:0.0 3:0.0 4:0.0 
-1.0 1:2.0 2:0.0 3:0.0 4:0.0 
-0.9177208179932678 1:12.0 2:1.0 3:0.0 4:0.0 
-1.0 1:2.0 2:0.0 3:0.0 4:0.0 
-1.0 1:21.0 2:0.0 3:0.0 4:0.0 
-1.0 1:21.0 2:0.0 3:0.0 4:0.0 
-1.0 1:21.0 2:0.0 3:0.0 4:0.0 
-1.0 1:1.0 2:0.0 3:0.0 4:0.0 
-0.30628759965501473 1:81.0 2:6.0 3:0.0 4:0.0 
-1.0 1:9.0 2:0.0 3:0.0 4:0.0 
-1.0 1:10.0 2:0.0 3:0.0 4:0.0 
-1.0 1:3.0 2:0.0 3:0.0 4:0.0 
-1.0 1:3.0 2:0.0 3:0.0 4:0.0 
-1.0 1:1.0 2:0.0 3:0.0 4:0.0 
-1.0 1:3.0 2:0.0 3:0.0 4:0.0 
-1.0 1:1.0 2:0.0 3:0.0 4:0.0 
-1.0 1:5.0 2:0.0 3:1.0 4:0.0 
-1.0 1:5.0 2:0.0 3:1.0 4:0.0 
-1.0 1:5.0 2:0.0 3:1.0 4:0.0 
-1.0 1:1.0 2:0.0 3:0.0 4:0.0 
-1.0 1:16.0 2:0.0 3:6.0 4:0.0 
-1.0 1:2.0 2:0.0 3:0.0 4:0.0 
-1.0 1:46.0 2:0.0 3:2.0 4:0.0 
-0.3844038393928785 1:46.0 2:0.0 3:2.0 4:0.0 
-1.0 1:10.0 2:0.0 3:0.0 4:0.0 
-1.0 1:1.0 2:0.0 3:0.0 4:0.0 
-1.0 1:21.0 2:0.0 3:0.0 4:0.0 
-1.0 1:1.0 2:0.0 3:0.0 4:0.0 
-1.0 1:1.0 2:0.0 3:0.0 4:0.0 
-1.0 1:52.0 2:0.0 3:0.0 4:0.0 
-1.0 1:13.0 2:0.0 3:0.0 4:0.0 
-1.0 1:13.0 2:0.0 3:0.0 4:0.0 
-1.0 1:58.0 2:0.0 3:0.0 4:0.0 
-0.25482205760310567 1:58.0 2:0.0 3:0.0 4:0.0 
-1.0 1:17.0 2:0.0 3:0.0 4:0.0 
-1.0 1:6.0 2:0.0 3:0.0 4:0.0 
-1.0 1:9.0 2:0.0 3:0.0 4:0.0 
-1.0 1:1.0 2:0.0 3:0.0 4:0.0 
-1.0 1:3.0 2:0.0 3:0.0 4:0.0 
-1.0 1:2.0 2:0.0 3:0.0 4:0.0 
-1.0 1:30.0 2:0.0 3:1.0 4:0.0 
-1.0 1:30.0 2:0.0 3:1.0 4:0.0 
-1.0 1:1.0 2:0.0 3:0.0 4:0.0 
-1.0 1:6.0 2:0.0 3:1.0 4:0.0 
-1.0 1:6.0 2:0.0 3:1.0 4:0.0 
-1.0 1:22.0 2:0.0 3:0.0 4:0.0 
-1.0 1:39.0 2:0.0 3:0.0 4:0.0 
-1.0 1:2.0 2:0.0 3:0.0 4:0.0 
-1.0 1:4.0 2:0.0 3:0.0 4:0.0 
-1.0 1:1.0 2:0.0 3:0.0 4:0.0 
-1.0 1:6.0 2:0.0 3:2.0 4:0.0 
-1.0 1:6.0 2:0.0 3:2.0 4:0.0 
-1.0 1:6.0 2:0.0 3:2.0 4:0.0 
-1.0 1:2.0 2:0.0 3:0.0 4:0.0 
-1.0 1:1.0 2:0.0 3:0.0 4:0.0 
-1.0 1:12.0 2:0.0 3:0.0 4:0.0 
-1.0 1:2.0 2:0.0 3:1.0 4:0.0 
-1.0 1:2.0 2:0.0 3:0.0 4:0.0 
-1.0 1:2.0 2:0.0 3:0.0 4:0.0 
-1.0 1:25.0 2:0.0 3:0.0 4:0.0 
-1.0 1:25.0 2:0.0 3:0.0 4:0.0 
-1.0 1:25.0 2:0.0 3:0.0 4:0.0 
-1.0 1:2.0 2:0.0 3:0.0 4:0.0 
-1.0 1:1.0 2:0.0 3:0.0 4:0.0 
-1.0 1:13.0 2:0.0 3:0.0 4:0.0 
-1.0 1:13.0 2:0.0 3:0.0 4:0.0 
-1.0 1:5.0 2:0.0 3:0.0 4:0.0 
-1.0 1:15.0 2:0.0 3:0.0 4:0.0 
-1.0 1:15.0 2:0.0 3:0.0 4:0.0 
-1.0 1:15.0 2:0.0 3:0.0 4:0.0 
-1.0 1:15.0 2:0.0 3:0.0 4:0.0 
-1.0 1:15.0 2:0.0 3:0.0 4:0.0 
-1.0 1:15.0 2:0.0 3:0.0 4:0.0 
-1.0 1:7.0 2:0.0 3:0.0 4:0.0 
-1.0 1:7.0 2:0.0 3:0.0 4:0.0 
-1.0 1:11.0 2:0.0 3:0.0 4:0.0 
-1.0 1:25.0 2:0.0 3:0.0 4:0.0 
-1.0 1:25.0 2:0.0 3:0.0 4:0.0 
-1.0 1:25.0 2:0.0 3:0.0 4:0.0 
-1.0 1:1.0 2:0.0 3:0.0 4:0.0 
-1.0 1:3.0 2:0.0 3:0.0 4:0.0 
-1.0 1:12.0 2:0.0 3:0.0 4:0.0 
-1.0 1:12.0 2:0.0 3:0.0 4:0.0 
-1.0 1:1.0 2:0.0 3:0.0 4:0.0 
-1.0 1:5.0 2:0.0 3:0.0 4:0.0 
-1.0 1:15.0 2:0.0 3:0.0 4:0.0 
-1.0 1:7.0 2:0.0 3:0.0 4:0.0 
-1.0 1:1.0 2:0.0 3:0.0 4:0.0 
-1.0 1:5.0 2:0.0 3:0.0 4:0.0 
-1.0 1:13.0 2:0.0 3:0.0 4:0.0 
-1.0 1:13.0 2:0.0 3:0.0 4:0.0 
-1.0 1:3.0 2:0.0 3:0.0 4:0.0 
-1.0 1:5.0 2:0.0 3:0.0 4:0.0 
-1.0 1:1.0 2:0.0 3:0.0 4:0.0 
-1.0 1:7.0 2:0.0 3:0.0 4:0.0 
-1.0 1:7.0 2:0.0 3:0.0 4:0.0 
-1.0 1:7.0 2:0.0 3:0.0 4:0.0 
-1.0 1:1.0 2:0.0 3:0.0 4:0.0 
-0.8523417147255093 1:18.0 2:1.0 3:0.0 4:0.0 
-1.0 1:8.0 2:0.0 3:0.0 4:0.0 
-1.0 1:6.0 2:0.0 3:0.0 4:0.0 
-1.0 1:6.0 2:0.0 3:0.0 4:0.0 
-1.0 1:10.0 2:0.0 3:0.0 4:0.0 
-1.0 1:22.0 2:0.0 3:0.0 4:0.0 
-1.0 1:6.0 2:0.0 3:0.0 4:0.0 
-1.0 1:9.0 2:0.0 3:0.0 4:0.0 
-1.0 1:9.0 2:0.0 3:0.0 4:0.0 
-1.0 1:9.0 2:0.0 3:0.0 4:0.0 
-1.0 1:1.0 2:0.0 3:0.0 4:0.0 
-1.0 1:1.0 2:0.0 3:0.0 4:0.0 
-1.0 1:1.0 2:0.0 3:0.0 4:0.0 
-1.0 1:1.0 2:0.0 3:0.0 4:0.0 
-1.0 1:6.0 2:0.0 3:0.0 4:0.0 
-1.0 1:6.0 2:0.0 3:0.0 4:0.0 
-1.0 1:2.0 2:0.0 3:0.0 4:0.0 
-1.0 1:10.0 2:0.0 3:0.0 4:0.0 
-1.0 1:11.0 2:0.0 3:0.0 4:0.0 
-1.0 1:11.0 2:0.0 3:0.0 4:0.0 
-1.0 1:6.0 2:0.0 3:0.0 4:0.0 
-1.0 1:6.0 2:0.0 3:0.0 4:0.0 
-1.0 1:10.0 2:0.0 3:0.0 4:0.0 
-1.0 1:3.0 2:0.0 3:0.0 4:0.0 
-1.0 1:3.0 2:0.0 3:0.0 4:0.0 
-0.001957483247267078 1:88.0 2:0.0 3:0.0 4:0.0 
-1.0 1:7.0 2:0.0 3:0.0 4:0.0 
-1.0 1:1.0 2:0.0 3:0.0 4:0.0 
-1.0 1:1.0 2:0.0 3:0.0 4:0.0 
-1.0 1:4.0 2:0.0 3:0.0 4:0.0 
-1.0 1:4.0 2:0.0 3:0.0 4:0.0 
-1.0 1:4.0 2:0.0 3:0.0 4:0.0 
-1.0 1:2.0 2:0.0 3:0.0 4:0.0 
-1.0 1:2.0 2:0.0 3:0.0 4:0.0 
-0.9757723322612208 1:36.0 2:0.0 3:2.0 4:0.0 
-1.0 1:5.0 2:0.0 3:1.0 4:0.0 
-1.0 1:1.0 2:0.0 3:0.0 4:0.0 
-1.0 1:5.0 2:0.0 3:0.0 4:0.0 
-1.0 1:5.0 2:0.0 3:0.0 4:0.0 
-1.0 1:4.0 2:0.0 3:0.0 4:0.0 
-1.0 1:4.0 2:0.0 3:0.0 4:0.0 
-1.0 1:4.0 2:0.0 3:0.0 4:0.0 
-1.0 1:9.0 2:0.0 3:0.0 4:0.0 
-1.0 1:9.0 2:0.0 3:0.0 4:0.0 
-1.0 1:9.0 2:0.0 3:0.0 4:0.0 
-1.0 1:9.0 2:0.0 3:0.0 4:0.0 
-1.0 1:9.0 2:0.0 3:0.0 4:0.0 
-1.0 1:1.0 2:0.0 3:0.0 4:0.0 
-1.0 1:1.0 2:0.0 3:0.0 4:0.0 
-1.0 1:3.0 2:0.0 3:0.0 4:0.0 
-1.0 1:6.0 2:0.0 3:0.0 4:0.0 
-1.0 1:4.0 2:0.0 3:0.0 4:0.0 
-1.0 1:1.0 2:0.0 3:1.0 4:0.0 
-1.0 1:25.0 2:0.0 3:0.0 4:0.0 
-1.0 1:25.0 2:0.0 3:0.0 4:0.0 
-1.0 1:25.0 2:0.0 3:0.0 4:0.0 
-1.0 1:25.0 2:0.0 3:0.0 4:0.0 
-1.0 1:25.0 2:0.0 3:0.0 4:0.0 
-1.0 1:25.0 2:0.0 3:0.0 4:0.0 
-1.0 1:25.0 2:0.0 3:0.0 4:0.0 
-1.0 1:7.0 2:0.0 3:0.0 4:0.0 
-0.09885919663377049 1:43.0 2:1.0 3:0.0 4:0.0 
-1.0 1:29.0 2:0.0 3:0.0 4:0.0 
-1.0 1:43.0 2:1.0 3:0.0 4:0.0 
-1.0 1:43.0 2:1.0 3:0.0 4:0.0 
-1.0 1:8.0 2:0.0 3:0.0 4:0.0 
-1.0 1:5.0 2:0.0 3:1.0 4:0.0 
-0.4742436091162603 1:27.0 2:2.0 3:4.0 4:0.0 
-1.0 1:6.0 2:0.0 3:0.0 4:0.0 
-1.0 1:6.0 2:0.0 3:0.0 4:0.0 
-1.0 1:91.0 2:0.0 3:0.0 4:0.0 
-0.965976144618745 1:91.0 2:0.0 3:0.0 4:0.0 
-1.0 1:2.0 2:0.0 3:0.0 4:0.0 
-1.0 1:1.0 2:0.0 3:0.0 4:0.0 
-1.0 1:21.0 2:0.0 3:0.0 4:0.0 
-1.0 1:21.0 2:0.0 3:0.0 4:0.0 
-1.0 1:2.0 2:0.0 3:0.0 4:0.0 
-1.0 1:11.0 2:0.0 3:0.0 4:0.0 
-1.0 1:11.0 2:0.0 3:0.0 4:0.0 
-1.0 1:1.0 2:0.0 3:0.0 4:0.0 
-1.0 1:7.0 2:0.0 3:0.0 4:0.0 
-1.0 1:2.0 2:0.0 3:0.0 4:0.0 
-0.4713745053038113 1:44.0 2:0.0 3:0.0 4:0.0 
-1.0 1:2.0 2:0.0 3:0.0 4:0.0 
-1.0 1:2.0 2:0.0 3:0.0 4:0.0 
-1.0 1:2.0 2:0.0 3:0.0 4:0.0 
-1.0 1:2.0 2:0.0 3:0.0 4:0.0 
-1.0 1:14.0 2:0.0 3:0.0 4:0.0 
-1.0 1:7.0 2:0.0 3:0.0 4:0.0 
-1.0 1:12.0 2:0.0 3:0.0 4:0.0 
-0.2392828088818555 1:16.0 2:1.0 3:0.0 4:0.0 
-1.0 1:4.0 2:0.0 3:0.0 4:0.0 
-1.0 1:1.0 2:0.0 3:0.0 4:0.0 
-1.0 1:1.0 2:0.0 3:0.0 4:0.0 
-1.0 1:1.0 2:0.0 3:0.0 4:0.0 
-1.0 1:2.0 2:0.0 3:0.0 4:0.0 
-0.1754203608765963 1:49.0 2:8.0 3:0.0 4:0.0 
-0.29648415919996385 1:39.0 2:7.0 3:0.0 4:0.0 
-1.0 1:1.0 2:0.0 3:0.0 4:0.0 
-1.0 1:1.0 2:0.0 3:0.0 4:0.0 
-0.2763572267488347 1:137.0 2:9.0 3:1.0 4:0.0 
-0.618792739513951 1:2.0 2:1.0 3:1.0 4:0.0 
-1.0 1:1.0 2:0.0 3:0.0 4:0.0 
-0.3576982197788111 1:247.0 2:13.0 3:2.0 4:0.0 
-0.3428426597279173 1:197.0 2:10.0 3:2.0 4:0.0 
-1.0 1:1.0 2:0.0 3:0.0 4:0.0 
-1.0 1:10.0 2:0.0 3:0.0 4:0.0 
-1.0 1:2.0 2:0.0 3:0.0 4:0.0 
-1.0 1:3.0 2:0.0 3:0.0 4:0.0 
-1.0 1:9.0 2:0.0 3:0.0 4:0.0 
-1.0 1:19.0 2:0.0 3:0.0 4:0.0 
-1.0 1:9.0 2:0.0 3:0.0 4:0.0 
-1.0 1:9.0 2:0.0 3:0.0 4:0.0 
-1.0 1:9.0 2:0.0 3:0.0 4:0.0 
-1.0 1:3.0 2:0.0 3:1.0 4:0.0 
-1.0 1:2.0 2:0.0 3:0.0 4:0.0 
-1.0 1:1.0 2:0.0 3:0.0 4:0.0 
-1.0 1:1.0 2:0.0 3:0.0 4:0.0 
-1.0 1:1.0 2:0.0 3:0.0 4:0.0 
-1.0 1:1.0 2:0.0 3:0.0 4:0.0 
-1.0 1:3.0 2:0.0 3:0.0 4:0.0 
-1.0 1:1.0 2:0.0 3:0.0 4:0.0 
-1.0 1:3.0 2:0.0 3:0.0 4:0.0 
-1.0 1:8.0 2:0.0 3:0.0 4:0.0 
-1.0 1:15.0 2:0.0 3:0.0 4:0.0 
-0.550230290410298 1:28.0 2:1.0 3:0.0 4:0.0 
-0.13223458374344665 1:26.0 2:5.0 3:0.0 4:0.0 
-1.0 1:1.0 2:0.0 3:0.0 4:0.0 
-1.0 1:1.0 2:0.0 3:0.0 4:0.0 
-1.0 1:24.0 2:0.0 3:0.0 4:0.0 
-1.0 1:25.0 2:0.0 3:0.0 4:0.0 
-1.0 1:25.0 2:0.0 3:0.0 4:0.0 
-1.0 1:25.0 2:0.0 3:0.0 4:0.0 
-1.0 1:25.0 2:0.0 3:0.0 4:0.0 
-1.0 1:25.0 2:0.0 3:0.0 4:0.0 
-1.0 1:25.0 2:0.0 3:0.0 4:0.0 
-1.0 1:11.0 2:0.0 3:0.0 4:0.0 
-0.3568698492624689 1:115.0 2:10.0 3:0.0 4:0.0 
-0.2464582573304378 1:199.0 2:13.0 3:0.0 4:0.0 
-0.3110457850349604 1:93.0 2:0.0 3:0.0 4:0.0 
-1.0 1:3.0 2:0.0 3:0.0 4:0.0 
-1.0 1:3.0 2:0.0 3:0.0 4:0.0 
-1.0 1:1.0 2:0.0 3:0.0 4:0.0 
-1.0 1:1.0 2:0.0 3:0.0 4:0.0 
-1.0 1:1.0 2:0.0 3:0.0 4:0.0 
-1.0 1:6.0 2:0.0 3:0.0 4:0.0 
-1.0 1:6.0 2:0.0 3:0.0 4:0.0 
-1.0 1:5.0 2:0.0 3:0.0 4:0.0 
-1.0 1:5.0 2:0.0 3:0.0 4:0.0 
-1.0 1:5.0 2:0.0 3:0.0 4:0.0 
-1.0 1:2.0 2:0.0 3:0.0 4:0.0 
-0.48734371779000774 1:49.0 2:1.0 3:0.0 4:1.0 
-1.0 1:1.0 2:0.0 3:0.0 4:0.0 
-1.0 1:1.0 2:0.0 3:0.0 4:0.0 
-1.0 1:1.0 2:0.0 3:0.0 4:0.0 
-1.0 1:12.0 2:0.0 3:0.0 4:0.0 
-0.5401366932402228 1:51.0 2:0.0 3:0.0 4:0.0 
-1.0 1:2.0 2:0.0 3:0.0 4:0.0 
-1.0 1:5.0 2:0.0 3:0.0 4:0.0 
-1.0 1:1.0 2:0.0 3:0.0 4:0.0 
-1.0 1:4.0 2:0.0 3:1.0 4:0.0 
-1.0 1:2.0 2:0.0 3:0.0 4:0.0 
-1.0 1:1.0 2:0.0 3:0.0 4:0.0 
-1.0 1:7.0 2:0.0 3:0.0 4:0.0 
-1.0 1:3.0 2:0.0 3:0.0 4:0.0 
-1.0 1:4.0 2:0.0 3:0.0 4:0.0 
-1.0 1:1.0 2:0.0 3:0.0 4:0.0 
-1.0 1:1.0 2:0.0 3:0.0 4:0.0 
-1.0 1:1.0 2:0.0 3:0.0 4:0.0 
-1.0 1:1.0 2:0.0 3:0.0 4:0.0 
-1.0 1:5.0 2:0.0 3:0.0 4:0.0 
-1.0 1:1.0 2:0.0 3:0.0 4:0.0 
-1.0 1:1.0 2:0.0 3:0.0 4:0.0 
-1.0 1:1.0 2:0.0 3:0.0 4:0.0 
-1.0 1:1.0 2:0.0 3:0.0 4:0.0 
-1.0 1:15.0 2:0.0 3:0.0 4:0.0 
-1.0 1:1.0 2:0.0 3:0.0 4:0.0 
-1.0 1:2.0 2:0.0 3:0.0 4:0.0 
-1.0 1:1.0 2:0.0 3:0.0 4:0.0 
-1.0 1:7.0 2:0.0 3:0.0 4:0.0 
-1.0 1:7.0 2:0.0 3:0.0 4:0.0 
-1.0 1:4.0 2:0.0 3:0.0 4:0.0 
-1.0 1:5.0 2:0.0 3:0.0 4:0.0 
-0.09117154034461883 1:0.0 2:4.0 3:0.0 4:0.0 
-1.0 1:6.0 2:0.0 3:0.0 4:0.0 
-1.0 1:13.0 2:0.0 3:0.0 4:0.0 
-1.0 1:13.0 2:0.0 3:0.0 4:0.0 
-1.0 1:1.0 2:0.0 3:0.0 4:0.0 
-1.0 1:2.0 2:0.0 3:0.0 4:0.0 
-1.0 1:23.0 2:0.0 3:0.0 4:0.0 
-1.0 1:1.0 2:0.0 3:0.0 4:0.0 
-0.2842828967926177 1:55.0 2:6.0 3:0.0 4:0.0 
-1.0 1:2.0 2:0.0 3:0.0 4:0.0 
-1.0 1:2.0 2:0.0 3:0.0 4:0.0 
-1.0 1:2.0 2:0.0 3:0.0 4:0.0 
-1.0 1:2.0 2:0.0 3:0.0 4:0.0 
-1.0 1:2.0 2:0.0 3:0.0 4:0.0 
-1.0 1:2.0 2:0.0 3:0.0 4:0.0 
-0.17574545401723943 1:52.0 2:4.0 3:0.0 4:0.0 
-1.0 1:49.0 2:1.0 3:0.0 4:0.0 
-1.0 1:1.0 2:0.0 3:0.0 4:0.0 
-1.0 1:1.0 2:0.0 3:0.0 4:0.0 
-0.017023780577173346 1:33.0 2:1.0 3:1.0 4:0.0 
-1.0 1:1.0 2:0.0 3:0.0 4:0.0 
-1.0 1:5.0 2:0.0 3:0.0 4:0.0 
-1.0 1:1.0 2:0.0 3:0.0 4:0.0 
-1.0 1:12.0 2:0.0 3:2.0 4:0.0 
-1.0 1:12.0 2:0.0 3:2.0 4:0.0 
-0.2214572746949162 1:99.0 2:4.0 3:0.0 4:0.0 
-0.3586680966410994 1:165.0 2:10.0 3:0.0 4:0.0 
-0.35835458094679234 1:278.0 2:29.0 3:0.0 4:0.0 
-0.3588197867447727 1:232.0 2:15.0 3:0.0 4:0.0 
-0.16905613628241994 1:200.0 2:12.0 3:0.0 4:0.0 
-0.34069211108481756 1:141.0 2:8.0 3:0.0 4:0.0 
-0.35848375177607017 1:249.0 2:22.0 3:0.0 4:0.0 
-1.0 1:20.0 2:0.0 3:2.0 4:0.0 
-1.0 1:1.0 2:0.0 3:0.0 4:0.0 
-1.0 1:2.0 2:0.0 3:0.0 4:0.0 
-1.0 1:4.0 2:0.0 3:0.0 4:0.0 
-1.0 1:1.0 2:0.0 3:0.0 4:0.0 
-1.0 1:2.0 2:0.0 3:0.0 4:0.0 
-0.3650676167682565 1:41.0 2:0.0 3:6.0 4:0.0 
-1.0 1:4.0 2:0.0 3:0.0 4:0.0 
-0.8114703619615179 1:49.0 2:1.0 3:0.0 4:0.0 
-1.0 1:1.0 2:0.0 3:0.0 4:0.0 
-1.0 1:1.0 2:0.0 3:0.0 4:0.0 
-1.0 1:10.0 2:0.0 3:0.0 4:0.0 
-0.3586848451200906 1:568.0 2:6.0 3:0.0 4:0.0 
-1.0 1:76.0 2:0.0 3:0.0 4:0.0 
-0.3583926619627641 1:294.0 2:3.0 3:0.0 4:0.0 
-0.35600260649871485 1:181.0 2:2.0 3:0.0 4:0.0 
-0.35792120372957786 1:313.0 2:4.0 3:0.0 4:0.0 
-0.23577732661388068 1:103.0 2:1.0 3:0.0 4:0.0 
-1.0 1:5.0 2:0.0 3:0.0 4:0.0 
-1.0 1:19.0 2:0.0 3:0.0 4:0.0 
-1.0 1:3.0 2:0.0 3:0.0 4:0.0 
-1.0 1:1.0 2:0.0 3:0.0 4:0.0 
-1.0 1:1.0 2:0.0 3:0.0 4:0.0 
-0.37961143355708027 1:14.0 2:1.0 3:0.0 4:0.0 
-1.0 1:3.0 2:0.0 3:0.0 4:0.0 
-1.0 1:5.0 2:0.0 3:0.0 4:0.0 
-1.0 1:5.0 2:0.0 3:0.0 4:0.0 
-1.0 1:1.0 2:0.0 3:0.0 4:0.0 
-1.0 1:1.0 2:0.0 3:0.0 4:0.0 
-1.0 1:1.0 2:0.0 3:0.0 4:0.0 
-1.0 1:2.0 2:0.0 3:0.0 4:0.0 
-1.0 1:2.0 2:0.0 3:0.0 4:0.0 
-1.0 1:9.0 2:0.0 3:0.0 4:0.0 
-1.0 1:1.0 2:0.0 3:0.0 4:0.0 
-1.0 1:16.0 2:0.0 3:1.0 4:0.0 
-1.0 1:1.0 2:0.0 3:0.0 4:0.0 
-0.3168578832822804 1:38.0 2:13.0 3:0.0 4:0.0 
-0.3122406372812069 1:32.0 2:9.0 3:0.0 4:0.0 
-0.15438133216223793 1:31.0 2:5.0 3:0.0 4:0.0 
-0.14032715201464496 1:31.0 2:7.0 3:0.0 4:0.0 
-1.0 1:2.0 2:0.0 3:0.0 4:0.0 
-1.0 1:23.0 2:0.0 3:0.0 4:0.0 
-1.0 1:1.0 2:0.0 3:0.0 4:0.0 
-1.0 1:6.0 2:0.0 3:0.0 4:0.0 
-1.0 1:14.0 2:0.0 3:0.0 4:0.0 
-1.0 1:14.0 2:0.0 3:0.0 4:0.0 
-1.0 1:14.0 2:0.0 3:0.0 4:0.0 
-1.0 1:14.0 2:0.0 3:0.0 4:0.0 
-1.0 1:3.0 2:0.0 3:0.0 4:0.0 
-1.0 1:17.0 2:0.0 3:0.0 4:0.0 
-1.0 1:8.0 2:0.0 3:0.0 4:0.0 
-1.0 1:8.0 2:0.0 3:0.0 4:0.0 
-1.0 1:8.0 2:0.0 3:0.0 4:0.0 
-1.0 1:10.0 2:0.0 3:0.0 4:0.0 
-1.0 1:7.0 2:0.0 3:0.0 4:0.0 
-1.0 1:11.0 2:0.0 3:0.0 4:0.0 
-1.0 1:11.0 2:0.0 3:0.0 4:0.0 
-1.0 1:2.0 2:0.0 3:0.0 4:0.0 
-1.0 1:6.0 2:0.0 3:0.0 4:0.0 
-1.0 1:3.0 2:0.0 3:0.0 4:0.0 
-1.0 1:1.0 2:0.0 3:0.0 4:0.0 
-1.0 1:1.0 2:0.0 3:0.0 4:0.0 
-1.0 1:11.0 2:0.0 3:0.0 4:0.0 
-1.0 1:11.0 2:0.0 3:0.0 4:0.0 
-1.0 1:11.0 2:0.0 3:0.0 4:0.0 
-1.0 1:11.0 2:0.0 3:0.0 4:0.0 
-1.0 1:11.0 2:0.0 3:0.0 4:0.0 
-0.35660531904188764 1:1.0 2:1.0 3:0.0 4:0.0 
-1.0 1:8.0 2:0.0 3:0.0 4:0.0 
-1.0 1:23.0 2:1.0 3:0.0 4:0.0 
-1.0 1:2.0 2:0.0 3:1.0 4:0.0 
-1.0 1:4.0 2:0.0 3:0.0 4:0.0 
-1.0 1:4.0 2:0.0 3:0.0 4:0.0 
-1.0 1:13.0 2:0.0 3:2.0 4:0.0 
-1.0 1:31.0 2:0.0 3:0.0 4:0.0 
-0.3582219953903106 1:325.0 2:10.0 3:0.0 4:0.0 
-0.35838166385957826 1:287.0 2:1.0 3:0.0 4:0.0 
-1.0 1:4.0 2:0.0 3:0.0 4:0.0 
-1.0 1:5.0 2:0.0 3:0.0 4:0.0 
-1.0 1:3.0 2:0.0 3:1.0 4:0.0 
-1.0 1:8.0 2:0.0 3:0.0 4:0.0 
-1.0 1:10.0 2:0.0 3:0.0 4:0.0 
-1.0 1:10.0 2:0.0 3:0.0 4:0.0 
-1.0 1:10.0 2:0.0 3:0.0 4:0.0 
-1.0 1:10.0 2:0.0 3:0.0 4:0.0 
-1.0 1:10.0 2:0.0 3:0.0 4:0.0 
-1.0 1:4.0 2:0.0 3:0.0 4:0.0 
-0.3583052018517231 1:25.0 2:13.0 3:0.0 4:0.0 
-0.2634829775526935 1:66.0 2:5.0 3:0.0 4:0.0 
-0.1075278692919186 1:48.0 2:4.0 3:0.0 4:0.0 
-1.0 1:7.0 2:0.0 3:0.0 4:0.0 
-1.0 1:7.0 2:0.0 3:0.0 4:0.0 
-1.0 1:7.0 2:0.0 3:0.0 4:0.0 
-1.0 1:7.0 2:0.0 3:0.0 4:0.0 
-1.0 1:2.0 2:0.0 3:1.0 4:0.0 
-1.0 1:13.0 2:1.0 3:1.0 4:0.0 
-1.0 1:10.0 2:0.0 3:0.0 4:0.0 
-1.0 1:1.0 2:0.0 3:0.0 4:0.0 
-1.0 1:2.0 2:0.0 3:0.0 4:0.0 
-1.0 1:2.0 2:0.0 3:0.0 4:0.0 
-1.0 1:9.0 2:0.0 3:0.0 4:0.0 
-1.0 1:4.0 2:0.0 3:0.0 4:0.0 
-1.0 1:4.0 2:0.0 3:0.0 4:0.0 
-1.0 1:5.0 2:0.0 3:0.0 4:0.0 
-0.024707528212448863 1:11.0 2:1.0 3:0.0 4:0.0 
-1.0 1:9.0 2:0.0 3:0.0 4:0.0 
-1.0 1:4.0 2:0.0 3:0.0 4:0.0 
-1.0 1:26.0 2:0.0 3:0.0 4:0.0 
-1.0 1:26.0 2:0.0 3:0.0 4:0.0 
-1.0 1:2.0 2:0.0 3:0.0 4:0.0 
-1.0 1:31.0 2:0.0 3:0.0 4:0.0 
-1.0 1:1.0 2:0.0 3:0.0 4:0.0 
-1.0 1:3.0 2:0.0 3:0.0 4:0.0 
-1.0 1:1.0 2:0.0 3:1.0 4:0.0 
-1.0 1:8.0 2:0.0 3:0.0 4:0.0 
-1.0 1:6.0 2:0.0 3:0.0 4:0.0 
-1.0 1:1.0 2:0.0 3:0.0 4:0.0 
-0.9626159640125276 1:1.0 2:1.0 3:0.0 4:0.0 
-1.0 1:2.0 2:0.0 3:0.0 4:0.0 
-1.0 1:2.0 2:0.0 3:0.0 4:0.0 
-1.0 1:18.0 2:0.0 3:0.0 4:0.0 
-1.0 1:2.0 2:0.0 3:0.0 4:0.0 
-1.0 1:1.0 2:0.0 3:0.0 4:0.0 
-1.0 1:4.0 2:0.0 3:0.0 4:0.0 
-1.0 1:4.0 2:0.0 3:0.0 4:0.0 
-1.0 1:5.0 2:0.0 3:1.0 4:0.0 
-0.4022262435512959 1:6.0 2:1.0 3:1.0 4:0.0 
-1.0 1:31.0 2:0.0 3:0.0 4:0.0 
-1.0 1:31.0 2:0.0 3:0.0 4:0.0 
-1.0 1:2.0 2:0.0 3:0.0 4:0.0 
-1.0 1:1.0 2:0.0 3:0.0 4:0.0 
-1.0 1:4.0 2:0.0 3:0.0 4:0.0 
-1.0 1:2.0 2:0.0 3:0.0 4:0.0 
-1.0 1:1.0 2:0.0 3:0.0 4:0.0 
-1.0 1:2.0 2:0.0 3:0.0 4:0.0 
-0.9202293856686635 1:7.0 2:1.0 3:0.0 4:0.0 
-1.0 1:2.0 2:0.0 3:0.0 4:0.0 
-1.0 1:3.0 2:0.0 3:0.0 4:0.0 
-1.0 1:3.0 2:0.0 3:0.0 4:0.0 
-1.0 1:3.0 2:0.0 3:0.0 4:0.0 
-1.0 1:5.0 2:0.0 3:0.0 4:0.0 
-1.0 1:1.0 2:0.0 3:0.0 4:0.0 
-1.0 1:1.0 2:0.0 3:0.0 4:0.0 
-1.0 1:1.0 2:0.0 3:0.0 4:0.0 
-1.0 1:5.0 2:0.0 3:0.0 4:0.0 
-0.008266443757764802 1:17.0 2:1.0 3:0.0 4:0.0 
-1.0 1:2.0 2:0.0 3:0.0 4:0.0 
-1.0 1:2.0 2:0.0 3:0.0 4:0.0 
-0.2641576625939831 1:90.0 2:3.0 3:0.0 4:0.0 
-1.0 1:34.0 2:0.0 3:0.0 4:0.0 
-1.0 1:34.0 2:0.0 3:0.0 4:0.0 
-0.9904840894031074 1:54.0 2:2.0 3:0.0 4:0.0 
-1.0 1:3.0 2:0.0 3:0.0 4:0.0 
-1.0 1:3.0 2:0.0 3:0.0 4:0.0 
-1.0 1:18.0 2:0.0 3:0.0 4:0.0 
-0.5461264447601429 1:22.0 2:0.0 3:5.0 4:0.0 
-1.0 1:6.0 2:0.0 3:0.0 4:0.0 
-1.0 1:4.0 2:0.0 3:0.0 4:0.0 
-1.0 1:4.0 2:0.0 3:0.0 4:0.0 
-1.0 1:15.0 2:0.0 3:1.0 4:0.0 
-1.0 1:9.0 2:0.0 3:0.0 4:0.0 
-1.0 1:2.0 2:0.0 3:0.0 4:0.0 
-1.0 1:2.0 2:0.0 3:0.0 4:0.0 
-1.0 1:2.0 2:0.0 3:0.0 4:0.0 
-1.0 1:1.0 2:0.0 3:0.0 4:0.0 
-1.0 1:10.0 2:0.0 3:0.0 4:0.0 
-1.0 1:14.0 2:0.0 3:0.0 4:0.0 
-1.0 1:4.0 2:0.0 3:0.0 4:0.0 
-1.0 1:8.0 2:0.0 3:0.0 4:0.0 
-1.0 1:8.0 2:0.0 3:0.0 4:0.0 
-1.0 1:8.0 2:0.0 3:0.0 4:0.0 
-1.0 1:1.0 2:0.0 3:0.0 4:0.0 
-0.7787718458378029 1:62.0 2:1.0 3:0.0 4:0.0 
-1.0 1:16.0 2:0.0 3:0.0 4:0.0 
-1.0 1:1.0 2:0.0 3:0.0 4:0.0 
-1.0 1:1.0 2:0.0 3:0.0 4:0.0 
-0.9863162916507149 1:44.0 2:0.0 3:0.0 4:0.0 
-1.0 1:3.0 2:0.0 3:0.0 4:0.0 
-1.0 1:2.0 2:0.0 3:0.0 4:0.0 
-1.0 1:2.0 2:0.0 3:0.0 4:0.0 
-1.0 1:2.0 2:0.0 3:0.0 4:0.0 
-1.0 1:4.0 2:0.0 3:0.0 4:0.0 
-1.0 1:4.0 2:0.0 3:0.0 4:0.0 
-1.0 1:18.0 2:0.0 3:0.0 4:0.0 
-1.0 1:18.0 2:0.0 3:0.0 4:0.0 
-1.0 1:2.0 2:0.0 3:0.0 4:0.0 
-1.0 1:3.0 2:0.0 3:0.0 4:0.0 
-1.0 1:2.0 2:0.0 3:0.0 4:0.0 
-1.0 1:3.0 2:0.0 3:0.0 4:0.0 
-1.0 1:1.0 2:0.0 3:0.0 4:0.0 
-0.2170644184743689 1:147.0 2:3.0 3:0.0 4:0.0 
-0.35843050716697866 1:268.0 2:4.0 3:0.0 4:0.0 
-1.0 1:20.0 2:0.0 3:0.0 4:0.0 
-0.04552454685167013 1:101.0 2:1.0 3:0.0 4:0.0 
-1.0 1:12.0 2:0.0 3:0.0 4:0.0 
-0.9991854623810242 1:27.0 2:1.0 3:0.0 4:0.0 
-1.0 1:26.0 2:0.0 3:0.0 4:0.0 
-1.0 1:26.0 2:0.0 3:0.0 4:0.0 
-1.0 1:16.0 2:0.0 3:0.0 4:0.0 
-0.3583663011895669 1:214.0 2:2.0 3:0.0 4:0.0 
-1.0 1:2.0 2:0.0 3:0.0 4:0.0 
-1.0 1:19.0 2:0.0 3:0.0 4:2.0 
-1.0 1:9.0 2:0.0 3:0.0 4:0.0 
-1.0 1:19.0 2:0.0 3:0.0 4:0.0 
-1.0 1:19.0 2:0.0 3:0.0 4:0.0 
-1.0 1:19.0 2:0.0 3:0.0 4:0.0 
-1.0 1:8.0 2:0.0 3:0.0 4:0.0 
-1.0 1:15.0 2:0.0 3:0.0 4:0.0 
-0.7003838286594777 1:35.0 2:1.0 3:0.0 4:0.0 
-0.06810620638431072 1:4.0 2:1.0 3:0.0 4:0.0 
-1.0 1:2.0 2:0.0 3:0.0 4:0.0 
-1.0 1:1.0 2:0.0 3:0.0 4:0.0 
-1.0 1:4.0 2:0.0 3:0.0 4:0.0 
-1.0 1:8.0 2:0.0 3:0.0 4:0.0 
-1.0 1:1.0 2:0.0 3:0.0 4:0.0 
-1.0 1:9.0 2:0.0 3:0.0 4:0.0 
-1.0 1:9.0 2:0.0 3:0.0 4:0.0 
-0.8072405321909767 1:4.0 2:1.0 3:0.0 4:0.0 
-1.0 1:4.0 2:0.0 3:0.0 4:0.0 
-1.0 1:6.0 2:0.0 3:0.0 4:0.0 
-0.25428779088152365 1:3.0 2:1.0 3:0.0 4:0.0 
-1.0 1:1.0 2:0.0 3:1.0 4:0.0 
-1.0 1:4.0 2:0.0 3:0.0 4:0.0 
-1.0 1:4.0 2:0.0 3:0.0 4:0.0 
-1.0 1:3.0 2:0.0 3:0.0 4:0.0 
-1.0 1:1.0 2:0.0 3:0.0 4:0.0 
-1.0 1:11.0 2:0.0 3:0.0 4:0.0 
-1.0 1:11.0 2:0.0 3:0.0 4:0.0 
-1.0 1:11.0 2:0.0 3:0.0 4:0.0 
-1.0 1:2.0 2:0.0 3:1.0 4:0.0 
